<?xml version="1.0"?>
<MethodSetup Method="BDT::BDTG">
  <GeneralInfo>
    <Info name="TMVA Release" value="4.1.2 [262402]"/>
    <Info name="ROOT Release" value="5.32/00 [335872]"/>
    <Info name="Creator" value="cmuelle2"/>
    <Info name="Date" value="Fri Jun 28 11:36:55 2013"/>
    <Info name="Host" value="Linux lxbuild168.cern.ch 2.6.18-308.16.1.el5 #1 SMP Thu Oct 4 14:02:28 CEST 2012 x86_64 x86_64 x86_64 GNU/Linux"/>
    <Info name="Dir" value="/afs/crc.nd.edu/user/c/cmuelle2/CMSSW_5_3_8_patch1/src/BEAN/TMVA/TMVAv412"/>
    <Info name="Training events" value="4104"/>
    <Info name="TrainingTime" value="2.27580500e+00"/>
    <Info name="AnalysisType" value="Classification"/>
  </GeneralInfo>
  <Options>
    <Option name="V" modified="Yes">False</Option>
    <Option name="VerbosityLevel" modified="No">Default</Option>
    <Option name="VarTransform" modified="No">None</Option>
    <Option name="H" modified="Yes">False</Option>
    <Option name="CreateMVAPdfs" modified="No">False</Option>
    <Option name="IgnoreNegWeightsInTraining" modified="No">False</Option>
    <Option name="NTrees" modified="Yes">400</Option>
    <Option name="RenormByClass" modified="No">False</Option>
    <Option name="BoostType" modified="Yes">Grad</Option>
    <Option name="AdaBoostR2Loss" modified="No">quadratic</Option>
    <Option name="UseBaggedGrad" modified="Yes">False</Option>
    <Option name="GradBaggingFraction" modified="No">6.000000e-01</Option>
    <Option name="Shrinkage" modified="Yes">1.000000e-01</Option>
    <Option name="AdaBoostBeta" modified="No">1.000000e+00</Option>
    <Option name="UseRandomisedTrees" modified="No">False</Option>
    <Option name="UseNvars" modified="No">3</Option>
    <Option name="UsePoissonNvars" modified="No">True</Option>
    <Option name="UseNTrainEvents" modified="No">4104</Option>
    <Option name="UseWeightedTrees" modified="No">True</Option>
    <Option name="UseYesNoLeaf" modified="No">True</Option>
    <Option name="NodePurityLimit" modified="No">5.000000e-01</Option>
    <Option name="SeparationType" modified="No">giniindex</Option>
    <Option name="nEventsMin" modified="No">40</Option>
    <Option name="nCuts" modified="Yes">20</Option>
    <Option name="UseFisherCuts" modified="No">False</Option>
    <Option name="MinLinCorrForFisher" modified="No">8.000000e-01</Option>
    <Option name="UseExclusiveVars" modified="No">False</Option>
    <Option name="PruneStrength" modified="No">0.000000e+00</Option>
    <Option name="PruneMethod" modified="No">nopruning</Option>
    <Option name="PruneBeforeBoost" modified="No">False</Option>
    <Option name="PruningValFraction" modified="No">5.000000e-01</Option>
    <Option name="NNodesMax" modified="Yes">5</Option>
    <Option name="MaxDepth" modified="No">3</Option>
    <Option name="DoBoostMonitor" modified="No">False</Option>
    <Option name="NegWeightTreatment" modified="Yes">ignorenegweights</Option>
  </Options>
  <Variables NVar="7">
    <Variable VarIndex="0" Expression="higgsLike_dijet_mass" Label="higgsLike_dijet_mass" Title="higgsLike_dijet_mass" Unit="" Internal="higgsLike_dijet_mass" Type="F" Min="3.20615883e+01" Max="4.74469055e+02"/>
    <Variable VarIndex="1" Expression="higgsLike_dijet_mass2" Label="higgsLike_dijet_mass2" Title="higgsLike_dijet_mass2" Unit="" Internal="higgsLike_dijet_mass2" Type="F" Min="3.41801834e+01" Max="8.14306274e+02"/>
    <Variable VarIndex="2" Expression="numHiggsLike_dijet_15_float" Label="numHiggsLike_dijet_15_float" Title="numHiggsLike_dijet_15_float" Unit="" Internal="numHiggsLike_dijet_15_float" Type="F" Min="0.00000000e+00" Max="7.00000000e+00"/>
    <Variable VarIndex="3" Expression="sum_pt" Label="sum_pt" Title="sum_pt" Unit="" Internal="sum_pt" Type="F" Min="1.55814926e+02" Max="1.94894678e+03"/>
    <Variable VarIndex="4" Expression="min_dr_jets" Label="min_dr_jets" Title="min_dr_jets" Unit="" Internal="min_dr_jets" Type="F" Min="5.03854394e-01" Max="3.31722593e+00"/>
    <Variable VarIndex="5" Expression="avg_btag_disc_btags" Label="avg_btag_disc_btags" Title="avg_btag_disc_btags" Unit="" Internal="avg_btag_disc_btags" Type="F" Min="6.81529999e-01" Max="9.99957561e-01"/>
    <Variable VarIndex="6" Expression="BDTG_CHARLIEge3t" Label="BDTG_CHARLIEge3t" Title="BDTG_CHARLIEge3t" Unit="" Internal="BDTG_CHARLIEge3t" Type="F" Min="-9.09382582e-01" Max="6.97667420e-01"/>
  </Variables>
  <Spectators NSpec="0"/>
  <Classes NClass="2">
    <Class Name="Signal" Index="0"/>
    <Class Name="Background" Index="1"/>
  </Classes>
  <Transformations NTransformations="0"/>
  <MVAPdfs/>
  <Weights NTrees="400" AnalysisType="1">
    <BinaryTree type="DecisionTree" boostWeight="1.0000000000000000e+00" itree="0">
      <Node pos="s" depth="0" NCoef="0" IVar="5" Cut="9.3930470943450928e-01" cType="0" res="5.8491406962275505e-03" rms="4.9996578693389893e-01" purity="5.0584912300109863e-01" nType="0">
        <Node pos="l" depth="1" NCoef="0" IVar="-1" Cut="0.0000000000000000e+00" cType="1" res="3.0218379572033882e-02" rms="4.4287279248237610e-01" purity="7.3208552598953247e-01" nType="-99"/>
        <Node pos="r" depth="1" NCoef="0" IVar="6" Cut="-6.7594483494758606e-02" cType="0" res="-8.4808640182018280e-02" rms="4.9275499582290649e-01" purity="4.1519138216972351e-01" nType="0">
          <Node pos="l" depth="2" NCoef="0" IVar="-1" Cut="0.0000000000000000e+00" cType="1" res="3.4709349274635315e-03" rms="4.9913042783737183e-01" purity="5.2947586774826050e-01" nType="-99"/>
          <Node pos="r" depth="2" NCoef="0" IVar="-1" Cut="0.0000000000000000e+00" cType="1" res="-2.6652675122022629e-02" rms="4.2311477661132812e-01" purity="2.3359076678752899e-01" nType="-99"/>
        </Node>
      </Node>
    </BinaryTree>
    <BinaryTree type="DecisionTree" boostWeight="1.0000000000000000e+00" itree="1">
      <Node pos="s" depth="0" NCoef="0" IVar="5" Cut="9.3930470943450928e-01" cType="0" res="4.4414079748094082e-03" rms="4.9607232213020325e-01" purity="5.0584912300109863e-01" nType="0">
        <Node pos="l" depth="1" NCoef="0" IVar="-1" Cut="0.0000000000000000e+00" cType="1" res="2.8277512639760971e-02" rms="4.4287279248237610e-01" purity="7.3208552598953247e-01" nType="-99"/>
        <Node pos="r" depth="1" NCoef="0" IVar="6" Cut="8.9317047968506813e-03" cType="0" res="-8.0727741122245789e-02" rms="4.9066153168678284e-01" purity="4.1519138216972351e-01" nType="0">
          <Node pos="l" depth="2" NCoef="0" IVar="-1" Cut="0.0000000000000000e+00" cType="1" res="5.8548329398036003e-03" rms="4.9754500389099121e-01" purity="5.4948711395263672e-01" nType="-99"/>
          <Node pos="r" depth="2" NCoef="0" IVar="-1" Cut="0.0000000000000000e+00" cType="1" res="-2.2520799189805984e-02" rms="4.3865486979484558e-01" purity="2.6142153143882751e-01" nType="-99"/>
        </Node>
      </Node>
    </BinaryTree>
    <BinaryTree type="DecisionTree" boostWeight="1.0000000000000000e+00" itree="2">
      <Node pos="s" depth="0" NCoef="0" IVar="6" Cut="-2.2064687311649323e-01" cType="0" res="3.0323280952870846e-03" rms="4.9258184432983398e-01" purity="5.0584912300109863e-01" nType="0">
        <Node pos="l" depth="1" NCoef="0" IVar="-1" Cut="0.0000000000000000e+00" cType="1" res="9.4149699434638023e-03" rms="4.8768582940101624e-01" purity="5.8547151088714600e-01" nType="-99"/>
        <Node pos="r" depth="1" NCoef="0" IVar="5" Cut="9.2647629976272583e-01" cType="0" res="-2.1890904009342194e-01" rms="4.3703186511993408e-01" purity="2.6976221799850464e-01" nType="0">
          <Node pos="l" depth="2" NCoef="0" IVar="-1" Cut="0.0000000000000000e+00" cType="1" res="-6.9903098046779633e-03" rms="4.9163913726806641e-01" purity="4.3918132781982422e-01" nType="-99"/>
          <Node pos="r" depth="2" NCoef="0" IVar="-1" Cut="0.0000000000000000e+00" cType="1" res="-3.2471232116222382e-02" rms="3.6857098340988159e-01" purity="1.6213105618953705e-01" nType="-99"/>
        </Node>
      </Node>
    </BinaryTree>
    <BinaryTree type="DecisionTree" boostWeight="1.0000000000000000e+00" itree="3">
      <Node pos="s" depth="0" NCoef="0" IVar="5" Cut="9.3930470943450928e-01" cType="0" res="2.3519715759903193e-03" rms="4.9045085906982422e-01" purity="5.0584912300109863e-01" nType="0">
        <Node pos="l" depth="1" NCoef="0" IVar="-1" Cut="0.0000000000000000e+00" cType="1" res="2.6142947375774384e-02" rms="4.4202107191085815e-01" purity="7.3208552598953247e-01" nType="-99"/>
        <Node pos="r" depth="1" NCoef="0" IVar="6" Cut="8.9317047968506813e-03" cType="0" res="-7.6832115650177002e-02" rms="4.8654001951217651e-01" purity="4.1519138216972351e-01" nType="0">
          <Node pos="l" depth="2" NCoef="0" IVar="-1" Cut="0.0000000000000000e+00" cType="1" res="4.9205180257558823e-03" rms="4.9754497408866882e-01" purity="5.4948711395263672e-01" nType="-99"/>
          <Node pos="r" depth="2" NCoef="0" IVar="-1" Cut="0.0000000000000000e+00" cType="1" res="-2.0897325128316879e-02" rms="4.3672502040863037e-01" purity="2.6142153143882751e-01" nType="-99"/>
        </Node>
      </Node>
    </BinaryTree>
    <BinaryTree type="DecisionTree" boostWeight="1.0000000000000000e+00" itree="4">
      <Node pos="s" depth="0" NCoef="0" IVar="2" Cut="1.3333333730697632e+00" cType="0" res="1.1577320983633399e-03" rms="4.8745834827423096e-01" purity="5.0584912300109863e-01" nType="0">
        <Node pos="l" depth="1" NCoef="0" IVar="-1" Cut="0.0000000000000000e+00" cType="1" res="2.1978681907057762e-02" rms="4.5430904626846313e-01" purity="6.9916647672653198e-01" nType="-99"/>
        <Node pos="r" depth="1" NCoef="0" IVar="5" Cut="9.2414146661758423e-01" cType="0" res="-8.0832198262214661e-02" rms="4.8073205351829529e-01" purity="4.1549038887023926e-01" nType="0">
          <Node pos="l" depth="2" NCoef="0" IVar="-1" Cut="0.0000000000000000e+00" cType="1" res="7.8276833519339561e-03" rms="4.8369941115379333e-01" purity="5.9183591604232788e-01" nType="-99"/>
          <Node pos="r" depth="2" NCoef="0" IVar="-1" Cut="0.0000000000000000e+00" cType="1" res="-1.9687671214342117e-02" rms="4.5442169904708862e-01" purity="3.0684661865234375e-01" nType="-99"/>
        </Node>
      </Node>
    </BinaryTree>
    <BinaryTree type="DecisionTree" boostWeight="1.0000000000000000e+00" itree="5">
      <Node pos="s" depth="0" NCoef="0" IVar="6" Cut="-2.2064687311649323e-01" cType="0" res="7.9271499998867512e-04" rms="4.8466029763221741e-01" purity="5.0584912300109863e-01" nType="0">
        <Node pos="l" depth="1" NCoef="0" IVar="-1" Cut="0.0000000000000000e+00" cType="1" res="8.2692829892039299e-03" rms="4.8314815759658813e-01" purity="5.8547151088714600e-01" nType="-99"/>
        <Node pos="r" depth="1" NCoef="0" IVar="5" Cut="9.6318393945693970e-01" cType="0" res="-1.9902260601520538e-01" rms="4.3109548091888428e-01" purity="2.6976221799850464e-01" nType="0">
          <Node pos="l" depth="2" NCoef="0" IVar="-1" Cut="0.0000000000000000e+00" cType="1" res="1.8655216321349144e-02" rms="4.6668818593025208e-01" purity="6.7973971366882324e-01" nType="-99"/>
          <Node pos="r" depth="2" NCoef="0" IVar="-1" Cut="0.0000000000000000e+00" cType="1" res="-2.3260818794369698e-02" rms="4.1321027278900146e-01" purity="2.2997510433197021e-01" nType="-99"/>
        </Node>
      </Node>
    </BinaryTree>
    <BinaryTree type="DecisionTree" boostWeight="1.0000000000000000e+00" itree="6">
      <Node pos="s" depth="0" NCoef="0" IVar="5" Cut="9.6963113546371460e-01" cType="0" res="1.4768929395359010e-04" rms="4.8295891284942627e-01" purity="5.0584912300109863e-01" nType="0">
        <Node pos="l" depth="1" NCoef="0" IVar="-1" Cut="0.0000000000000000e+00" cType="1" res="6.6172733902931213e-02" rms="2.4774695932865143e-01" purity="9.3382120132446289e-01" nType="-99"/>
        <Node pos="r" depth="1" NCoef="0" IVar="6" Cut="8.9317047968506813e-03" cType="0" res="-3.4697681665420532e-02" rms="4.8461714386940002e-01" purity="4.6619743108749390e-01" nType="0">
          <Node pos="l" depth="2" NCoef="0" IVar="-1" Cut="0.0000000000000000e+00" cType="1" res="8.5979672148823738e-03" rms="4.8630639910697937e-01" purity="5.9598749876022339e-01" nType="-99"/>
          <Node pos="r" depth="2" NCoef="0" IVar="-1" Cut="0.0000000000000000e+00" cType="1" res="-1.5709025785326958e-02" rms="4.5455172657966614e-01" purity="3.1903034448623657e-01" nType="-99"/>
        </Node>
      </Node>
    </BinaryTree>
    <BinaryTree type="DecisionTree" boostWeight="1.0000000000000000e+00" itree="7">
      <Node pos="s" depth="0" NCoef="0" IVar="5" Cut="9.3930470943450928e-01" cType="0" res="-1.3481547357514501e-03" rms="4.7958841919898987e-01" purity="5.0584912300109863e-01" nType="0">
        <Node pos="l" depth="1" NCoef="0" IVar="-1" Cut="0.0000000000000000e+00" cType="1" res="2.2422246634960175e-02" rms="4.3460750579833984e-01" purity="7.3208552598953247e-01" nType="-99"/>
        <Node pos="r" depth="1" NCoef="0" IVar="6" Cut="1.6198408603668213e-01" cType="0" res="-6.9804266095161438e-02" rms="4.7969001531600952e-01" purity="4.1519138216972351e-01" nType="0">
          <Node pos="l" depth="2" NCoef="0" IVar="-1" Cut="0.0000000000000000e+00" cType="1" res="8.7611330673098564e-03" rms="4.8957061767578125e-01" purity="5.9367179870605469e-01" nType="-99"/>
          <Node pos="r" depth="2" NCoef="0" IVar="-1" Cut="0.0000000000000000e+00" cType="1" res="-1.5768611803650856e-02" rms="4.5487317442893982e-01" purity="3.1327536702156067e-01" nType="-99"/>
        </Node>
      </Node>
    </BinaryTree>
    <BinaryTree type="DecisionTree" boostWeight="1.0000000000000000e+00" itree="8">
      <Node pos="s" depth="0" NCoef="0" IVar="4" Cut="1.8435550928115845e+00" cType="1" res="-2.0855397451668978e-03" rms="4.7728505730628967e-01" purity="5.0584912300109863e-01" nType="0">
        <Node pos="l" depth="1" NCoef="0" IVar="-1" Cut="0.0000000000000000e+00" cType="1" res="4.3201278895139694e-03" rms="4.7694787383079529e-01" purity="5.4857206344604492e-01" nType="-99"/>
        <Node pos="r" depth="1" NCoef="0" IVar="5" Cut="9.6369063854217529e-01" cType="0" res="-2.9316598176956177e-01" rms="3.6667865514755249e-01" purity="1.7915949225425720e-01" nType="0">
          <Node pos="l" depth="2" NCoef="0" IVar="-1" Cut="0.0000000000000000e+00" cType="1" res="-1.9576199701987207e-04" rms="4.8305687308311462e-01" purity="5.7950472831726074e-01" nType="-99"/>
          <Node pos="r" depth="2" NCoef="0" IVar="-1" Cut="0.0000000000000000e+00" cType="1" res="-3.0837863683700562e-02" rms="3.4118559956550598e-01" purity="1.4148443937301636e-01" nType="-99"/>
        </Node>
      </Node>
    </BinaryTree>
    <BinaryTree type="DecisionTree" boostWeight="1.0000000000000000e+00" itree="9">
      <Node pos="s" depth="0" NCoef="0" IVar="2" Cut="1.3333333730697632e+00" cType="0" res="-2.3705970961600542e-03" rms="4.7609958052635193e-01" purity="5.0584912300109863e-01" nType="0">
        <Node pos="l" depth="1" NCoef="0" IVar="-1" Cut="0.0000000000000000e+00" cType="1" res="1.8658079206943512e-02" rms="4.5039555430412292e-01" purity="6.9916647672653198e-01" nType="-99"/>
        <Node pos="r" depth="1" NCoef="0" IVar="5" Cut="9.2414146661758423e-01" cType="0" res="-7.2873540222644806e-02" rms="4.7137770056724548e-01" purity="4.1549038887023926e-01" nType="0">
          <Node pos="l" depth="2" NCoef="0" IVar="-1" Cut="0.0000000000000000e+00" cType="1" res="6.7027551122009754e-03" rms="4.7479453682899475e-01" purity="5.9183591604232788e-01" nType="-99"/>
          <Node pos="r" depth="2" NCoef="0" IVar="-1" Cut="0.0000000000000000e+00" cType="1" res="-1.7670819535851479e-02" rms="4.5015734434127808e-01" purity="3.0684661865234375e-01" nType="-99"/>
        </Node>
      </Node>
    </BinaryTree>
    <BinaryTree type="DecisionTree" boostWeight="1.0000000000000000e+00" itree="10">
      <Node pos="s" depth="0" NCoef="0" IVar="6" Cut="-2.2064687311649323e-01" cType="0" res="-2.4809718597680330e-03" rms="4.7397091984748840e-01" purity="5.0584912300109863e-01" nType="0">
        <Node pos="l" depth="1" NCoef="0" IVar="-1" Cut="0.0000000000000000e+00" cType="1" res="6.8233255296945572e-03" rms="4.7608602046966553e-01" purity="5.8547151088714600e-01" nType="-99"/>
        <Node pos="r" depth="1" NCoef="0" IVar="4" Cut="1.8786824941635132e+00" cType="1" res="-1.7536926269531250e-01" rms="4.2275172472000122e-01" purity="2.6976221799850464e-01" nType="0">
          <Node pos="l" depth="2" NCoef="0" IVar="-1" Cut="0.0000000000000000e+00" cType="1" res="-1.4107841998338699e-02" rms="4.4709935784339905e-01" purity="3.2650476694107056e-01" nType="-99"/>
          <Node pos="r" depth="2" NCoef="0" IVar="-1" Cut="0.0000000000000000e+00" cType="1" res="-2.8039066120982170e-02" rms="2.9158416390419006e-01" purity="1.0022658109664917e-01" nType="-99"/>
        </Node>
      </Node>
    </BinaryTree>
    <BinaryTree type="DecisionTree" boostWeight="1.0000000000000000e+00" itree="11">
      <Node pos="s" depth="0" NCoef="0" IVar="5" Cut="9.6963113546371460e-01" cType="0" res="-2.8511320706456900e-03" rms="4.7278589010238647e-01" purity="5.0584912300109863e-01" nType="0">
        <Node pos="l" depth="1" NCoef="0" IVar="-1" Cut="0.0000000000000000e+00" cType="1" res="5.9117559343576431e-02" rms="2.4603384733200073e-01" purity="9.3382120132446289e-01" nType="-99"/>
        <Node pos="r" depth="1" NCoef="0" IVar="4" Cut="1.8435550928115845e+00" cType="1" res="-3.3142406493425369e-02" rms="4.7729116678237915e-01" purity="4.6619743108749390e-01" nType="0">
          <Node pos="l" depth="2" NCoef="0" IVar="-1" Cut="0.0000000000000000e+00" cType="1" res="2.7583900373429060e-04" rms="4.8175576329231262e-01" purity="5.0961613655090332e-01" nType="-99"/>
          <Node pos="r" depth="2" NCoef="0" IVar="-1" Cut="0.0000000000000000e+00" cType="1" res="-2.8306649997830391e-02" rms="3.4561190009117126e-01" purity="1.4795660972595215e-01" nType="-99"/>
        </Node>
      </Node>
    </BinaryTree>
    <BinaryTree type="DecisionTree" boostWeight="1.0000000000000000e+00" itree="12">
      <Node pos="s" depth="0" NCoef="0" IVar="6" Cut="-1.4412067830562592e-01" cType="0" res="-3.8094127085059881e-03" rms="4.7032257914543152e-01" purity="5.0584912300109863e-01" nType="0">
        <Node pos="l" depth="1" NCoef="0" IVar="-1" Cut="0.0000000000000000e+00" cType="1" res="7.2238123975694180e-03" rms="4.7333729267120361e-01" purity="5.9653824567794800e-01" nType="-99"/>
        <Node pos="r" depth="1" NCoef="0" IVar="5" Cut="9.1424041986465454e-01" cType="0" res="-1.4585031569004059e-01" rms="4.3091434240341187e-01" purity="2.9953771829605103e-01" nType="0">
          <Node pos="l" depth="2" NCoef="0" IVar="-1" Cut="0.0000000000000000e+00" cType="1" res="-5.2670384757220745e-03" rms="4.7197166085243225e-01" purity="4.4373428821563721e-01" nType="-99"/>
          <Node pos="r" depth="2" NCoef="0" IVar="-1" Cut="0.0000000000000000e+00" cType="1" res="-2.6086589321494102e-02" rms="3.6165964603424072e-01" purity="1.5684808790683746e-01" nType="-99"/>
        </Node>
      </Node>
    </BinaryTree>
    <BinaryTree type="DecisionTree" boostWeight="1.0000000000000000e+00" itree="13">
      <Node pos="s" depth="0" NCoef="0" IVar="5" Cut="9.3930470943450928e-01" cType="0" res="-3.9819837547838688e-03" rms="4.6904590725898743e-01" purity="5.0584912300109863e-01" nType="0">
        <Node pos="l" depth="1" NCoef="0" IVar="-1" Cut="0.0000000000000000e+00" cType="1" res="1.9151655957102776e-02" rms="4.2718827724456787e-01" purity="7.3208552598953247e-01" nType="-99"/>
        <Node pos="r" depth="1" NCoef="0" IVar="4" Cut="1.0397347211837769e+00" cType="1" res="-6.2518067657947540e-02" rms="4.7229185700416565e-01" purity="4.1519138216972351e-01" nType="0">
          <Node pos="l" depth="2" NCoef="0" IVar="-1" Cut="0.0000000000000000e+00" cType="1" res="4.1271070949733257e-03" rms="4.8307812213897705e-01" purity="5.3104728460311890e-01" nType="-99"/>
          <Node pos="r" depth="2" NCoef="0" IVar="-1" Cut="0.0000000000000000e+00" cType="1" res="-1.7182633280754089e-02" rms="4.4295936822891235e-01" purity="3.0835071206092834e-01" nType="-99"/>
        </Node>
      </Node>
    </BinaryTree>
    <BinaryTree type="DecisionTree" boostWeight="1.0000000000000000e+00" itree="14">
      <Node pos="s" depth="0" NCoef="0" IVar="2" Cut="1.3333333730697632e+00" cType="0" res="-4.1934680193662643e-03" rms="4.6726348996162415e-01" purity="5.0584912300109863e-01" nType="0">
        <Node pos="l" depth="1" NCoef="0" IVar="-1" Cut="0.0000000000000000e+00" cType="1" res="1.6252832487225533e-02" rms="4.4702878594398499e-01" purity="6.9916647672653198e-01" nType="-99"/>
        <Node pos="r" depth="1" NCoef="0" IVar="5" Cut="9.2414146661758423e-01" cType="0" res="-6.5866753458976746e-02" rms="4.6372544765472412e-01" purity="4.1549038887023926e-01" nType="0">
          <Node pos="l" depth="2" NCoef="0" IVar="-1" Cut="0.0000000000000000e+00" cType="1" res="5.5501381866633892e-03" rms="4.6843108534812927e-01" purity="5.9183591604232788e-01" nType="-99"/>
          <Node pos="r" depth="2" NCoef="0" IVar="-1" Cut="0.0000000000000000e+00" cType="1" res="-1.5841683372855186e-02" rms="4.4628971815109253e-01" purity="3.0684661865234375e-01" nType="-99"/>
        </Node>
      </Node>
    </BinaryTree>
    <BinaryTree type="DecisionTree" boostWeight="1.0000000000000000e+00" itree="15">
      <Node pos="s" depth="0" NCoef="0" IVar="4" Cut="1.8435550928115845e+00" cType="1" res="-4.1583906859159470e-03" rms="4.6563968062400818e-01" purity="5.0584912300109863e-01" nType="0">
        <Node pos="l" depth="1" NCoef="0" IVar="-1" Cut="0.0000000000000000e+00" cType="1" res="3.3741223160177469e-03" rms="4.6841001510620117e-01" purity="5.4857206344604492e-01" nType="-99"/>
        <Node pos="r" depth="1" NCoef="0" IVar="5" Cut="9.6369063854217529e-01" cType="0" res="-2.4794571101665497e-01" rms="3.6031770706176758e-01" purity="1.7915949225425720e-01" nType="0">
          <Node pos="l" depth="2" NCoef="0" IVar="-1" Cut="0.0000000000000000e+00" cType="1" res="-2.5956234894692898e-03" rms="4.6860292553901672e-01" purity="5.7950472831726074e-01" nType="-99"/>
          <Node pos="r" depth="2" NCoef="0" IVar="-1" Cut="0.0000000000000000e+00" cType="1" res="-2.6904538273811340e-02" rms="3.4090000391006470e-01" purity="1.4148443937301636e-01" nType="-99"/>
        </Node>
      </Node>
    </BinaryTree>
    <BinaryTree type="DecisionTree" boostWeight="1.0000000000000000e+00" itree="16">
      <Node pos="s" depth="0" NCoef="0" IVar="5" Cut="9.6963113546371460e-01" cType="0" res="-4.2571513913571835e-03" rms="4.6480265259742737e-01" purity="5.0584912300109863e-01" nType="0">
        <Node pos="l" depth="1" NCoef="0" IVar="-1" Cut="0.0000000000000000e+00" cType="1" res="5.3671538829803467e-02" rms="2.4519512057304382e-01" purity="9.3382120132446289e-01" nType="-99"/>
        <Node pos="r" depth="1" NCoef="0" IVar="3" Cut="4.1197662353515625e+02" cType="0" res="-3.0557433143258095e-02" rms="4.7151899337768555e-01" purity="4.6619743108749390e-01" nType="0">
          <Node pos="l" depth="2" NCoef="0" IVar="-1" Cut="0.0000000000000000e+00" cType="1" res="6.7359199747443199e-03" rms="4.7555136680603027e-01" purity="5.7879585027694702e-01" nType="-99"/>
          <Node pos="r" depth="2" NCoef="0" IVar="-1" Cut="0.0000000000000000e+00" cType="1" res="-1.3463343493640423e-02" rms="4.4808328151702881e-01" purity="3.3982437849044800e-01" nType="-99"/>
        </Node>
      </Node>
    </BinaryTree>
    <BinaryTree type="DecisionTree" boostWeight="1.0000000000000000e+00" itree="17">
      <Node pos="s" depth="0" NCoef="0" IVar="6" Cut="-2.2064687311649323e-01" cType="0" res="-5.0824233330786228e-03" rms="4.6272137761116028e-01" purity="5.0584912300109863e-01" nType="0">
        <Node pos="l" depth="1" NCoef="0" IVar="-1" Cut="0.0000000000000000e+00" cType="1" res="5.3555928170681000e-03" rms="4.6841791272163391e-01" purity="5.8547151088714600e-01" nType="-99"/>
        <Node pos="r" depth="1" NCoef="0" IVar="6" Cut="-5.1589763164520264e-01" cType="0" res="-1.4854775369167328e-01" rms="4.1335165500640869e-01" purity="2.6976221799850464e-01" nType="0">
          <Node pos="l" depth="2" NCoef="0" IVar="-1" Cut="0.0000000000000000e+00" cType="1" res="-1.0529287159442902e-02" rms="4.4080483913421631e-01" purity="3.3291274309158325e-01" nType="-99"/>
          <Node pos="r" depth="2" NCoef="0" IVar="-1" Cut="0.0000000000000000e+00" cType="1" res="-2.8448471799492836e-02" rms="3.0736914277076721e-01" purity="1.2228487432003021e-01" nType="-99"/>
        </Node>
      </Node>
    </BinaryTree>
    <BinaryTree type="DecisionTree" boostWeight="1.0000000000000000e+00" itree="18">
      <Node pos="s" depth="0" NCoef="0" IVar="4" Cut="1.7095850706100464e+00" cType="1" res="-5.1577519625425339e-03" rms="4.6181619167327881e-01" purity="5.0584912300109863e-01" nType="0">
        <Node pos="l" depth="1" NCoef="0" IVar="-1" Cut="0.0000000000000000e+00" cType="1" res="3.7412780802696943e-03" rms="4.6538436412811279e-01" purity="5.5729341506958008e-01" nType="-99"/>
        <Node pos="r" depth="1" NCoef="0" IVar="5" Cut="8.5993635654449463e-01" cType="0" res="-1.9331362843513489e-01" rms="3.9206990599632263e-01" purity="2.3474565148353577e-01" nType="0">
          <Node pos="l" depth="2" NCoef="0" IVar="-1" Cut="0.0000000000000000e+00" cType="1" res="-1.6910355538129807e-02" rms="4.1129347681999207e-01" purity="2.7260020375251770e-01" nType="-99"/>
          <Node pos="r" depth="2" NCoef="0" IVar="-1" Cut="0.0000000000000000e+00" cType="1" res="-3.7452362477779388e-02" rms="2.7114772796630859e-01" purity="8.4594212472438812e-02" nType="-99"/>
        </Node>
      </Node>
    </BinaryTree>
    <BinaryTree type="DecisionTree" boostWeight="1.0000000000000000e+00" itree="19">
      <Node pos="s" depth="0" NCoef="0" IVar="2" Cut="1.3333333730697632e+00" cType="0" res="-5.1092780195176601e-03" rms="4.6100741624832153e-01" purity="5.0584912300109863e-01" nType="0">
        <Node pos="l" depth="1" NCoef="0" IVar="-1" Cut="0.0000000000000000e+00" cType="1" res="1.4535332098603249e-02" rms="4.4407984614372253e-01" purity="6.9916647672653198e-01" nType="-99"/>
        <Node pos="r" depth="1" NCoef="0" IVar="5" Cut="8.9381504058837891e-01" cType="0" res="-6.0309346765279770e-02" rms="4.5839175581932068e-01" purity="4.1549038887023926e-01" nType="0">
          <Node pos="l" depth="2" NCoef="0" IVar="-1" Cut="0.0000000000000000e+00" cType="1" res="8.8580115698277950e-04" rms="4.6628689765930176e-01" purity="5.1158082485198975e-01" nType="-99"/>
          <Node pos="r" depth="2" NCoef="0" IVar="-1" Cut="0.0000000000000000e+00" cType="1" res="-1.8806589767336845e-02" rms="4.2628815770149231e-01" purity="2.7078321576118469e-01" nType="-99"/>
        </Node>
      </Node>
    </BinaryTree>
    <BinaryTree type="DecisionTree" boostWeight="1.0000000000000000e+00" itree="20">
      <Node pos="s" depth="0" NCoef="0" IVar="3" Cut="4.1197662353515625e+02" cType="0" res="-5.0481823273003101e-03" rms="4.5967325568199158e-01" purity="5.0584912300109863e-01" nType="0">
        <Node pos="l" depth="1" NCoef="0" IVar="-1" Cut="0.0000000000000000e+00" cType="1" res="8.8108116760849953e-03" rms="4.6006351709365845e-01" purity="6.1290729045867920e-01" nType="-99"/>
        <Node pos="r" depth="1" NCoef="0" IVar="5" Cut="9.5091497898101807e-01" cType="0" res="-8.8876679539680481e-02" rms="4.4464844465255737e-01" purity="3.8351863622665405e-01" nType="0">
          <Node pos="l" depth="2" NCoef="0" IVar="-1" Cut="0.0000000000000000e+00" cType="1" res="1.1616148985922337e-02" rms="4.2917707562446594e-01" purity="7.0271784067153931e-01" nType="-99"/>
          <Node pos="r" depth="2" NCoef="0" IVar="-1" Cut="0.0000000000000000e+00" cType="1" res="-1.4503485523164272e-02" rms="4.3695741891860962e-01" purity="3.0535960197448730e-01" nType="-99"/>
        </Node>
      </Node>
    </BinaryTree>
    <BinaryTree type="DecisionTree" boostWeight="1.0000000000000000e+00" itree="21">
      <Node pos="s" depth="0" NCoef="0" IVar="5" Cut="9.6963113546371460e-01" cType="0" res="-5.2334321662783623e-03" rms="4.5855641365051270e-01" purity="5.0584912300109863e-01" nType="0">
        <Node pos="l" depth="1" NCoef="0" IVar="-1" Cut="0.0000000000000000e+00" cType="1" res="4.9893707036972046e-02" rms="2.4404419958591461e-01" purity="9.3382120132446289e-01" nType="-99"/>
        <Node pos="r" depth="1" NCoef="0" IVar="3" Cut="4.1197662353515625e+02" cType="0" res="-2.8581758961081505e-02" rms="4.6669995784759521e-01" purity="4.6619743108749390e-01" nType="0">
          <Node pos="l" depth="2" NCoef="0" IVar="-1" Cut="0.0000000000000000e+00" cType="1" res="5.5033490061759949e-03" rms="4.7345265746116638e-01" purity="5.7879585027694702e-01" nType="-99"/>
          <Node pos="r" depth="2" NCoef="0" IVar="-1" Cut="0.0000000000000000e+00" cType="1" res="-1.1971366591751575e-02" rms="4.4498920440673828e-01" purity="3.3982437849044800e-01" nType="-99"/>
        </Node>
      </Node>
    </BinaryTree>
    <BinaryTree type="DecisionTree" boostWeight="1.0000000000000000e+00" itree="22">
      <Node pos="s" depth="0" NCoef="0" IVar="4" Cut="1.8435550928115845e+00" cType="1" res="-5.8635692112147808e-03" rms="4.5695593953132629e-01" purity="5.0584912300109863e-01" nType="0">
        <Node pos="l" depth="1" NCoef="0" IVar="-1" Cut="0.0000000000000000e+00" cType="1" res="2.6361625641584396e-03" rms="4.6169576048851013e-01" purity="5.4857206344604492e-01" nType="-99"/>
        <Node pos="r" depth="1" NCoef="0" IVar="5" Cut="9.6369063854217529e-01" cType="0" res="-2.1409334242343903e-01" rms="3.5564467310905457e-01" purity="1.7915949225425720e-01" nType="0">
          <Node pos="l" depth="2" NCoef="0" IVar="-1" Cut="0.0000000000000000e+00" cType="1" res="-4.6795806847512722e-03" rms="4.5511895418167114e-01" purity="5.7950472831726074e-01" nType="-99"/>
          <Node pos="r" depth="2" NCoef="0" IVar="-1" Cut="0.0000000000000000e+00" cType="1" res="-2.4105641990900040e-02" rms="3.4037181735038757e-01" purity="1.4148443937301636e-01" nType="-99"/>
        </Node>
      </Node>
    </BinaryTree>
    <BinaryTree type="DecisionTree" boostWeight="1.0000000000000000e+00" itree="23">
      <Node pos="s" depth="0" NCoef="0" IVar="2" Cut="1.3333333730697632e+00" cType="0" res="-5.8100582100450993e-03" rms="4.5634296536445618e-01" purity="5.0584912300109863e-01" nType="0">
        <Node pos="l" depth="1" NCoef="0" IVar="-1" Cut="0.0000000000000000e+00" cType="1" res="1.3343364931643009e-02" rms="4.4108018279075623e-01" purity="6.9916647672653198e-01" nType="-99"/>
        <Node pos="r" depth="1" NCoef="0" IVar="5" Cut="8.9381504058837891e-01" cType="0" res="-5.6488282978534698e-02" rms="4.5451965928077698e-01" purity="4.1549038887023926e-01" nType="0">
          <Node pos="l" depth="2" NCoef="0" IVar="-1" Cut="0.0000000000000000e+00" cType="1" res="6.5700133563950658e-04" rms="4.6297824382781982e-01" purity="5.1158082485198975e-01" nType="-99"/>
          <Node pos="r" depth="2" NCoef="0" IVar="-1" Cut="0.0000000000000000e+00" cType="1" res="-1.7596304416656494e-02" rms="4.2468351125717163e-01" purity="2.7078321576118469e-01" nType="-99"/>
        </Node>
      </Node>
    </BinaryTree>
    <BinaryTree type="DecisionTree" boostWeight="1.0000000000000000e+00" itree="24">
      <Node pos="s" depth="0" NCoef="0" IVar="4" Cut="1.7095850706100464e+00" cType="1" res="-5.6831752881407738e-03" rms="4.5522165298461914e-01" purity="5.0584912300109863e-01" nType="0">
        <Node pos="l" depth="1" NCoef="0" IVar="-1" Cut="0.0000000000000000e+00" cType="1" res="3.1326948665082455e-03" rms="4.6042132377624512e-01" purity="5.5729341506958008e-01" nType="-99"/>
        <Node pos="r" depth="1" NCoef="0" IVar="4" Cut="2.0161094665527344e+00" cType="1" res="-1.6885621845722198e-01" rms="3.8789036870002747e-01" purity="2.3474565148353577e-01" nType="0">
          <Node pos="l" depth="2" NCoef="0" IVar="-1" Cut="0.0000000000000000e+00" cType="1" res="-1.3032123446464539e-02" rms="4.2753872275352478e-01" purity="3.1599122285842896e-01" nType="-99"/>
          <Node pos="r" depth="2" NCoef="0" IVar="-1" Cut="0.0000000000000000e+00" cType="1" res="-2.4553228169679642e-02" rms="3.2997086644172668e-01" purity="1.4604206383228302e-01" nType="-99"/>
        </Node>
      </Node>
    </BinaryTree>
    <BinaryTree type="DecisionTree" boostWeight="1.0000000000000000e+00" itree="25">
      <Node pos="s" depth="0" NCoef="0" IVar="5" Cut="8.9381504058837891e-01" cType="0" res="-5.6110885925590992e-03" rms="4.5463302731513977e-01" purity="5.0584912300109863e-01" nType="0">
        <Node pos="l" depth="1" NCoef="0" IVar="-1" Cut="0.0000000000000000e+00" cType="1" res="6.0605155304074287e-03" rms="4.5079874992370605e-01" purity="5.9353381395339966e-01" nType="-99"/>
        <Node pos="r" depth="1" NCoef="0" IVar="6" Cut="2.3851028084754944e-01" cType="0" res="-9.7287662327289581e-02" rms="4.4629248976707458e-01" purity="3.5771098732948303e-01" nType="0">
          <Node pos="l" depth="2" NCoef="0" IVar="-1" Cut="0.0000000000000000e+00" cType="1" res="4.2631239630281925e-03" rms="4.8185729980468750e-01" purity="5.8156001567840576e-01" nType="-99"/>
          <Node pos="r" depth="2" NCoef="0" IVar="-1" Cut="0.0000000000000000e+00" cType="1" res="-1.9490653648972511e-02" rms="4.0810617804527283e-01" purity="2.3616337776184082e-01" nType="-99"/>
        </Node>
      </Node>
    </BinaryTree>
    <BinaryTree type="DecisionTree" boostWeight="1.0000000000000000e+00" itree="26">
      <Node pos="s" depth="0" NCoef="0" IVar="6" Cut="-2.2064687311649323e-01" cType="0" res="-5.4948870092630386e-03" rms="4.5365986227989197e-01" purity="5.0584912300109863e-01" nType="0">
        <Node pos="l" depth="1" NCoef="0" IVar="-1" Cut="0.0000000000000000e+00" cType="1" res="4.3169469572603703e-03" rms="4.6175906062126160e-01" purity="5.8547151088714600e-01" nType="-99"/>
        <Node pos="r" depth="1" NCoef="0" IVar="3" Cut="3.0335321044921875e+02" cType="0" res="-1.2377866357564926e-01" rms="4.0634229779243469e-01" purity="2.6976221799850464e-01" nType="0">
          <Node pos="l" depth="2" NCoef="0" IVar="-1" Cut="0.0000000000000000e+00" cType="1" res="-6.9332593120634556e-03" rms="4.3154859542846680e-01" purity="3.4049522876739502e-01" nType="-99"/>
          <Node pos="r" depth="2" NCoef="0" IVar="-1" Cut="0.0000000000000000e+00" cType="1" res="-2.2716559469699860e-02" rms="3.5263055562973022e-01" purity="1.7571620643138885e-01" nType="-99"/>
        </Node>
      </Node>
    </BinaryTree>
    <BinaryTree type="DecisionTree" boostWeight="1.0000000000000000e+00" itree="27">
      <Node pos="s" depth="0" NCoef="0" IVar="5" Cut="9.3930470943450928e-01" cType="0" res="-5.4880538955330849e-03" rms="4.5301982760429382e-01" purity="5.0584912300109863e-01" nType="0">
        <Node pos="l" depth="1" NCoef="0" IVar="-1" Cut="0.0000000000000000e+00" cType="1" res="1.4481083489954472e-02" rms="4.1540536284446716e-01" purity="7.3208552598953247e-01" nType="-99"/>
        <Node pos="r" depth="1" NCoef="0" IVar="4" Cut="1.0397347211837769e+00" cType="1" res="-4.8905178904533386e-02" rms="4.6013855934143066e-01" purity="4.1519138216972351e-01" nType="0">
          <Node pos="l" depth="2" NCoef="0" IVar="-1" Cut="0.0000000000000000e+00" cType="1" res="3.3631697297096252e-03" rms="4.7487714886665344e-01" purity="5.3104728460311890e-01" nType="-99"/>
          <Node pos="r" depth="2" NCoef="0" IVar="-1" Cut="0.0000000000000000e+00" cType="1" res="-1.4142320491373539e-02" rms="4.3384051322937012e-01" purity="3.0835071206092834e-01" nType="-99"/>
        </Node>
      </Node>
    </BinaryTree>
    <BinaryTree type="DecisionTree" boostWeight="1.0000000000000000e+00" itree="28">
      <Node pos="s" depth="0" NCoef="0" IVar="5" Cut="9.6963113546371460e-01" cType="0" res="-5.4735392332077026e-03" rms="4.5198866724967957e-01" purity="5.0584912300109863e-01" nType="0">
        <Node pos="l" depth="1" NCoef="0" IVar="-1" Cut="0.0000000000000000e+00" cType="1" res="4.6086657792329788e-02" rms="2.4255138635635376e-01" purity="9.3382120132446289e-01" nType="-99"/>
        <Node pos="r" depth="1" NCoef="0" IVar="3" Cut="4.1197662353515625e+02" cType="0" res="-2.5730149820446968e-02" rms="4.6144530177116394e-01" purity="4.6619743108749390e-01" nType="0">
          <Node pos="l" depth="2" NCoef="0" IVar="-1" Cut="0.0000000000000000e+00" cType="1" res="4.7835693694651127e-03" rms="4.6962887048721313e-01" purity="5.7879585027694702e-01" nType="-99"/>
          <Node pos="r" depth="2" NCoef="0" IVar="-1" Cut="0.0000000000000000e+00" cType="1" res="-1.0800251737236977e-02" rms="4.4118615984916687e-01" purity="3.3982437849044800e-01" nType="-99"/>
        </Node>
      </Node>
    </BinaryTree>
    <BinaryTree type="DecisionTree" boostWeight="1.0000000000000000e+00" itree="29">
      <Node pos="s" depth="0" NCoef="0" IVar="2" Cut="1.3333333730697632e+00" cType="0" res="-5.9629403986036777e-03" rms="4.5076960325241089e-01" purity="5.0584912300109863e-01" nType="0">
        <Node pos="l" depth="1" NCoef="0" IVar="-1" Cut="0.0000000000000000e+00" cType="1" res="1.1794178746640682e-02" rms="4.3828496336936951e-01" purity="6.9916647672653198e-01" nType="-99"/>
        <Node pos="r" depth="1" NCoef="0" IVar="5" Cut="9.2414146661758423e-01" cType="0" res="-5.0498768687248230e-02" rms="4.4961583614349365e-01" purity="4.1549038887023926e-01" nType="0">
          <Node pos="l" depth="2" NCoef="0" IVar="-1" Cut="0.0000000000000000e+00" cType="1" res="3.7935751024633646e-03" rms="4.5521938800811768e-01" purity="5.9183591604232788e-01" nType="-99"/>
          <Node pos="r" depth="2" NCoef="0" IVar="-1" Cut="0.0000000000000000e+00" cType="1" res="-1.2321011163294315e-02" rms="4.3836811184883118e-01" purity="3.0684661865234375e-01" nType="-99"/>
        </Node>
      </Node>
    </BinaryTree>
    <BinaryTree type="DecisionTree" boostWeight="1.0000000000000000e+00" itree="30">
      <Node pos="s" depth="0" NCoef="0" IVar="4" Cut="1.8435550928115845e+00" cType="1" res="-5.7463957928121090e-03" rms="4.4992873072624207e-01" purity="5.0584912300109863e-01" nType="0">
        <Node pos="l" depth="1" NCoef="0" IVar="-1" Cut="0.0000000000000000e+00" cType="1" res="2.1736004855483770e-03" rms="4.5603302121162415e-01" purity="5.4857206344604492e-01" nType="-99"/>
        <Node pos="r" depth="1" NCoef="0" IVar="5" Cut="9.6369063854217529e-01" cType="0" res="-1.8214336037635803e-01" rms="3.5350036621093750e-01" purity="1.7915949225425720e-01" nType="0">
          <Node pos="l" depth="2" NCoef="0" IVar="-1" Cut="0.0000000000000000e+00" cType="1" res="-5.6088012643158436e-03" rms="4.4728156924247742e-01" purity="5.7950472831726074e-01" nType="-99"/>
          <Node pos="r" depth="2" NCoef="0" IVar="-1" Cut="0.0000000000000000e+00" cType="1" res="-2.1556442603468895e-02" rms="3.4073248505592346e-01" purity="1.4148443937301636e-01" nType="-99"/>
        </Node>
      </Node>
    </BinaryTree>
    <BinaryTree type="DecisionTree" boostWeight="1.0000000000000000e+00" itree="31">
      <Node pos="s" depth="0" NCoef="0" IVar="6" Cut="-3.7369924783706665e-01" cType="0" res="-5.6554991751909256e-03" rms="4.4948410987854004e-01" purity="5.0584912300109863e-01" nType="0">
        <Node pos="l" depth="1" NCoef="0" IVar="-1" Cut="0.0000000000000000e+00" cType="1" res="2.4708660785108805e-03" rms="4.5710062980651855e-01" purity="5.5604070425033569e-01" nType="-99"/>
        <Node pos="r" depth="1" NCoef="0" IVar="6" Cut="-5.2680772542953491e-01" cType="0" res="-1.5627358853816986e-01" rms="3.6657375097274780e-01" purity="2.0659911632537842e-01" nType="0">
          <Node pos="l" depth="2" NCoef="0" IVar="-1" Cut="0.0000000000000000e+00" cType="1" res="-9.5256473869085312e-03" rms="4.2029678821563721e-01" purity="3.0375593900680542e-01" nType="-99"/>
          <Node pos="r" depth="2" NCoef="0" IVar="-1" Cut="0.0000000000000000e+00" cType="1" res="-2.5384724140167236e-02" rms="2.9210412502288818e-01" purity="1.1449886858463287e-01" nType="-99"/>
        </Node>
      </Node>
    </BinaryTree>
    <BinaryTree type="DecisionTree" boostWeight="1.0000000000000000e+00" itree="32">
      <Node pos="s" depth="0" NCoef="0" IVar="5" Cut="8.9381504058837891e-01" cType="0" res="-5.5662104859948158e-03" rms="4.4901487231254578e-01" purity="5.0584912300109863e-01" nType="0">
        <Node pos="l" depth="1" NCoef="0" IVar="-1" Cut="0.0000000000000000e+00" cType="1" res="5.2834139205515385e-03" rms="4.4635385274887085e-01" purity="5.9353381395339966e-01" nType="-99"/>
        <Node pos="r" depth="1" NCoef="0" IVar="6" Cut="2.3851028084754944e-01" cType="0" res="-8.5389569401741028e-02" rms="4.4214963912963867e-01" purity="3.5771098732948303e-01" nType="0">
          <Node pos="l" depth="2" NCoef="0" IVar="-1" Cut="0.0000000000000000e+00" cType="1" res="3.5743964836001396e-03" rms="4.7981670498847961e-01" purity="5.8156001567840576e-01" nType="-99"/>
          <Node pos="r" depth="2" NCoef="0" IVar="-1" Cut="0.0000000000000000e+00" cType="1" res="-1.7514005303382874e-02" rms="4.0695899724960327e-01" purity="2.3616337776184082e-01" nType="-99"/>
        </Node>
      </Node>
    </BinaryTree>
    <BinaryTree type="DecisionTree" boostWeight="1.0000000000000000e+00" itree="33">
      <Node pos="s" depth="0" NCoef="0" IVar="4" Cut="1.1737047433853149e+00" cType="1" res="-5.4209423251450062e-03" rms="4.4827610254287720e-01" purity="5.0584912300109863e-01" nType="0">
        <Node pos="l" depth="1" NCoef="0" IVar="-1" Cut="0.0000000000000000e+00" cType="1" res="5.8031603693962097e-03" rms="4.5198190212249756e-01" purity="5.9296923875808716e-01" nType="-99"/>
        <Node pos="r" depth="1" NCoef="0" IVar="2" Cut="2.1428570747375488e+00" cType="0" res="-7.6993212103843689e-02" rms="4.3301361799240112e-01" purity="3.8406622409820557e-01" nType="0">
          <Node pos="l" depth="2" NCoef="0" IVar="-1" Cut="0.0000000000000000e+00" cType="1" res="2.2990833967924118e-02" rms="4.1912859678268433e-01" purity="7.6212388277053833e-01" nType="-99"/>
          <Node pos="r" depth="2" NCoef="0" IVar="-1" Cut="0.0000000000000000e+00" cType="1" res="-1.1293420568108559e-02" rms="4.2894226312637329e-01" purity="3.5617312788963318e-01" nType="-99"/>
        </Node>
      </Node>
    </BinaryTree>
    <BinaryTree type="DecisionTree" boostWeight="1.0000000000000000e+00" itree="34">
      <Node pos="s" depth="0" NCoef="0" IVar="5" Cut="9.6963113546371460e-01" cType="0" res="-5.3310790099203587e-03" rms="4.4762358069419861e-01" purity="5.0584912300109863e-01" nType="0">
        <Node pos="l" depth="1" NCoef="0" IVar="-1" Cut="0.0000000000000000e+00" cType="1" res="4.3344870209693909e-02" rms="2.4177977442741394e-01" purity="9.3382120132446289e-01" nType="-99"/>
        <Node pos="r" depth="1" NCoef="0" IVar="6" Cut="8.9317047968506813e-03" cType="0" res="-2.3350674659013748e-02" rms="4.5791426301002502e-01" purity="4.6619743108749390e-01" nType="0">
          <Node pos="l" depth="2" NCoef="0" IVar="-1" Cut="0.0000000000000000e+00" cType="1" res="4.2557930573821068e-03" rms="4.7068884968757629e-01" purity="5.9598749876022339e-01" nType="-99"/>
          <Node pos="r" depth="2" NCoef="0" IVar="-1" Cut="0.0000000000000000e+00" cType="1" res="-9.7957812249660492e-03" rms="4.3409863114356995e-01" purity="3.1903034448623657e-01" nType="-99"/>
        </Node>
      </Node>
    </BinaryTree>
    <BinaryTree type="DecisionTree" boostWeight="1.0000000000000000e+00" itree="35">
      <Node pos="s" depth="0" NCoef="0" IVar="5" Cut="8.6348861455917358e-01" cType="0" res="-5.7795983739197254e-03" rms="4.4666704535484314e-01" purity="5.0584912300109863e-01" nType="0">
        <Node pos="l" depth="1" NCoef="0" IVar="-1" Cut="0.0000000000000000e+00" cType="1" res="2.7130343951284885e-03" rms="4.4710475206375122e-01" purity="5.4951781034469604e-01" nType="-99"/>
        <Node pos="r" depth="1" NCoef="0" IVar="6" Cut="4.0431919693946838e-01" cType="0" res="-1.3095276057720184e-01" rms="4.2265349626541138e-01" purity="3.0515271425247192e-01" nType="0">
          <Node pos="l" depth="2" NCoef="0" IVar="-1" Cut="0.0000000000000000e+00" cType="1" res="1.0487008839845657e-02" rms="4.5639166235923767e-01" purity="6.7396295070648193e-01" nType="-99"/>
          <Node pos="r" depth="2" NCoef="0" IVar="-1" Cut="0.0000000000000000e+00" cType="1" res="-1.9751250743865967e-02" rms="4.0689089894294739e-01" purity="2.4949188530445099e-01" nType="-99"/>
        </Node>
      </Node>
    </BinaryTree>
    <BinaryTree type="DecisionTree" boostWeight="1.0000000000000000e+00" itree="36">
      <Node pos="s" depth="0" NCoef="0" IVar="4" Cut="1.0397347211837769e+00" cType="1" res="-5.5213836021721363e-03" rms="4.4611236453056335e-01" purity="5.0584912300109863e-01" nType="0">
        <Node pos="l" depth="1" NCoef="0" IVar="-1" Cut="0.0000000000000000e+00" cType="1" res="6.8776062689721584e-03" rms="4.4788086414337158e-01" purity="6.0713744163513184e-01" nType="-99"/>
        <Node pos="r" depth="1" NCoef="0" IVar="5" Cut="9.6005105972290039e-01" cType="0" res="-6.0433119535446167e-02" rms="4.3735200166702271e-01" purity="4.1225811839103699e-01" nType="0">
          <Node pos="l" depth="2" NCoef="0" IVar="-1" Cut="0.0000000000000000e+00" cType="1" res="1.5808368101716042e-02" rms="3.7564131617546082e-01" purity="7.8971546888351440e-01" nType="-99"/>
          <Node pos="r" depth="2" NCoef="0" IVar="-1" Cut="0.0000000000000000e+00" cType="1" res="-1.0418715886771679e-02" rms="4.4056794047355652e-01" purity="3.5258728265762329e-01" nType="-99"/>
        </Node>
      </Node>
    </BinaryTree>
    <BinaryTree type="DecisionTree" boostWeight="1.0000000000000000e+00" itree="37">
      <Node pos="s" depth="0" NCoef="0" IVar="3" Cut="3.2658938598632812e+02" cType="0" res="-5.3760288283228874e-03" rms="4.4546276330947876e-01" purity="5.0584912300109863e-01" nType="0">
        <Node pos="l" depth="1" NCoef="0" IVar="-1" Cut="0.0000000000000000e+00" cType="1" res="3.2154421787708998e-03" rms="4.4898185133934021e-01" purity="5.6270879507064819e-01" nType="-99"/>
        <Node pos="r" depth="1" NCoef="0" IVar="3" Cut="2.4526800537109375e+02" cType="0" res="-1.0799115151166916e-01" rms="4.1733494400978088e-01" purity="3.1406435370445251e-01" nType="0">
          <Node pos="l" depth="2" NCoef="0" IVar="-1" Cut="0.0000000000000000e+00" cType="1" res="-8.4395129233598709e-03" rms="4.3542882800102234e-01" purity="3.6578541994094849e-01" nType="-99"/>
          <Node pos="r" depth="2" NCoef="0" IVar="-1" Cut="0.0000000000000000e+00" cType="1" res="-2.6569936424493790e-02" rms="2.8825622797012329e-01" purity="1.0761924088001251e-01" nType="-99"/>
        </Node>
      </Node>
    </BinaryTree>
    <BinaryTree type="DecisionTree" boostWeight="1.0000000000000000e+00" itree="38">
      <Node pos="s" depth="0" NCoef="0" IVar="4" Cut="1.8435550928115845e+00" cType="1" res="-5.3070182912051678e-03" rms="4.4500160217285156e-01" purity="5.0584912300109863e-01" nType="0">
        <Node pos="l" depth="1" NCoef="0" IVar="-1" Cut="0.0000000000000000e+00" cType="1" res="1.8677803454920650e-03" rms="4.5199066400527954e-01" purity="5.4857206344604492e-01" nType="-99"/>
        <Node pos="r" depth="1" NCoef="0" IVar="1" Cut="3.1142703247070312e+02" cType="1" res="-1.5829029679298401e-01" rms="3.5160183906555176e-01" purity="1.7915949225425720e-01" nType="0">
          <Node pos="l" depth="2" NCoef="0" IVar="-1" Cut="0.0000000000000000e+00" cType="1" res="-1.7144259065389633e-02" rms="3.5682603716850281e-01" purity="1.9033965468406677e-01" nType="-99"/>
          <Node pos="r" depth="2" NCoef="0" IVar="-1" Cut="0.0000000000000000e+00" cType="1" res="-2.8085973113775253e-02" rms="2.8395223617553711e-01" purity="8.5169062018394470e-02" nType="-99"/>
        </Node>
      </Node>
    </BinaryTree>
    <BinaryTree type="DecisionTree" boostWeight="1.0000000000000000e+00" itree="39">
      <Node pos="s" depth="0" NCoef="0" IVar="5" Cut="8.6348861455917358e-01" cType="0" res="-5.2062701433897018e-03" rms="4.4466117024421692e-01" purity="5.0584912300109863e-01" nType="0">
        <Node pos="l" depth="1" NCoef="0" IVar="-1" Cut="0.0000000000000000e+00" cType="1" res="2.5725173763930798e-03" rms="4.4570040702819824e-01" purity="5.4951781034469604e-01" nType="-99"/>
        <Node pos="r" depth="1" NCoef="0" IVar="6" Cut="4.0431919693946838e-01" cType="0" res="-1.2216957658529282e-01" rms="4.2049255967140198e-01" purity="3.0515271425247192e-01" nType="0">
          <Node pos="l" depth="2" NCoef="0" IVar="-1" Cut="0.0000000000000000e+00" cType="1" res="9.6313850954174995e-03" rms="4.5537862181663513e-01" purity="6.7396295070648193e-01" nType="-99"/>
          <Node pos="r" depth="2" NCoef="0" IVar="-1" Cut="0.0000000000000000e+00" cType="1" res="-1.8641754984855652e-02" rms="4.0602013468742371e-01" purity="2.4949188530445099e-01" nType="-99"/>
        </Node>
      </Node>
    </BinaryTree>
    <BinaryTree type="DecisionTree" boostWeight="1.0000000000000000e+00" itree="40">
      <Node pos="s" depth="0" NCoef="0" IVar="6" Cut="-5.2675163745880127e-01" cType="0" res="-4.9750912003219128e-03" rms="4.4417962431907654e-01" purity="5.0584912300109863e-01" nType="0">
        <Node pos="l" depth="1" NCoef="0" IVar="-1" Cut="0.0000000000000000e+00" cType="1" res="1.3034483417868614e-03" rms="4.5064732432365417e-01" purity="5.3700268268585205e-01" nType="-99"/>
        <Node pos="r" depth="1" NCoef="0" IVar="0" Cut="8.6004257202148438e+01" cType="0" res="-1.9685792922973633e-01" rms="2.9127892851829529e-01" purity="1.1449886858463287e-01" nType="0">
          <Node pos="l" depth="2" NCoef="0" IVar="-1" Cut="0.0000000000000000e+00" cType="1" res="-2.1929334849119186e-02" rms="3.0174344778060913e-01" purity="1.2454586476087570e-01" nType="-99"/>
          <Node pos="r" depth="2" NCoef="0" IVar="-1" Cut="0.0000000000000000e+00" cType="1" res="-3.1236607581377029e-02" rms="2.2997125983238220e-01" purity="7.1118772029876709e-02" nType="-99"/>
        </Node>
      </Node>
    </BinaryTree>
    <BinaryTree type="DecisionTree" boostWeight="1.0000000000000000e+00" itree="41">
      <Node pos="s" depth="0" NCoef="0" IVar="2" Cut="1.3333333730697632e+00" cType="0" res="-4.8289056867361069e-03" rms="4.4385722279548645e-01" purity="5.0584912300109863e-01" nType="0">
        <Node pos="l" depth="1" NCoef="0" IVar="-1" Cut="0.0000000000000000e+00" cType="1" res="9.8202917724847794e-03" rms="4.3452200293540955e-01" purity="6.9916647672653198e-01" nType="-99"/>
        <Node pos="r" depth="1" NCoef="0" IVar="4" Cut="9.0576463937759399e-01" cType="1" res="-4.1114620864391327e-02" rms="4.4351816177368164e-01" purity="4.1549038887023926e-01" nType="0">
          <Node pos="l" depth="2" NCoef="0" IVar="-1" Cut="0.0000000000000000e+00" cType="1" res="5.2882153540849686e-03" rms="4.5938900113105774e-01" purity="5.4578942060470581e-01" nType="-99"/>
          <Node pos="r" depth="2" NCoef="0" IVar="-1" Cut="0.0000000000000000e+00" cType="1" res="-9.6432985737919807e-03" rms="4.3081077933311462e-01" purity="3.5646843910217285e-01" nType="-99"/>
        </Node>
      </Node>
    </BinaryTree>
    <BinaryTree type="DecisionTree" boostWeight="1.0000000000000000e+00" itree="42">
      <Node pos="s" depth="0" NCoef="0" IVar="5" Cut="9.3930470943450928e-01" cType="0" res="-4.7497265040874481e-03" rms="4.4326502084732056e-01" purity="5.0584912300109863e-01" nType="0">
        <Node pos="l" depth="1" NCoef="0" IVar="-1" Cut="0.0000000000000000e+00" cType="1" res="1.1449661105871201e-02" rms="4.0771931409835815e-01" purity="7.3208552598953247e-01" nType="-99"/>
        <Node pos="r" depth="1" NCoef="0" IVar="6" Cut="2.3851028084754944e-01" cType="0" res="-3.7930294871330261e-02" rms="4.5250070095062256e-01" purity="4.1519138216972351e-01" nType="0">
          <Node pos="l" depth="2" NCoef="0" IVar="-1" Cut="0.0000000000000000e+00" cType="1" res="6.8320259451866150e-03" rms="4.6928894519805908e-01" purity="6.2309539318084717e-01" nType="-99"/>
          <Node pos="r" depth="2" NCoef="0" IVar="-1" Cut="0.0000000000000000e+00" cType="1" res="-8.5848597809672356e-03" rms="4.4067856669425964e-01" purity="3.3378770947456360e-01" nType="-99"/>
        </Node>
      </Node>
    </BinaryTree>
    <BinaryTree type="DecisionTree" boostWeight="1.0000000000000000e+00" itree="43">
      <Node pos="s" depth="0" NCoef="0" IVar="5" Cut="8.9381504058837891e-01" cType="0" res="-4.8240572214126587e-03" rms="4.4268751144409180e-01" purity="5.0584912300109863e-01" nType="0">
        <Node pos="l" depth="1" NCoef="0" IVar="-1" Cut="0.0000000000000000e+00" cType="1" res="4.4803488999605179e-03" rms="4.4174665212631226e-01" purity="5.9353381395339966e-01" nType="-99"/>
        <Node pos="r" depth="1" NCoef="0" IVar="6" Cut="2.3851028084754944e-01" cType="0" res="-7.1533873677253723e-02" rms="4.3622669577598572e-01" purity="3.5771098732948303e-01" nType="0">
          <Node pos="l" depth="2" NCoef="0" IVar="-1" Cut="0.0000000000000000e+00" cType="1" res="2.4419634137302637e-03" rms="4.7513848543167114e-01" purity="5.8156001567840576e-01" nType="-99"/>
          <Node pos="r" depth="2" NCoef="0" IVar="-1" Cut="0.0000000000000000e+00" cType="1" res="-1.4957231469452381e-02" rms="4.0502902865409851e-01" purity="2.3616337776184082e-01" nType="-99"/>
        </Node>
      </Node>
    </BinaryTree>
    <BinaryTree type="DecisionTree" boostWeight="1.0000000000000000e+00" itree="44">
      <Node pos="s" depth="0" NCoef="0" IVar="3" Cut="4.1197662353515625e+02" cType="0" res="-4.6839732676744461e-03" rms="4.4219121336936951e-01" purity="5.0584912300109863e-01" nType="0">
        <Node pos="l" depth="1" NCoef="0" IVar="-1" Cut="0.0000000000000000e+00" cType="1" res="5.7063363492488861e-03" rms="4.4800078868865967e-01" purity="6.1290729045867920e-01" nType="-99"/>
        <Node pos="r" depth="1" NCoef="0" IVar="5" Cut="9.5091497898101807e-01" cType="0" res="-5.8654580265283585e-02" rms="4.2914062738418579e-01" purity="3.8351863622665405e-01" nType="0">
          <Node pos="l" depth="2" NCoef="0" IVar="-1" Cut="0.0000000000000000e+00" cType="1" res="6.9588366895914078e-03" rms="4.1468742489814758e-01" purity="7.0271784067153931e-01" nType="-99"/>
          <Node pos="r" depth="2" NCoef="0" IVar="-1" Cut="0.0000000000000000e+00" cType="1" res="-1.0091456584632397e-02" rms="4.2825338244438171e-01" purity="3.0535960197448730e-01" nType="-99"/>
        </Node>
      </Node>
    </BinaryTree>
    <BinaryTree type="DecisionTree" boostWeight="1.0000000000000000e+00" itree="45">
      <Node pos="s" depth="0" NCoef="0" IVar="4" Cut="1.8435550928115845e+00" cType="1" res="-4.6945228241384029e-03" rms="4.4175788760185242e-01" purity="5.0584912300109863e-01" nType="0">
        <Node pos="l" depth="1" NCoef="0" IVar="-1" Cut="0.0000000000000000e+00" cType="1" res="1.7135103698819876e-03" rms="4.4912660121917725e-01" purity="5.4857206344604492e-01" nType="-99"/>
        <Node pos="r" depth="1" NCoef="0" IVar="1" Cut="3.1142703247070312e+02" cType="1" res="-1.4244721829891205e-01" rms="3.5141792893409729e-01" purity="1.7915949225425720e-01" nType="0">
          <Node pos="l" depth="2" NCoef="0" IVar="-1" Cut="0.0000000000000000e+00" cType="1" res="-1.5947762876749039e-02" rms="3.5669401288032532e-01" purity="1.9033965468406677e-01" nType="-99"/>
          <Node pos="r" depth="2" NCoef="0" IVar="-1" Cut="0.0000000000000000e+00" cType="1" res="-2.6832962408661842e-02" rms="2.8477701544761658e-01" purity="8.5169062018394470e-02" nType="-99"/>
        </Node>
      </Node>
    </BinaryTree>
    <BinaryTree type="DecisionTree" boostWeight="1.0000000000000000e+00" itree="46">
      <Node pos="s" depth="0" NCoef="0" IVar="5" Cut="9.6963113546371460e-01" cType="0" res="-4.6084290370345116e-03" rms="4.4147533178329468e-01" purity="5.0584912300109863e-01" nType="0">
        <Node pos="l" depth="1" NCoef="0" IVar="-1" Cut="0.0000000000000000e+00" cType="1" res="3.9628755301237106e-02" rms="2.4096864461898804e-01" purity="9.3382120132446289e-01" nType="-99"/>
        <Node pos="r" depth="1" NCoef="0" IVar="3" Cut="4.1197662353515625e+02" cType="0" res="-1.9673094153404236e-02" rms="4.5266079902648926e-01" purity="4.6619743108749390e-01" nType="0">
          <Node pos="l" depth="2" NCoef="0" IVar="-1" Cut="0.0000000000000000e+00" cType="1" res="3.4359931014478207e-03" rms="4.6300104260444641e-01" purity="5.7879585027694702e-01" nType="-99"/>
          <Node pos="r" depth="2" NCoef="0" IVar="-1" Cut="0.0000000000000000e+00" cType="1" res="-8.3841765299439430e-03" rms="4.3487560749053955e-01" purity="3.3982437849044800e-01" nType="-99"/>
        </Node>
      </Node>
    </BinaryTree>
    <BinaryTree type="DecisionTree" boostWeight="1.0000000000000000e+00" itree="47">
      <Node pos="s" depth="0" NCoef="0" IVar="5" Cut="8.6348861455917358e-01" cType="0" res="-4.9294945783913136e-03" rms="4.4081270694732666e-01" purity="5.0584912300109863e-01" nType="0">
        <Node pos="l" depth="1" NCoef="0" IVar="-1" Cut="0.0000000000000000e+00" cType="1" res="2.2766233887523413e-03" rms="4.4253900647163391e-01" purity="5.4951781034469604e-01" nType="-99"/>
        <Node pos="r" depth="1" NCoef="0" IVar="6" Cut="4.0431919693946838e-01" cType="0" res="-1.0852115601301193e-01" rms="4.1742214560508728e-01" purity="3.0515271425247192e-01" nType="0">
          <Node pos="l" depth="2" NCoef="0" IVar="-1" Cut="0.0000000000000000e+00" cType="1" res="7.8509254381060600e-03" rms="4.5456391572952271e-01" purity="6.7396295070648193e-01" nType="-99"/>
          <Node pos="r" depth="2" NCoef="0" IVar="-1" Cut="0.0000000000000000e+00" cType="1" res="-1.6913631930947304e-02" rms="4.0496888756752014e-01" purity="2.4949188530445099e-01" nType="-99"/>
        </Node>
      </Node>
    </BinaryTree>
    <BinaryTree type="DecisionTree" boostWeight="1.0000000000000000e+00" itree="48">
      <Node pos="s" depth="0" NCoef="0" IVar="6" Cut="-5.2675163745880127e-01" cType="0" res="-4.7037820331752300e-03" rms="4.4044101238250732e-01" purity="5.0584912300109863e-01" nType="0">
        <Node pos="l" depth="1" NCoef="0" IVar="-1" Cut="0.0000000000000000e+00" cType="1" res="1.1366633698344231e-03" rms="4.4746500253677368e-01" purity="5.3700268268585205e-01" nType="-99"/>
        <Node pos="r" depth="1" NCoef="0" IVar="4" Cut="1.9526041746139526e+00" cType="1" res="-1.7483022809028625e-01" rms="2.9051145911216736e-01" purity="1.1449886858463287e-01" nType="0">
          <Node pos="l" depth="2" NCoef="0" IVar="-1" Cut="0.0000000000000000e+00" cType="1" res="-2.5284415110945702e-02" rms="3.0463567376136780e-01" purity="1.2680232524871826e-01" nType="-99"/>
          <Node pos="r" depth="2" NCoef="0" IVar="-1" Cut="0.0000000000000000e+00" cType="1" res="-1.6618113964796066e-02" rms="2.5633496046066284e-01" purity="9.1314792633056641e-02" nType="-99"/>
        </Node>
      </Node>
    </BinaryTree>
    <BinaryTree type="DecisionTree" boostWeight="1.0000000000000000e+00" itree="49">
      <Node pos="s" depth="0" NCoef="0" IVar="4" Cut="1.0397347211837769e+00" cType="1" res="-4.5462544076144695e-03" rms="4.4017773866653442e-01" purity="5.0584912300109863e-01" nType="0">
        <Node pos="l" depth="1" NCoef="0" IVar="-1" Cut="0.0000000000000000e+00" cType="1" res="5.8365971781313419e-03" rms="4.4310927391052246e-01" purity="6.0713744163513184e-01" nType="-99"/>
        <Node pos="r" depth="1" NCoef="0" IVar="2" Cut="2.1428570747375488e+00" cType="0" res="-5.0204217433929443e-02" rms="4.3246164917945862e-01" purity="4.1225811839103699e-01" nType="0">
          <Node pos="l" depth="2" NCoef="0" IVar="-1" Cut="0.0000000000000000e+00" cType="1" res="2.1132355555891991e-02" rms="4.1040751338005066e-01" purity="7.6640480756759644e-01" nType="-99"/>
          <Node pos="r" depth="2" NCoef="0" IVar="-1" Cut="0.0000000000000000e+00" cType="1" res="-8.4190052002668381e-03" rms="4.3041282892227173e-01" purity="3.8015660643577576e-01" nType="-99"/>
        </Node>
      </Node>
    </BinaryTree>
    <BinaryTree type="DecisionTree" boostWeight="1.0000000000000000e+00" itree="50">
      <Node pos="s" depth="0" NCoef="0" IVar="5" Cut="8.6348861455917358e-01" cType="0" res="-4.4769779779016972e-03" rms="4.3968680500984192e-01" purity="5.0584912300109863e-01" nType="0">
        <Node pos="l" depth="1" NCoef="0" IVar="-1" Cut="0.0000000000000000e+00" cType="1" res="2.1752356551587582e-03" rms="4.4175490736961365e-01" purity="5.4951781034469604e-01" nType="-99"/>
        <Node pos="r" depth="1" NCoef="0" IVar="6" Cut="4.0431919693946838e-01" cType="0" res="-1.0213490575551987e-01" rms="4.1633439064025879e-01" purity="3.0515271425247192e-01" nType="0">
          <Node pos="l" depth="2" NCoef="0" IVar="-1" Cut="0.0000000000000000e+00" cType="1" res="7.2252554818987846e-03" rms="4.5308190584182739e-01" purity="6.7396295070648193e-01" nType="-99"/>
          <Node pos="r" depth="2" NCoef="0" IVar="-1" Cut="0.0000000000000000e+00" cType="1" res="-1.6053099185228348e-02" rms="4.0480986237525940e-01" purity="2.4949188530445099e-01" nType="-99"/>
        </Node>
      </Node>
    </BinaryTree>
    <BinaryTree type="DecisionTree" boostWeight="1.0000000000000000e+00" itree="51">
      <Node pos="s" depth="0" NCoef="0" IVar="6" Cut="-3.7369924783706665e-01" cType="0" res="-4.2735044844448566e-03" rms="4.3935915827751160e-01" purity="5.0584912300109863e-01" nType="0">
        <Node pos="l" depth="1" NCoef="0" IVar="-1" Cut="0.0000000000000000e+00" cType="1" res="1.8703665118664503e-03" rms="4.4855251908302307e-01" purity="5.5604070425033569e-01" nType="-99"/>
        <Node pos="r" depth="1" NCoef="0" IVar="6" Cut="-5.2680772542953491e-01" cType="0" res="-1.1550865322351456e-01" rms="3.6044353246688843e-01" purity="2.0659911632537842e-01" nType="0">
          <Node pos="l" depth="2" NCoef="0" IVar="-1" Cut="0.0000000000000000e+00" cType="1" res="-7.4537377804517746e-03" rms="4.1551738977432251e-01" purity="3.0375593900680542e-01" nType="-99"/>
          <Node pos="r" depth="2" NCoef="0" IVar="-1" Cut="0.0000000000000000e+00" cType="1" res="-2.1461360156536102e-02" rms="2.9056426882743835e-01" purity="1.1449886858463287e-01" nType="-99"/>
        </Node>
      </Node>
    </BinaryTree>
    <BinaryTree type="DecisionTree" boostWeight="1.0000000000000000e+00" itree="52">
      <Node pos="s" depth="0" NCoef="0" IVar="5" Cut="9.6963113546371460e-01" cType="0" res="-4.1986387223005295e-03" rms="4.3909639120101929e-01" purity="5.0584912300109863e-01" nType="0">
        <Node pos="l" depth="1" NCoef="0" IVar="-1" Cut="0.0000000000000000e+00" cType="1" res="3.7688612937927246e-02" rms="2.4059076607227325e-01" purity="9.3382120132446289e-01" nType="-99"/>
        <Node pos="r" depth="1" NCoef="0" IVar="6" Cut="8.9317047968506813e-03" cType="0" res="-1.7804801464080811e-02" rms="4.5069158077239990e-01" purity="4.6619743108749390e-01" nType="0">
          <Node pos="l" depth="2" NCoef="0" IVar="-1" Cut="0.0000000000000000e+00" cType="1" res="3.2257717102766037e-03" rms="4.6487832069396973e-01" purity="5.9598749876022339e-01" nType="-99"/>
          <Node pos="r" depth="2" NCoef="0" IVar="-1" Cut="0.0000000000000000e+00" cType="1" res="-7.7485824003815651e-03" rms="4.2893955111503601e-01" purity="3.1903034448623657e-01" nType="-99"/>
        </Node>
      </Node>
    </BinaryTree>
    <BinaryTree type="DecisionTree" boostWeight="1.0000000000000000e+00" itree="53">
      <Node pos="s" depth="0" NCoef="0" IVar="4" Cut="1.0397347211837769e+00" cType="1" res="-4.5220735482871532e-03" rms="4.3855893611907959e-01" purity="5.0584912300109863e-01" nType="0">
        <Node pos="l" depth="1" NCoef="0" IVar="-1" Cut="0.0000000000000000e+00" cType="1" res="5.4394877515733242e-03" rms="4.4183912873268127e-01" purity="6.0713744163513184e-01" nType="-99"/>
        <Node pos="r" depth="1" NCoef="0" IVar="5" Cut="9.2014461755752563e-01" cType="0" res="-4.7077912837266922e-02" rms="4.3115493655204773e-01" purity="4.1225811839103699e-01" nType="0">
          <Node pos="l" depth="2" NCoef="0" IVar="-1" Cut="0.0000000000000000e+00" cType="1" res="1.7874169861897826e-03" rms="4.3931543827056885e-01" purity="5.8085501194000244e-01" nType="-99"/>
          <Node pos="r" depth="2" NCoef="0" IVar="-1" Cut="0.0000000000000000e+00" cType="1" res="-1.1995731852948666e-02" rms="4.1930830478668213e-01" purity="2.8742882609367371e-01" nType="-99"/>
        </Node>
      </Node>
    </BinaryTree>
    <BinaryTree type="DecisionTree" boostWeight="1.0000000000000000e+00" itree="54">
      <Node pos="s" depth="0" NCoef="0" IVar="4" Cut="1.8435550928115845e+00" cType="1" res="-4.3299323879182339e-03" rms="4.3815651535987854e-01" purity="5.0584912300109863e-01" nType="0">
        <Node pos="l" depth="1" NCoef="0" IVar="-1" Cut="0.0000000000000000e+00" cType="1" res="1.4800571370869875e-03" rms="4.4605547189712524e-01" purity="5.4857206344604492e-01" nType="-99"/>
        <Node pos="r" depth="1" NCoef="0" IVar="1" Cut="3.1142703247070312e+02" cType="1" res="-1.2416548281908035e-01" rms="3.4976470470428467e-01" purity="1.7915949225425720e-01" nType="0">
          <Node pos="l" depth="2" NCoef="0" IVar="-1" Cut="0.0000000000000000e+00" cType="1" res="-1.4499640092253685e-02" rms="3.5503566265106201e-01" purity="1.9033965468406677e-01" nType="-99"/>
          <Node pos="r" depth="2" NCoef="0" IVar="-1" Cut="0.0000000000000000e+00" cType="1" res="-2.5222713127732277e-02" rms="2.8506842255592346e-01" purity="8.5169062018394470e-02" nType="-99"/>
        </Node>
      </Node>
    </BinaryTree>
    <BinaryTree type="DecisionTree" boostWeight="1.0000000000000000e+00" itree="55">
      <Node pos="s" depth="0" NCoef="0" IVar="3" Cut="3.2658938598632812e+02" cType="0" res="-4.2402325198054314e-03" rms="4.3793684244155884e-01" purity="5.0584912300109863e-01" nType="0">
        <Node pos="l" depth="1" NCoef="0" IVar="-1" Cut="0.0000000000000000e+00" cType="1" res="2.5193833280354738e-03" rms="4.4271233677864075e-01" purity="5.6270879507064819e-01" nType="-99"/>
        <Node pos="r" depth="1" NCoef="0" IVar="3" Cut="2.4526800537109375e+02" cType="0" res="-8.2726038992404938e-02" rms="4.1184625029563904e-01" purity="3.1406435370445251e-01" nType="0">
          <Node pos="l" depth="2" NCoef="0" IVar="-1" Cut="0.0000000000000000e+00" cType="1" res="-6.1561455950140953e-03" rms="4.3066915869712830e-01" purity="3.6578541994094849e-01" nType="-99"/>
          <Node pos="r" depth="2" NCoef="0" IVar="-1" Cut="0.0000000000000000e+00" cType="1" res="-2.4178601801395416e-02" rms="2.8755718469619751e-01" purity="1.0761924088001251e-01" nType="-99"/>
        </Node>
      </Node>
    </BinaryTree>
    <BinaryTree type="DecisionTree" boostWeight="1.0000000000000000e+00" itree="56">
      <Node pos="s" depth="0" NCoef="0" IVar="5" Cut="8.9381504058837891e-01" cType="0" res="-4.1912505403161049e-03" rms="4.3763571977615356e-01" purity="5.0584912300109863e-01" nType="0">
        <Node pos="l" depth="1" NCoef="0" IVar="-1" Cut="0.0000000000000000e+00" cType="1" res="3.7478925660252571e-03" rms="4.3763259053230286e-01" purity="5.9353381395339966e-01" nType="-99"/>
        <Node pos="r" depth="1" NCoef="0" IVar="2" Cut="3.3333332538604736e+00" cType="0" res="-5.9165149927139282e-02" rms="4.3210953474044800e-01" purity="3.5771098732948303e-01" nType="0">
          <Node pos="l" depth="2" NCoef="0" IVar="-1" Cut="0.0000000000000000e+00" cType="1" res="2.6654792949557304e-02" rms="3.4034040570259094e-01" purity="8.6864513158798218e-01" nType="-99"/>
          <Node pos="r" depth="2" NCoef="0" IVar="-1" Cut="0.0000000000000000e+00" cType="1" res="-8.9884297922253609e-03" rms="4.3144425749778748e-01" purity="3.3804619312286377e-01" nType="-99"/>
        </Node>
      </Node>
    </BinaryTree>
    <BinaryTree type="DecisionTree" boostWeight="1.0000000000000000e+00" itree="57">
      <Node pos="s" depth="0" NCoef="0" IVar="2" Cut="1.3333333730697632e+00" cType="0" res="-3.9876718074083328e-03" rms="4.3729048967361450e-01" purity="5.0584912300109863e-01" nType="0">
        <Node pos="l" depth="1" NCoef="0" IVar="-1" Cut="0.0000000000000000e+00" cType="1" res="7.8358547762036324e-03" rms="4.2988920211791992e-01" purity="6.9916647672653198e-01" nType="-99"/>
        <Node pos="r" depth="1" NCoef="0" IVar="4" Cut="9.0576463937759399e-01" cType="1" res="-3.2193813472986221e-02" rms="4.3786439299583435e-01" purity="4.1549038887023926e-01" nType="0">
          <Node pos="l" depth="2" NCoef="0" IVar="-1" Cut="0.0000000000000000e+00" cType="1" res="4.5423205010592937e-03" rms="4.5444762706756592e-01" purity="5.4578942060470581e-01" nType="-99"/>
          <Node pos="r" depth="2" NCoef="0" IVar="-1" Cut="0.0000000000000000e+00" cType="1" res="-8.0360313877463341e-03" rms="4.2657291889190674e-01" purity="3.5646843910217285e-01" nType="-99"/>
        </Node>
      </Node>
    </BinaryTree>
    <BinaryTree type="DecisionTree" boostWeight="1.0000000000000000e+00" itree="58">
      <Node pos="s" depth="0" NCoef="0" IVar="6" Cut="-5.2675163745880127e-01" cType="0" res="-3.9062537252902985e-03" rms="4.3692091107368469e-01" purity="5.0584912300109863e-01" nType="0">
        <Node pos="l" depth="1" NCoef="0" IVar="-1" Cut="0.0000000000000000e+00" cType="1" res="9.8766910377889872e-04" rms="4.4453614950180054e-01" purity="5.3700268268585205e-01" nType="-99"/>
        <Node pos="r" depth="1" NCoef="0" IVar="4" Cut="8.8219672441482544e-01" cType="1" res="-1.4803367853164673e-01" rms="2.9008838534355164e-01" purity="1.1449886858463287e-01" nType="0">
          <Node pos="l" depth="2" NCoef="0" IVar="-1" Cut="0.0000000000000000e+00" cType="1" res="-2.4392122402787209e-02" rms="3.2656461000442505e-01" purity="1.6590128839015961e-01" nType="-99"/>
          <Node pos="r" depth="2" NCoef="0" IVar="-1" Cut="0.0000000000000000e+00" cType="1" res="-1.8783135339617729e-02" rms="2.7646470069885254e-01" purity="9.9822916090488434e-02" nType="-99"/>
        </Node>
      </Node>
    </BinaryTree>
    <BinaryTree type="DecisionTree" boostWeight="1.0000000000000000e+00" itree="59">
      <Node pos="s" depth="0" NCoef="0" IVar="5" Cut="8.6348861455917358e-01" cType="0" res="-3.7856225389987230e-03" rms="4.3673333525657654e-01" purity="5.0584912300109863e-01" nType="0">
        <Node pos="l" depth="1" NCoef="0" IVar="-1" Cut="0.0000000000000000e+00" cType="1" res="2.0014960318803787e-03" rms="4.3920907378196716e-01" purity="5.4951781034469604e-01" nType="-99"/>
        <Node pos="r" depth="1" NCoef="0" IVar="6" Cut="4.0431919693946838e-01" cType="0" res="-9.1038376092910767e-02" rms="4.1412541270256042e-01" purity="3.0515271425247192e-01" nType="0">
          <Node pos="l" depth="2" NCoef="0" IVar="-1" Cut="0.0000000000000000e+00" cType="1" res="6.1235837638378143e-03" rms="4.5042648911476135e-01" purity="6.7396295070648193e-01" nType="-99"/>
          <Node pos="r" depth="2" NCoef="0" IVar="-1" Cut="0.0000000000000000e+00" cType="1" res="-1.4638249762356281e-02" rms="4.0404045581817627e-01" purity="2.4949188530445099e-01" nType="-99"/>
        </Node>
      </Node>
    </BinaryTree>
    <BinaryTree type="DecisionTree" boostWeight="1.0000000000000000e+00" itree="60">
      <Node pos="s" depth="0" NCoef="0" IVar="5" Cut="9.6963113546371460e-01" cType="0" res="-3.6143520846962929e-03" rms="4.3647420406341553e-01" purity="5.0584912300109863e-01" nType="0">
        <Node pos="l" depth="1" NCoef="0" IVar="-1" Cut="0.0000000000000000e+00" cType="1" res="3.5600934177637100e-02" rms="2.3987978696823120e-01" purity="9.3382120132446289e-01" nType="-99"/>
        <Node pos="r" depth="1" NCoef="0" IVar="6" Cut="8.9317047968506813e-03" cType="0" res="-1.5707004815340042e-02" rms="4.4844689965248108e-01" purity="4.6619743108749390e-01" nType="0">
          <Node pos="l" depth="2" NCoef="0" IVar="-1" Cut="0.0000000000000000e+00" cType="1" res="2.8657966759055853e-03" rms="4.6301963925361633e-01" purity="5.9598749876022339e-01" nType="-99"/>
          <Node pos="r" depth="2" NCoef="0" IVar="-1" Cut="0.0000000000000000e+00" cType="1" res="-6.9597889669239521e-03" rms="4.2734077572822571e-01" purity="3.1903034448623657e-01" nType="-99"/>
        </Node>
      </Node>
    </BinaryTree>
    <BinaryTree type="DecisionTree" boostWeight="1.0000000000000000e+00" itree="61">
      <Node pos="s" depth="0" NCoef="0" IVar="4" Cut="1.8435550928115845e+00" cType="1" res="-3.9061992429196835e-03" rms="4.3605628609657288e-01" purity="5.0584912300109863e-01" nType="0">
        <Node pos="l" depth="1" NCoef="0" IVar="-1" Cut="0.0000000000000000e+00" cType="1" res="1.3485368108376861e-03" rms="4.4423761963844299e-01" purity="5.4857206344604492e-01" nType="-99"/>
        <Node pos="r" depth="1" NCoef="0" IVar="1" Cut="3.1142703247070312e+02" cType="1" res="-1.1198572069406509e-01" rms="3.4909167885780334e-01" purity="1.7915949225425720e-01" nType="0">
          <Node pos="l" depth="2" NCoef="0" IVar="-1" Cut="0.0000000000000000e+00" cType="1" res="-1.3439220376312733e-02" rms="3.5448193550109863e-01" purity="1.9033965468406677e-01" nType="-99"/>
          <Node pos="r" depth="2" NCoef="0" IVar="-1" Cut="0.0000000000000000e+00" cType="1" res="-2.4052061140537262e-02" rms="2.8453981876373291e-01" purity="8.5169062018394470e-02" nType="-99"/>
        </Node>
      </Node>
    </BinaryTree>
    <BinaryTree type="DecisionTree" boostWeight="1.0000000000000000e+00" itree="62">
      <Node pos="s" depth="0" NCoef="0" IVar="3" Cut="2.4120216369628906e+02" cType="0" res="-3.8253425154834986e-03" rms="4.3587410449981689e-01" purity="5.0584912300109863e-01" nType="0">
        <Node pos="l" depth="1" NCoef="0" IVar="-1" Cut="0.0000000000000000e+00" cType="1" res="5.4325343808159232e-04" rms="4.3892350792884827e-01" purity="5.2204024791717529e-01" nType="-99"/>
        <Node pos="r" depth="1" NCoef="0" IVar="4" Cut="1.1812167167663574e+00" cType="0" res="-1.9146065413951874e-01" rms="3.0004954338073730e-01" purity="1.2186023592948914e-01" nType="0">
          <Node pos="l" depth="2" NCoef="0" IVar="-1" Cut="0.0000000000000000e+00" cType="1" res="-1.9300624728202820e-02" rms="3.2250314950942993e-01" purity="1.4158931374549866e-01" nType="-99"/>
          <Node pos="r" depth="2" NCoef="0" IVar="-1" Cut="0.0000000000000000e+00" cType="1" res="-2.4335706606507301e-02" rms="2.3918652534484863e-01" purity="8.5952393710613251e-02" nType="-99"/>
        </Node>
      </Node>
    </BinaryTree>
    <BinaryTree type="DecisionTree" boostWeight="1.0000000000000000e+00" itree="63">
      <Node pos="s" depth="0" NCoef="0" IVar="5" Cut="8.6348861455917358e-01" cType="0" res="-3.7240402307361364e-03" rms="4.3572217226028442e-01" purity="5.0584912300109863e-01" nType="0">
        <Node pos="l" depth="1" NCoef="0" IVar="-1" Cut="0.0000000000000000e+00" cType="1" res="1.8610857659950852e-03" rms="4.3840804696083069e-01" purity="5.4951781034469604e-01" nType="-99"/>
        <Node pos="r" depth="1" NCoef="0" IVar="4" Cut="7.7361696958541870e-01" cType="1" res="-8.5420511662960052e-02" rms="4.1344529390335083e-01" purity="3.0515271425247192e-01" nType="0">
          <Node pos="l" depth="2" NCoef="0" IVar="-1" Cut="0.0000000000000000e+00" cType="1" res="1.5325172571465373e-03" rms="4.5344266295433044e-01" purity="4.8533987998962402e-01" nType="-99"/>
          <Node pos="r" depth="2" NCoef="0" IVar="-1" Cut="0.0000000000000000e+00" cType="1" res="-1.5323034487664700e-02" rms="3.9565882086753845e-01" purity="2.5021830201148987e-01" nType="-99"/>
        </Node>
      </Node>
    </BinaryTree>
    <BinaryTree type="DecisionTree" boostWeight="1.0000000000000000e+00" itree="64">
      <Node pos="s" depth="0" NCoef="0" IVar="3" Cut="3.2658938598632812e+02" cType="0" res="-3.5580256953835487e-03" rms="4.3548223376274109e-01" purity="5.0584912300109863e-01" nType="0">
        <Node pos="l" depth="1" NCoef="0" IVar="-1" Cut="0.0000000000000000e+00" cType="1" res="2.2766687907278538e-03" rms="4.4084852933883667e-01" purity="5.6270879507064819e-01" nType="-99"/>
        <Node pos="r" depth="1" NCoef="0" IVar="3" Cut="2.4526800537109375e+02" cType="0" res="-7.2905324399471283e-02" rms="4.0932652354240417e-01" purity="3.1406435370445251e-01" nType="0">
          <Node pos="l" depth="2" NCoef="0" IVar="-1" Cut="0.0000000000000000e+00" cType="1" res="-5.4788622073829174e-03" rms="4.2910823225975037e-01" purity="3.6578541994094849e-01" nType="-99"/>
          <Node pos="r" depth="2" NCoef="0" IVar="-1" Cut="0.0000000000000000e+00" cType="1" res="-2.2543776780366898e-02" rms="2.8738319873809814e-01" purity="1.0761924088001251e-01" nType="-99"/>
        </Node>
      </Node>
    </BinaryTree>
    <BinaryTree type="DecisionTree" boostWeight="1.0000000000000000e+00" itree="65">
      <Node pos="s" depth="0" NCoef="0" IVar="5" Cut="9.3930470943450928e-01" cType="0" res="-3.5262359306216240e-03" rms="4.3524426221847534e-01" purity="5.0584912300109863e-01" nType="0">
        <Node pos="l" depth="1" NCoef="0" IVar="-1" Cut="0.0000000000000000e+00" cType="1" res="8.5068540647625923e-03" rms="4.0096211433410645e-01" purity="7.3208552598953247e-01" nType="-99"/>
        <Node pos="r" depth="1" NCoef="0" IVar="4" Cut="1.0397347211837769e+00" cType="1" res="-2.7010621502995491e-02" rms="4.4609105587005615e-01" purity="4.1519138216972351e-01" nType="0">
          <Node pos="l" depth="2" NCoef="0" IVar="-1" Cut="0.0000000000000000e+00" cType="1" res="1.9348879577592015e-03" rms="4.6387255191802979e-01" purity="5.3104728460311890e-01" nType="-99"/>
          <Node pos="r" depth="2" NCoef="0" IVar="-1" Cut="0.0000000000000000e+00" cType="1" res="-8.7089659646153450e-03" rms="4.2517834901809692e-01" purity="3.0835071206092834e-01" nType="-99"/>
        </Node>
      </Node>
    </BinaryTree>
    <BinaryTree type="DecisionTree" boostWeight="1.0000000000000000e+00" itree="66">
      <Node pos="s" depth="0" NCoef="0" IVar="6" Cut="-5.2675163745880127e-01" cType="0" res="-3.4514055587351322e-03" rms="4.3495067954063416e-01" purity="5.0584912300109863e-01" nType="0">
        <Node pos="l" depth="1" NCoef="0" IVar="-1" Cut="0.0000000000000000e+00" cType="1" res="9.1022922424599528e-04" rms="4.4287869334220886e-01" purity="5.3700268268585205e-01" nType="-99"/>
        <Node pos="r" depth="1" NCoef="0" IVar="4" Cut="8.8219672441482544e-01" cType="1" res="-1.3347566127777100e-01" rms="2.8897368907928467e-01" purity="1.1449886858463287e-01" nType="0">
          <Node pos="l" depth="2" NCoef="0" IVar="-1" Cut="0.0000000000000000e+00" cType="1" res="-2.3477081209421158e-02" rms="3.2582959532737732e-01" purity="1.6590128839015961e-01" nType="-99"/>
          <Node pos="r" depth="2" NCoef="0" IVar="-1" Cut="0.0000000000000000e+00" cType="1" res="-1.7523899674415588e-02" rms="2.7500823140144348e-01" purity="9.9822916090488434e-02" nType="-99"/>
        </Node>
      </Node>
    </BinaryTree>
    <BinaryTree type="DecisionTree" boostWeight="1.0000000000000000e+00" itree="67">
      <Node pos="s" depth="0" NCoef="0" IVar="4" Cut="1.8435550928115845e+00" cType="1" res="-3.3458920661360025e-03" rms="4.3479543924331665e-01" purity="5.0584912300109863e-01" nType="0">
        <Node pos="l" depth="1" NCoef="0" IVar="-1" Cut="0.0000000000000000e+00" cType="1" res="1.2757114600390196e-03" rms="4.4316595792770386e-01" purity="5.4857206344604492e-01" nType="-99"/>
        <Node pos="r" depth="1" NCoef="0" IVar="1" Cut="3.1142703247070312e+02" cType="1" res="-1.0248181968927383e-01" rms="3.4891021251678467e-01" purity="1.7915949225425720e-01" nType="0">
          <Node pos="l" depth="2" NCoef="0" IVar="-1" Cut="0.0000000000000000e+00" cType="1" res="-1.2544751167297363e-02" rms="3.5435247421264648e-01" purity="1.9033965468406677e-01" nType="-99"/>
          <Node pos="r" depth="2" NCoef="0" IVar="-1" Cut="0.0000000000000000e+00" cType="1" res="-2.3243950679898262e-02" rms="2.8448686003684998e-01" purity="8.5169062018394470e-02" nType="-99"/>
        </Node>
      </Node>
    </BinaryTree>
    <BinaryTree type="DecisionTree" boostWeight="1.0000000000000000e+00" itree="68">
      <Node pos="s" depth="0" NCoef="0" IVar="5" Cut="8.9381504058837891e-01" cType="0" res="-3.2855034805834293e-03" rms="4.3463927507400513e-01" purity="5.0584912300109863e-01" nType="0">
        <Node pos="l" depth="1" NCoef="0" IVar="-1" Cut="0.0000000000000000e+00" cType="1" res="3.2467872370034456e-03" rms="4.3527930974960327e-01" purity="5.9353381395339966e-01" nType="-99"/>
        <Node pos="r" depth="1" NCoef="0" IVar="6" Cut="5.4461503028869629e-01" cType="0" res="-4.9621276557445526e-02" rms="4.2959606647491455e-01" purity="3.5771098732948303e-01" nType="0">
          <Node pos="l" depth="2" NCoef="0" IVar="-1" Cut="0.0000000000000000e+00" cType="1" res="2.7845216915011406e-02" rms="3.1082499027252197e-01" purity="8.9832597970962524e-01" nType="-99"/>
          <Node pos="r" depth="2" NCoef="0" IVar="-1" Cut="0.0000000000000000e+00" cType="1" res="-7.6823495328426361e-03" rms="4.2968904972076416e-01" purity="3.4086167812347412e-01" nType="-99"/>
        </Node>
      </Node>
    </BinaryTree>
    <BinaryTree type="DecisionTree" boostWeight="1.0000000000000000e+00" itree="69">
      <Node pos="s" depth="0" NCoef="0" IVar="6" Cut="8.9317047968506813e-03" cType="0" res="-3.1200612429529428e-03" rms="4.3438169360160828e-01" purity="5.0584912300109863e-01" nType="0">
        <Node pos="l" depth="1" NCoef="0" IVar="-1" Cut="0.0000000000000000e+00" cType="1" res="4.2079021222889423e-03" rms="4.4500336050987244e-01" purity="6.2815660238265991e-01" nType="-99"/>
        <Node pos="r" depth="1" NCoef="0" IVar="3" Cut="2.4120216369628906e+02" cType="0" res="-4.0812205523252487e-02" rms="4.1888752579689026e-01" purity="3.6782157421112061e-01" nType="0">
          <Node pos="l" depth="2" NCoef="0" IVar="-1" Cut="0.0000000000000000e+00" cType="1" res="-3.6774422042071819e-03" rms="4.2662554979324341e-01" purity="3.9063283801078796e-01" nType="-99"/>
          <Node pos="r" depth="2" NCoef="0" IVar="-1" Cut="0.0000000000000000e+00" cType="1" res="-2.0673148334026337e-02" rms="2.8722089529037476e-01" purity="1.1340495198965073e-01" nType="-99"/>
        </Node>
      </Node>
    </BinaryTree>
    <BinaryTree type="DecisionTree" boostWeight="1.0000000000000000e+00" itree="70">
      <Node pos="s" depth="0" NCoef="0" IVar="5" Cut="9.6963113546371460e-01" cType="0" res="-3.1745156738907099e-03" rms="4.3417131900787354e-01" purity="5.0584912300109863e-01" nType="0">
        <Node pos="l" depth="1" NCoef="0" IVar="-1" Cut="0.0000000000000000e+00" cType="1" res="3.3449418842792511e-02" rms="2.3920215666294098e-01" purity="9.3382120132446289e-01" nType="-99"/>
        <Node pos="r" depth="1" NCoef="0" IVar="3" Cut="4.1197662353515625e+02" cType="0" res="-1.3840310275554657e-02" rms="4.4646042585372925e-01" purity="4.6619743108749390e-01" nType="0">
          <Node pos="l" depth="2" NCoef="0" IVar="-1" Cut="0.0000000000000000e+00" cType="1" res="2.5430817622691393e-03" rms="4.5815244317054749e-01" purity="5.7879585027694702e-01" nType="-99"/>
          <Node pos="r" depth="2" NCoef="0" IVar="-1" Cut="0.0000000000000000e+00" cType="1" res="-6.3079097308218479e-03" rms="4.2989900708198547e-01" purity="3.3982437849044800e-01" nType="-99"/>
        </Node>
      </Node>
    </BinaryTree>
    <BinaryTree type="DecisionTree" boostWeight="1.0000000000000000e+00" itree="71">
      <Node pos="s" depth="0" NCoef="0" IVar="4" Cut="1.0397347211837769e+00" cType="1" res="-3.4031788818538189e-03" rms="4.3384400010108948e-01" purity="5.0584912300109863e-01" nType="0">
        <Node pos="l" depth="1" NCoef="0" IVar="-1" Cut="0.0000000000000000e+00" cType="1" res="4.2991428636014462e-03" rms="4.3819242715835571e-01" purity="6.0713744163513184e-01" nType="-99"/>
        <Node pos="r" depth="1" NCoef="0" IVar="2" Cut="2.1428570747375488e+00" cType="0" res="-3.6216922104358673e-02" rms="4.2717063426971436e-01" purity="4.1225811839103699e-01" nType="0">
          <Node pos="l" depth="2" NCoef="0" IVar="-1" Cut="0.0000000000000000e+00" cType="1" res="1.8344139680266380e-02" rms="4.0914747118949890e-01" purity="7.6640480756759644e-01" nType="-99"/>
          <Node pos="r" depth="2" NCoef="0" IVar="-1" Cut="0.0000000000000000e+00" cType="1" res="-6.5846829675137997e-03" rms="4.2613011598587036e-01" purity="3.8015660643577576e-01" nType="-99"/>
        </Node>
      </Node>
    </BinaryTree>
    <BinaryTree type="DecisionTree" boostWeight="1.0000000000000000e+00" itree="72">
      <Node pos="s" depth="0" NCoef="0" IVar="5" Cut="8.6348861455917358e-01" cType="0" res="-3.3484839368611574e-03" rms="4.3356060981750488e-01" purity="5.0584912300109863e-01" nType="0">
        <Node pos="l" depth="1" NCoef="0" IVar="-1" Cut="0.0000000000000000e+00" cType="1" res="1.6719138948246837e-03" rms="4.3657052516937256e-01" purity="5.4951781034469604e-01" nType="-99"/>
        <Node pos="r" depth="1" NCoef="0" IVar="6" Cut="4.7765627503395081e-01" cType="0" res="-7.5937502086162567e-02" rms="4.1173100471496582e-01" purity="3.0515271425247192e-01" nType="0">
          <Node pos="l" depth="2" NCoef="0" IVar="-1" Cut="0.0000000000000000e+00" cType="1" res="1.1006052605807781e-02" rms="4.1891884803771973e-01" purity="7.4461483955383301e-01" nType="-99"/>
          <Node pos="r" depth="2" NCoef="0" IVar="-1" Cut="0.0000000000000000e+00" cType="1" res="-1.2033849023282528e-02" rms="4.0815877914428711e-01" purity="2.7163779735565186e-01" nType="-99"/>
        </Node>
      </Node>
    </BinaryTree>
    <BinaryTree type="DecisionTree" boostWeight="1.0000000000000000e+00" itree="73">
      <Node pos="s" depth="0" NCoef="0" IVar="6" Cut="-5.2675163745880127e-01" cType="0" res="-3.1790360808372498e-03" rms="4.3337771296501160e-01" purity="5.0584912300109863e-01" nType="0">
        <Node pos="l" depth="1" NCoef="0" IVar="-1" Cut="0.0000000000000000e+00" cType="1" res="8.2707288675010204e-04" rms="4.4152241945266724e-01" purity="5.3700268268585205e-01" nType="-99"/>
        <Node pos="r" depth="1" NCoef="0" IVar="4" Cut="8.8219672441482544e-01" cType="1" res="-1.2111768126487732e-01" rms="2.8859230875968933e-01" purity="1.1449886858463287e-01" nType="0">
          <Node pos="l" depth="2" NCoef="0" IVar="-1" Cut="0.0000000000000000e+00" cType="1" res="-2.2684311494231224e-02" rms="3.2522162795066833e-01" purity="1.6590128839015961e-01" nType="-99"/>
          <Node pos="r" depth="2" NCoef="0" IVar="-1" Cut="0.0000000000000000e+00" cType="1" res="-1.6372488811612129e-02" rms="2.7456271648406982e-01" purity="9.9822916090488434e-02" nType="-99"/>
        </Node>
      </Node>
    </BinaryTree>
    <BinaryTree type="DecisionTree" boostWeight="1.0000000000000000e+00" itree="74">
      <Node pos="s" depth="0" NCoef="0" IVar="2" Cut="1.3333333730697632e+00" cType="0" res="-3.0795675702393055e-03" rms="4.3324780464172363e-01" purity="5.0584912300109863e-01" nType="0">
        <Node pos="l" depth="1" NCoef="0" IVar="-1" Cut="0.0000000000000000e+00" cType="1" res="6.3249957747757435e-03" rms="4.2717182636260986e-01" purity="6.9916647672653198e-01" nType="-99"/>
        <Node pos="r" depth="1" NCoef="0" IVar="4" Cut="9.0576463937759399e-01" cType="1" res="-2.5257382541894913e-02" rms="4.3428459763526917e-01" purity="4.1549038887023926e-01" nType="0">
          <Node pos="l" depth="2" NCoef="0" IVar="-1" Cut="0.0000000000000000e+00" cType="1" res="4.0556723251938820e-03" rms="4.5109578967094421e-01" purity="5.4578942060470581e-01" nType="-99"/>
          <Node pos="r" depth="2" NCoef="0" IVar="-1" Cut="0.0000000000000000e+00" cType="1" res="-6.7422352731227875e-03" rms="4.2394834756851196e-01" purity="3.5646843910217285e-01" nType="-99"/>
        </Node>
      </Node>
    </BinaryTree>
    <BinaryTree type="DecisionTree" boostWeight="1.0000000000000000e+00" itree="75">
      <Node pos="s" depth="0" NCoef="0" IVar="5" Cut="9.3930470943450928e-01" cType="0" res="-3.0151095706969500e-03" rms="4.3300884962081909e-01" purity="5.0584912300109863e-01" nType="0">
        <Node pos="l" depth="1" NCoef="0" IVar="-1" Cut="0.0000000000000000e+00" cType="1" res="7.5505971908569336e-03" rms="3.9904358983039856e-01" purity="7.3208552598953247e-01" nType="-99"/>
        <Node pos="r" depth="1" NCoef="0" IVar="6" Cut="3.1503647565841675e-01" cType="0" res="-2.3437153548002243e-02" rms="4.4425618648529053e-01" purity="4.1519138216972351e-01" nType="0">
          <Node pos="l" depth="2" NCoef="0" IVar="-1" Cut="0.0000000000000000e+00" cType="1" res="7.0797214284539223e-03" rms="4.5452570915222168e-01" purity="6.5264230966567993e-01" nType="-99"/>
          <Node pos="r" depth="2" NCoef="0" IVar="-1" Cut="0.0000000000000000e+00" cType="1" res="-5.2515571005642414e-03" rms="4.3974608182907104e-01" purity="3.5721665620803833e-01" nType="-99"/>
        </Node>
      </Node>
    </BinaryTree>
    <BinaryTree type="DecisionTree" boostWeight="1.0000000000000000e+00" itree="76">
      <Node pos="s" depth="0" NCoef="0" IVar="3" Cut="2.4120216369628906e+02" cType="0" res="-3.0322340317070484e-03" rms="4.3278437852859497e-01" purity="5.0584912300109863e-01" nType="0">
        <Node pos="l" depth="1" NCoef="0" IVar="-1" Cut="0.0000000000000000e+00" cType="1" res="4.7732138773426414e-04" rms="4.3631142377853394e-01" purity="5.2204024791717529e-01" nType="-99"/>
        <Node pos="r" depth="1" NCoef="0" IVar="4" Cut="1.1812167167663574e+00" cType="0" res="-1.5835189819335938e-01" rms="2.9910394549369812e-01" purity="1.2186023592948914e-01" nType="0">
          <Node pos="l" depth="2" NCoef="0" IVar="-1" Cut="0.0000000000000000e+00" cType="1" res="-1.6586320474743843e-02" rms="3.2180884480476379e-01" purity="1.4158931374549866e-01" nType="-99"/>
          <Node pos="r" depth="2" NCoef="0" IVar="-1" Cut="0.0000000000000000e+00" cType="1" res="-2.2424198687076569e-02" rms="2.3751538991928101e-01" purity="8.5952393710613251e-02" nType="-99"/>
        </Node>
      </Node>
    </BinaryTree>
    <BinaryTree type="DecisionTree" boostWeight="1.0000000000000000e+00" itree="77">
      <Node pos="s" depth="0" NCoef="0" IVar="5" Cut="8.6348861455917358e-01" cType="0" res="-2.9578134417533875e-03" rms="4.3267723917961121e-01" purity="5.0584912300109863e-01" nType="0">
        <Node pos="l" depth="1" NCoef="0" IVar="-1" Cut="0.0000000000000000e+00" cType="1" res="1.5968180960044265e-03" rms="4.3585431575775146e-01" purity="5.4951781034469604e-01" nType="-99"/>
        <Node pos="r" depth="1" NCoef="0" IVar="4" Cut="7.7361696958541870e-01" cType="1" res="-7.0835001766681671e-02" rms="4.1099625825881958e-01" purity="3.0515271425247192e-01" nType="0">
          <Node pos="l" depth="2" NCoef="0" IVar="-1" Cut="0.0000000000000000e+00" cType="1" res="1.6120249638333917e-03" rms="4.5139423012733459e-01" purity="4.8533987998962402e-01" nType="-99"/>
          <Node pos="r" depth="2" NCoef="0" IVar="-1" Cut="0.0000000000000000e+00" cType="1" res="-1.3375681824982166e-02" rms="3.9433056116104126e-01" purity="2.5021830201148987e-01" nType="-99"/>
        </Node>
      </Node>
    </BinaryTree>
    <BinaryTree type="DecisionTree" boostWeight="1.0000000000000000e+00" itree="78">
      <Node pos="s" depth="0" NCoef="0" IVar="1" Cut="2.9422222900390625e+02" cType="1" res="-2.8257363010197878e-03" rms="4.3250647187232971e-01" purity="5.0584912300109863e-01" nType="0">
        <Node pos="l" depth="1" NCoef="0" IVar="-1" Cut="0.0000000000000000e+00" cType="1" res="3.1905854120850563e-04" rms="4.3316185474395752e-01" purity="5.1449573040008545e-01" nType="-99"/>
        <Node pos="r" depth="1" NCoef="0" IVar="4" Cut="2.0310058593750000e+00" cType="1" res="-1.9340325891971588e-01" rms="3.5895812511444092e-01" purity="1.8723651766777039e-01" nType="0">
          <Node pos="l" depth="2" NCoef="0" IVar="-1" Cut="0.0000000000000000e+00" cType="1" res="-2.3270398378372192e-02" rms="3.7134975194931030e-01" purity="2.1550308167934418e-01" nType="-99"/>
          <Node pos="r" depth="2" NCoef="0" IVar="-1" Cut="0.0000000000000000e+00" cType="1" res="-1.8267489969730377e-02" rms="3.2587382197380066e-01" purity="1.3603182137012482e-01" nType="-99"/>
        </Node>
      </Node>
    </BinaryTree>
    <BinaryTree type="DecisionTree" boostWeight="1.0000000000000000e+00" itree="79">
      <Node pos="s" depth="0" NCoef="0" IVar="4" Cut="1.8435550928115845e+00" cType="1" res="-2.7223448269069195e-03" rms="4.3239551782608032e-01" purity="5.0584912300109863e-01" nType="0">
        <Node pos="l" depth="1" NCoef="0" IVar="-1" Cut="0.0000000000000000e+00" cType="1" res="1.1490259785205126e-03" rms="4.4098824262619019e-01" purity="5.4857206344604492e-01" nType="-99"/>
        <Node pos="r" depth="1" NCoef="0" IVar="3" Cut="4.7713903808593750e+02" cType="0" res="-8.8817916810512543e-02" rms="3.4813424944877625e-01" purity="1.7915949225425720e-01" nType="0">
          <Node pos="l" depth="2" NCoef="0" IVar="-1" Cut="0.0000000000000000e+00" cType="1" res="-1.9261471927165985e-02" rms="4.0385344624519348e-01" purity="2.0746521651744843e-01" nType="-99"/>
          <Node pos="r" depth="2" NCoef="0" IVar="-1" Cut="0.0000000000000000e+00" cType="1" res="-1.0814077220857143e-02" rms="3.3308893442153931e-01" purity="1.7295221984386444e-01" nType="-99"/>
        </Node>
      </Node>
    </BinaryTree>
    <BinaryTree type="DecisionTree" boostWeight="1.0000000000000000e+00" itree="80">
      <Node pos="s" depth="0" NCoef="0" IVar="5" Cut="9.6963113546371460e-01" cType="0" res="-2.6699579320847988e-03" rms="4.3227288126945496e-01" purity="5.0584912300109863e-01" nType="0">
        <Node pos="l" depth="1" NCoef="0" IVar="-1" Cut="0.0000000000000000e+00" cType="1" res="3.1457375735044479e-02" rms="2.3868861794471741e-01" purity="9.3382120132446289e-01" nType="-99"/>
        <Node pos="r" depth="1" NCoef="0" IVar="3" Cut="4.1197662353515625e+02" cType="0" res="-1.2103280052542686e-02" rms="4.4479715824127197e-01" purity="4.6619743108749390e-01" nType="0">
          <Node pos="l" depth="2" NCoef="0" IVar="-1" Cut="0.0000000000000000e+00" cType="1" res="2.3218768183141947e-03" rms="4.5644837617874146e-01" purity="5.7879585027694702e-01" nType="-99"/>
          <Node pos="r" depth="2" NCoef="0" IVar="-1" Cut="0.0000000000000000e+00" cType="1" res="-5.6987516582012177e-03" rms="4.2889770865440369e-01" purity="3.3982437849044800e-01" nType="-99"/>
        </Node>
      </Node>
    </BinaryTree>
    <BinaryTree type="DecisionTree" boostWeight="1.0000000000000000e+00" itree="81">
      <Node pos="s" depth="0" NCoef="0" IVar="2" Cut="3.3333334326744080e-01" cType="0" res="-2.8797343838959932e-03" rms="4.3201822042465210e-01" purity="5.0584912300109863e-01" nType="0">
        <Node pos="l" depth="1" NCoef="0" IVar="-1" Cut="0.0000000000000000e+00" cType="1" res="2.5469246320426464e-03" rms="4.3818345665931702e-01" purity="5.8554136753082275e-01" nType="-99"/>
        <Node pos="r" depth="1" NCoef="0" IVar="6" Cut="2.1200907230377197e-01" cType="0" res="-4.5060791075229645e-02" rms="4.1662549972534180e-01" purity="3.5192364454269409e-01" nType="0">
          <Node pos="l" depth="2" NCoef="0" IVar="-1" Cut="0.0000000000000000e+00" cType="1" res="1.4254100620746613e-02" rms="4.4649559259414673e-01" purity="6.4574050903320312e-01" nType="-99"/>
          <Node pos="r" depth="2" NCoef="0" IVar="-1" Cut="0.0000000000000000e+00" cType="1" res="-8.4118153899908066e-03" rms="4.1022306680679321e-01" purity="3.2049962878227234e-01" nType="-99"/>
        </Node>
      </Node>
    </BinaryTree>
    <BinaryTree type="DecisionTree" boostWeight="1.0000000000000000e+00" itree="82">
      <Node pos="s" depth="0" NCoef="0" IVar="5" Cut="8.9381504058837891e-01" cType="0" res="-2.7798030059784651e-03" rms="4.3180811405181885e-01" purity="5.0584912300109863e-01" nType="0">
        <Node pos="l" depth="1" NCoef="0" IVar="-1" Cut="0.0000000000000000e+00" cType="1" res="2.7771920431405306e-03" rms="4.3293780088424683e-01" purity="5.9353381395339966e-01" nType="-99"/>
        <Node pos="r" depth="1" NCoef="0" IVar="6" Cut="5.4461503028869629e-01" cType="0" res="-4.1676968336105347e-02" rms="4.2708230018615723e-01" purity="3.5771098732948303e-01" nType="0">
          <Node pos="l" depth="2" NCoef="0" IVar="-1" Cut="0.0000000000000000e+00" cType="1" res="2.5884833186864853e-02" rms="3.1064844131469727e-01" purity="8.9832597970962524e-01" nType="-99"/>
          <Node pos="r" depth="2" NCoef="0" IVar="-1" Cut="0.0000000000000000e+00" cType="1" res="-6.6667972132563591e-03" rms="4.2780804634094238e-01" purity="3.4086167812347412e-01" nType="-99"/>
        </Node>
      </Node>
    </BinaryTree>
    <BinaryTree type="DecisionTree" boostWeight="1.0000000000000000e+00" itree="83">
      <Node pos="s" depth="0" NCoef="0" IVar="3" Cut="2.4120216369628906e+02" cType="0" res="-2.6359248440712690e-03" rms="4.3161806464195251e-01" purity="5.0584912300109863e-01" nType="0">
        <Node pos="l" depth="1" NCoef="0" IVar="-1" Cut="0.0000000000000000e+00" cType="1" res="4.7970906598493457e-04" rms="4.3526193499565125e-01" purity="5.2204024791717529e-01" nType="-99"/>
        <Node pos="r" depth="1" NCoef="0" IVar="4" Cut="1.1812167167663574e+00" cType="0" res="-1.4831994473934174e-01" rms="2.9876554012298584e-01" purity="1.2186023592948914e-01" nType="0">
          <Node pos="l" depth="2" NCoef="0" IVar="-1" Cut="0.0000000000000000e+00" cType="1" res="-1.5756517648696899e-02" rms="3.2206383347511292e-01" purity="1.4158931374549866e-01" nType="-99"/>
          <Node pos="r" depth="2" NCoef="0" IVar="-1" Cut="0.0000000000000000e+00" cType="1" res="-2.1778369322419167e-02" rms="2.3618566989898682e-01" purity="8.5952393710613251e-02" nType="-99"/>
        </Node>
      </Node>
    </BinaryTree>
    <BinaryTree type="DecisionTree" boostWeight="1.0000000000000000e+00" itree="84">
      <Node pos="s" depth="0" NCoef="0" IVar="6" Cut="-5.2675163745880127e-01" cType="0" res="-2.5786808691918850e-03" rms="4.3152290582656860e-01" purity="5.0584912300109863e-01" nType="0">
        <Node pos="l" depth="1" NCoef="0" IVar="-1" Cut="0.0000000000000000e+00" cType="1" res="7.7320053242146969e-04" rms="4.3989741802215576e-01" purity="5.3700268268585205e-01" nType="-99"/>
        <Node pos="r" depth="1" NCoef="0" IVar="4" Cut="8.8219672441482544e-01" cType="1" res="-1.0699044167995453e-01" rms="2.8769543766975403e-01" purity="1.1449886858463287e-01" nType="0">
          <Node pos="l" depth="2" NCoef="0" IVar="-1" Cut="0.0000000000000000e+00" cType="1" res="-2.1778659895062447e-02" rms="3.2476422190666199e-01" purity="1.6590128839015961e-01" nType="-99"/>
          <Node pos="r" depth="2" NCoef="0" IVar="-1" Cut="0.0000000000000000e+00" cType="1" res="-1.4945333823561668e-02" rms="2.7335044741630554e-01" purity="9.9822916090488434e-02" nType="-99"/>
        </Node>
      </Node>
    </BinaryTree>
    <BinaryTree type="DecisionTree" boostWeight="1.0000000000000000e+00" itree="85">
      <Node pos="s" depth="0" NCoef="0" IVar="1" Cut="2.9422222900390625e+02" cType="1" res="-2.5030185934156179e-03" rms="4.3141895532608032e-01" purity="5.0584912300109863e-01" nType="0">
        <Node pos="l" depth="1" NCoef="0" IVar="-1" Cut="0.0000000000000000e+00" cType="1" res="3.2129074679687619e-04" rms="4.3220987915992737e-01" purity="5.1449573040008545e-01" nType="-99"/>
        <Node pos="r" depth="1" NCoef="0" IVar="4" Cut="2.0310058593750000e+00" cType="1" res="-1.8104936182498932e-01" rms="3.5806190967559814e-01" purity="1.8723651766777039e-01" nType="0">
          <Node pos="l" depth="2" NCoef="0" IVar="-1" Cut="0.0000000000000000e+00" cType="1" res="-2.2273160517215729e-02" rms="3.7034496665000916e-01" purity="2.1550308167934418e-01" nType="-99"/>
          <Node pos="r" depth="2" NCoef="0" IVar="-1" Cut="0.0000000000000000e+00" cType="1" res="-1.6833832487463951e-02" rms="3.2471531629562378e-01" purity="1.3603182137012482e-01" nType="-99"/>
        </Node>
      </Node>
    </BinaryTree>
    <BinaryTree type="DecisionTree" boostWeight="1.0000000000000000e+00" itree="86">
      <Node pos="s" depth="0" NCoef="0" IVar="4" Cut="1.0397347211837769e+00" cType="1" res="-2.4153804406523705e-03" rms="4.3132093548774719e-01" purity="5.0584912300109863e-01" nType="0">
