<?xml version="1.0"?>
<MethodSetup Method="BDT::BDTG">
  <GeneralInfo>
    <Info name="TMVA Release" value="4.1.2 [262402]"/>
    <Info name="ROOT Release" value="5.32/00 [335872]"/>
    <Info name="Creator" value="wluo1"/>
    <Info name="Date" value="Mon May  6 21:58:38 2013"/>
    <Info name="Host" value="Linux lxbuild168.cern.ch 2.6.18-308.16.1.el5 #1 SMP Thu Oct 4 14:02:28 CEST 2012 x86_64 x86_64 x86_64 GNU/Linux"/>
    <Info name="Dir" value="/afs/crc.nd.edu/user/w/wluo1/LHCP_2013/CMSSW_5_3_8_patch1/src/BEAN/TMVA/TMVAv412"/>
    <Info name="Training events" value="3172"/>
    <Info name="TrainingTime" value="1.92825580e+00"/>
    <Info name="AnalysisType" value="Classification"/>
  </GeneralInfo>
  <Options>
    <Option name="V" modified="Yes">False</Option>
    <Option name="VerbosityLevel" modified="No">Default</Option>
    <Option name="VarTransform" modified="No">None</Option>
    <Option name="H" modified="Yes">False</Option>
    <Option name="CreateMVAPdfs" modified="No">False</Option>
    <Option name="IgnoreNegWeightsInTraining" modified="No">False</Option>
    <Option name="NTrees" modified="Yes">400</Option>
    <Option name="RenormByClass" modified="No">False</Option>
    <Option name="BoostType" modified="Yes">Grad</Option>
    <Option name="AdaBoostR2Loss" modified="No">quadratic</Option>
    <Option name="UseBaggedGrad" modified="Yes">False</Option>
    <Option name="GradBaggingFraction" modified="No">6.000000e-01</Option>
    <Option name="Shrinkage" modified="Yes">1.000000e-01</Option>
    <Option name="AdaBoostBeta" modified="No">1.000000e+00</Option>
    <Option name="UseRandomisedTrees" modified="No">False</Option>
    <Option name="UseNvars" modified="No">3</Option>
    <Option name="UsePoissonNvars" modified="No">True</Option>
    <Option name="UseNTrainEvents" modified="No">3172</Option>
    <Option name="UseWeightedTrees" modified="No">True</Option>
    <Option name="UseYesNoLeaf" modified="No">True</Option>
    <Option name="NodePurityLimit" modified="No">5.000000e-01</Option>
    <Option name="SeparationType" modified="No">giniindex</Option>
    <Option name="nEventsMin" modified="No">40</Option>
    <Option name="nCuts" modified="Yes">20</Option>
    <Option name="UseFisherCuts" modified="No">False</Option>
    <Option name="MinLinCorrForFisher" modified="No">8.000000e-01</Option>
    <Option name="UseExclusiveVars" modified="No">False</Option>
    <Option name="PruneStrength" modified="No">0.000000e+00</Option>
    <Option name="PruneMethod" modified="No">nopruning</Option>
    <Option name="PruneBeforeBoost" modified="No">False</Option>
    <Option name="PruningValFraction" modified="No">5.000000e-01</Option>
    <Option name="NNodesMax" modified="Yes">5</Option>
    <Option name="MaxDepth" modified="No">3</Option>
    <Option name="DoBoostMonitor" modified="No">False</Option>
    <Option name="NegWeightTreatment" modified="Yes">ignorenegweights</Option>
  </Options>
  <Variables NVar="6">
    <Variable VarIndex="0" Expression="min_dr_jets" Label="min_dr_jets" Title="min_dr_jets" Unit="" Internal="min_dr_jets" Type="F" Min="5.02062023e-01" Max="3.55536866e+00"/>
    <Variable VarIndex="1" Expression="higgsLike_dijet_mass" Label="higgsLike_dijet_mass" Title="higgsLike_dijet_mass" Unit="" Internal="higgsLike_dijet_mass" Type="F" Min="3.35092773e+01" Max="4.62360809e+02"/>
    <Variable VarIndex="2" Expression="higgsLike_dijet_mass2" Label="higgsLike_dijet_mass2" Title="higgsLike_dijet_mass2" Unit="" Internal="higgsLike_dijet_mass2" Type="F" Min="3.07115974e+01" Max="1.07981067e+03"/>
    <Variable VarIndex="3" Expression="sum_pt" Label="sum_pt" Title="sum_pt" Unit="" Internal="sum_pt" Type="F" Min="1.46411469e+02" Max="1.22205432e+03"/>
    <Variable VarIndex="4" Expression="avg_btag_disc_btags" Label="avg_btag_disc_btags" Title="avg_btag_disc_btags" Unit="" Internal="avg_btag_disc_btags" Type="F" Min="6.93996668e-01" Max="1.00000000e+00"/>
    <Variable VarIndex="5" Expression="avg_btag_disc_non_btags" Label="avg_btag_disc_non_btags" Title="avg_btag_disc_non_btags" Unit="" Internal="avg_btag_disc_non_btags" Type="F" Min="0.00000000e+00" Max="6.78971827e-01"/>
  </Variables>
  <Spectators NSpec="0"/>
  <Classes NClass="2">
    <Class Name="Signal" Index="0"/>
    <Class Name="Background" Index="1"/>
  </Classes>
  <Transformations NTransformations="0"/>
  <MVAPdfs/>
  <Weights NTrees="400" AnalysisType="1">
    <BinaryTree type="DecisionTree" boostWeight="1.0000000000000000e+00" itree="0">
      <Node pos="s" depth="0" NCoef="0" IVar="3" Cut="3.5129580688476562e+02" cType="0" res="-9.2600210336968303e-04" rms="4.9999913573265076e-01" purity="4.9907404184341431e-01" nType="0">
        <Node pos="l" depth="1" NCoef="0" IVar="-1" Cut="0.0000000000000000e+00" cType="1" res="2.2188279777765274e-02" rms="4.8427709937095642e-01" purity="6.2440139055252075e-01" nType="-99"/>
        <Node pos="r" depth="1" NCoef="0" IVar="5" Cut="3.2331991195678711e-01" cType="0" res="-1.1016349494457245e-01" rms="4.8771303892135620e-01" purity="3.8983651995658875e-01" nType="0">
          <Node pos="l" depth="2" NCoef="0" IVar="-1" Cut="0.0000000000000000e+00" cType="1" res="1.1575992219150066e-02" rms="4.9356150627136230e-01" purity="5.7998156547546387e-01" nType="-99"/>
          <Node pos="r" depth="2" NCoef="0" IVar="-1" Cut="0.0000000000000000e+00" cType="1" res="-2.5286376476287842e-02" rms="4.7790083289146423e-01" purity="3.5299393534660339e-01" nType="-99"/>
        </Node>
      </Node>
    </BinaryTree>
    <BinaryTree type="DecisionTree" boostWeight="1.0000000000000000e+00" itree="1">
      <Node pos="s" depth="0" NCoef="0" IVar="3" Cut="3.0007473754882812e+02" cType="0" res="-9.3607482267543674e-04" rms="4.9709346890449524e-01" purity="4.9907404184341431e-01" nType="0">
        <Node pos="l" depth="1" NCoef="0" IVar="-1" Cut="0.0000000000000000e+00" cType="1" res="1.3018014840781689e-02" rms="4.9208348989486694e-01" purity="5.7904988527297974e-01" nType="-99"/>
        <Node pos="r" depth="1" NCoef="0" IVar="2" Cut="1.6534143066406250e+02" cType="1" res="-1.6035321354866028e-01" rms="4.6919164061546326e-01" purity="3.3002072572708130e-01" nType="0">
          <Node pos="l" depth="2" NCoef="0" IVar="-1" Cut="0.0000000000000000e+00" cType="1" res="-2.1763786673545837e-02" rms="4.7899395227432251e-01" purity="3.6046713590621948e-01" nType="-99"/>
          <Node pos="r" depth="2" NCoef="0" IVar="-1" Cut="0.0000000000000000e+00" cType="1" res="-5.8189824223518372e-02" rms="3.3832681179046631e-01" purity="1.3193711638450623e-01" nType="-99"/>
        </Node>
      </Node>
    </BinaryTree>
    <BinaryTree type="DecisionTree" boostWeight="1.0000000000000000e+00" itree="2">
      <Node pos="s" depth="0" NCoef="0" IVar="3" Cut="3.5129580688476562e+02" cType="0" res="-1.0846281656995416e-03" rms="4.9483937025070190e-01" purity="4.9907404184341431e-01" nType="0">
        <Node pos="l" depth="1" NCoef="0" IVar="-1" Cut="0.0000000000000000e+00" cType="1" res="1.9073491916060448e-02" rms="4.8427709937095642e-01" purity="6.2440139055252075e-01" nType="-99"/>
        <Node pos="r" depth="1" NCoef="0" IVar="5" Cut="3.2331991195678711e-01" cType="0" res="-9.5123499631881714e-02" rms="4.8465538024902344e-01" purity="3.8983651995658875e-01" nType="0">
          <Node pos="l" depth="2" NCoef="0" IVar="-1" Cut="0.0000000000000000e+00" cType="1" res="1.1529636569321156e-02" rms="4.9070060253143311e-01" purity="5.7998156547546387e-01" nType="-99"/>
          <Node pos="r" depth="2" NCoef="0" IVar="-1" Cut="0.0000000000000000e+00" cType="1" res="-2.2225528955459595e-02" rms="4.7611472010612488e-01" purity="3.5299393534660339e-01" nType="-99"/>
        </Node>
      </Node>
    </BinaryTree>
    <BinaryTree type="DecisionTree" boostWeight="1.0000000000000000e+00" itree="3">
      <Node pos="s" depth="0" NCoef="0" IVar="3" Cut="3.0007473754882812e+02" cType="0" res="-1.0563534451648593e-03" rms="4.9260723590850830e-01" purity="4.9907404184341431e-01" nType="0">
        <Node pos="l" depth="1" NCoef="0" IVar="-1" Cut="0.0000000000000000e+00" cType="1" res="1.1221910826861858e-02" rms="4.9083119630813599e-01" purity="5.7904988527297974e-01" nType="-99"/>
        <Node pos="r" depth="1" NCoef="0" IVar="2" Cut="1.6534143066406250e+02" cType="1" res="-1.3875287771224976e-01" rms="4.6735829114913940e-01" purity="3.3002072572708130e-01" nType="0">
          <Node pos="l" depth="2" NCoef="0" IVar="-1" Cut="0.0000000000000000e+00" cType="1" res="-1.8614802509546280e-02" rms="4.7803425788879395e-01" purity="3.6046713590621948e-01" nType="-99"/>
          <Node pos="r" depth="2" NCoef="0" IVar="-1" Cut="0.0000000000000000e+00" cType="1" res="-5.2567213773727417e-02" rms="3.3835449814796448e-01" purity="1.3193711638450623e-01" nType="-99"/>
        </Node>
      </Node>
    </BinaryTree>
    <BinaryTree type="DecisionTree" boostWeight="1.0000000000000000e+00" itree="4">
      <Node pos="s" depth="0" NCoef="0" IVar="3" Cut="3.0007473754882812e+02" cType="0" res="-1.1700282339006662e-03" rms="4.9088516831398010e-01" purity="4.9907404184341431e-01" nType="0">
        <Node pos="l" depth="1" NCoef="0" IVar="-1" Cut="0.0000000000000000e+00" cType="1" res="1.0250141844153404e-02" rms="4.9083200097084045e-01" purity="5.7904988527297974e-01" nType="-99"/>
        <Node pos="r" depth="1" NCoef="0" IVar="2" Cut="1.8457424926757812e+02" cType="1" res="-1.2727923691272736e-01" rms="4.6653124690055847e-01" purity="3.3002072572708130e-01" nType="0">
          <Node pos="l" depth="2" NCoef="0" IVar="-1" Cut="0.0000000000000000e+00" cType="1" res="-1.8310932442545891e-02" rms="4.7445651888847351e-01" purity="3.5053831338882446e-01" nType="-99"/>
          <Node pos="r" depth="2" NCoef="0" IVar="-1" Cut="0.0000000000000000e+00" cType="1" res="-6.2207411974668503e-02" rms="2.3182561993598938e-01" purity="5.6895580142736435e-02" nType="-99"/>
        </Node>
      </Node>
    </BinaryTree>
    <BinaryTree type="DecisionTree" boostWeight="1.0000000000000000e+00" itree="5">
      <Node pos="s" depth="0" NCoef="0" IVar="3" Cut="3.5129580688476562e+02" cType="0" res="-1.2501769233494997e-03" rms="4.8942196369171143e-01" purity="4.9907404184341431e-01" nType="0">
        <Node pos="l" depth="1" NCoef="0" IVar="-1" Cut="0.0000000000000000e+00" cType="1" res="1.5534407459199429e-02" rms="4.8427709937095642e-01" purity="6.2440139055252075e-01" nType="-99"/>
        <Node pos="r" depth="1" NCoef="0" IVar="5" Cut="3.2331991195678711e-01" cType="0" res="-7.7819913625717163e-02" rms="4.8094791173934937e-01" purity="3.8983651995658875e-01" nType="0">
          <Node pos="l" depth="2" NCoef="0" IVar="-1" Cut="0.0000000000000000e+00" cType="1" res="1.2110666371881962e-02" rms="4.8602724075317383e-01" purity="5.7998156547546387e-01" nType="-99"/>
          <Node pos="r" depth="2" NCoef="0" IVar="-1" Cut="0.0000000000000000e+00" cType="1" res="-1.8928324803709984e-02" rms="4.7365516424179077e-01" purity="3.5299393534660339e-01" nType="-99"/>
        </Node>
      </Node>
    </BinaryTree>
    <BinaryTree type="DecisionTree" boostWeight="1.0000000000000000e+00" itree="6">
      <Node pos="s" depth="0" NCoef="0" IVar="5" Cut="2.9098793864250183e-01" cType="0" res="-1.1741570197045803e-03" rms="4.8783817887306213e-01" purity="4.9907404184341431e-01" nType="0">
        <Node pos="l" depth="1" NCoef="0" IVar="-1" Cut="0.0000000000000000e+00" cType="1" res="2.3401563987135887e-02" rms="4.5837813615798950e-01" purity="6.7141449451446533e-01" nType="-99"/>
        <Node pos="r" depth="1" NCoef="0" IVar="3" Cut="4.0251690673828125e+02" cType="0" res="-3.8303948938846588e-02" rms="4.8748973011970520e-01" purity="4.5740225911140442e-01" nType="0">
          <Node pos="l" depth="2" NCoef="0" IVar="-1" Cut="0.0000000000000000e+00" cType="1" res="1.2459299527108669e-02" rms="4.8702436685562134e-01" purity="6.1316919326782227e-01" nType="-99"/>
          <Node pos="r" depth="2" NCoef="0" IVar="-1" Cut="0.0000000000000000e+00" cType="1" res="-1.5371453016996384e-02" rms="4.7998288273811340e-01" purity="3.8625678420066833e-01" nType="-99"/>
        </Node>
      </Node>
    </BinaryTree>
    <BinaryTree type="DecisionTree" boostWeight="1.0000000000000000e+00" itree="7">
      <Node pos="s" depth="0" NCoef="0" IVar="3" Cut="3.0007473754882812e+02" cType="0" res="-7.9657748574391007e-04" rms="4.8624449968338013e-01" purity="4.9907404184341431e-01" nType="0">
        <Node pos="l" depth="1" NCoef="0" IVar="-1" Cut="0.0000000000000000e+00" cType="1" res="8.6321877315640450e-03" rms="4.8845651745796204e-01" purity="5.7904988527297974e-01" nType="-99"/>
        <Node pos="r" depth="1" NCoef="0" IVar="2" Cut="1.8457424926757812e+02" cType="1" res="-1.0611543804407120e-01" rms="4.6425935626029968e-01" purity="3.3002072572708130e-01" nType="0">
          <Node pos="l" depth="2" NCoef="0" IVar="-1" Cut="0.0000000000000000e+00" cType="1" res="-1.5116930007934570e-02" rms="4.7271242737770081e-01" purity="3.5053831338882446e-01" nType="-99"/>
          <Node pos="r" depth="2" NCoef="0" IVar="-1" Cut="0.0000000000000000e+00" cType="1" res="-5.7452522218227386e-02" rms="2.3291532695293427e-01" purity="5.6895580142736435e-02" nType="-99"/>
        </Node>
      </Node>
    </BinaryTree>
    <BinaryTree type="DecisionTree" boostWeight="1.0000000000000000e+00" itree="8">
      <Node pos="s" depth="0" NCoef="0" IVar="5" Cut="2.9098793864250183e-01" cType="0" res="-8.8465207954868674e-04" rms="4.8518103361129761e-01" purity="4.9907404184341431e-01" nType="0">
        <Node pos="l" depth="1" NCoef="0" IVar="-1" Cut="0.0000000000000000e+00" cType="1" res="2.1719673648476601e-02" rms="4.5655521750450134e-01" purity="6.7141449451446533e-01" nType="-99"/>
        <Node pos="r" depth="1" NCoef="0" IVar="0" Cut="1.8601666688919067e+00" cType="1" res="-3.5151917487382889e-02" rms="4.8568356037139893e-01" purity="4.5740225911140442e-01" nType="0">
          <Node pos="l" depth="2" NCoef="0" IVar="-1" Cut="0.0000000000000000e+00" cType="1" res="-1.1149635247420520e-04" rms="4.8661369085311890e-01" purity="4.9343392252922058e-01" nType="-99"/>
          <Node pos="r" depth="2" NCoef="0" IVar="-1" Cut="0.0000000000000000e+00" cType="1" res="-2.9319655150175095e-02" rms="4.6170312166213989e-01" purity="3.2863742113113403e-01" nType="-99"/>
        </Node>
      </Node>
    </BinaryTree>
    <BinaryTree type="DecisionTree" boostWeight="1.0000000000000000e+00" itree="9">
      <Node pos="s" depth="0" NCoef="0" IVar="3" Cut="3.5129580688476562e+02" cType="0" res="-4.0458259172737598e-04" rms="4.8381134867668152e-01" purity="4.9907404184341431e-01" nType="0">
        <Node pos="l" depth="1" NCoef="0" IVar="-1" Cut="0.0000000000000000e+00" cType="1" res="1.2868205085396767e-02" rms="4.8131600022315979e-01" purity="6.2440139055252075e-01" nType="-99"/>
        <Node pos="r" depth="1" NCoef="0" IVar="3" Cut="2.5372935485839844e+02" cType="0" res="-6.2875136733055115e-02" rms="4.7727623581886292e-01" purity="3.8983651995658875e-01" nType="0">
          <Node pos="l" depth="2" NCoef="0" IVar="-1" Cut="0.0000000000000000e+00" cType="1" res="-4.8929760232567787e-03" rms="4.8638331890106201e-01" purity="4.3177387118339539e-01" nType="-99"/>
          <Node pos="r" depth="2" NCoef="0" IVar="-1" Cut="0.0000000000000000e+00" cType="1" res="-2.8185995295643806e-02" rms="4.3142384290695190e-01" purity="2.6081925630569458e-01" nType="-99"/>
        </Node>
      </Node>
    </BinaryTree>
    <BinaryTree type="DecisionTree" boostWeight="1.0000000000000000e+00" itree="10">
      <Node pos="s" depth="0" NCoef="0" IVar="5" Cut="3.5565191507339478e-01" cType="0" res="-5.9716822579503059e-04" rms="4.8275196552276611e-01" purity="4.9907404184341431e-01" nType="0">
        <Node pos="l" depth="1" NCoef="0" IVar="-1" Cut="0.0000000000000000e+00" cType="1" res="2.4701271206140518e-02" rms="4.4372567534446716e-01" purity="7.0381236076354980e-01" nType="-99"/>
        <Node pos="r" depth="1" NCoef="0" IVar="0" Cut="1.8601666688919067e+00" cType="1" res="-2.6493482291698456e-02" rms="4.8380333185195923e-01" purity="4.6600902080535889e-01" nType="0">
          <Node pos="l" depth="2" NCoef="0" IVar="-1" Cut="0.0000000000000000e+00" cType="1" res="1.1930204927921295e-03" rms="4.8462530970573425e-01" purity="5.0365149974822998e-01" nType="-99"/>
          <Node pos="r" depth="2" NCoef="0" IVar="-1" Cut="0.0000000000000000e+00" cType="1" res="-2.6155484840273857e-02" rms="4.6211382746696472e-01" purity="3.3275330066680908e-01" nType="-99"/>
        </Node>
      </Node>
    </BinaryTree>
    <BinaryTree type="DecisionTree" boostWeight="1.0000000000000000e+00" itree="11">
      <Node pos="s" depth="0" NCoef="0" IVar="3" Cut="3.0007473754882812e+02" cType="0" res="-2.5580709916539490e-04" rms="4.8152402043342590e-01" purity="4.9907404184341431e-01" nType="0">
        <Node pos="l" depth="1" NCoef="0" IVar="-1" Cut="0.0000000000000000e+00" cType="1" res="7.4253119528293610e-03" rms="4.8504367470741272e-01" purity="5.7904988527297974e-01" nType="-99"/>
        <Node pos="r" depth="1" NCoef="0" IVar="1" Cut="8.7429855346679688e+01" cType="0" res="-8.9505463838577271e-02" rms="4.6145462989807129e-01" purity="3.3002072572708130e-01" nType="0">
          <Node pos="l" depth="2" NCoef="0" IVar="-1" Cut="0.0000000000000000e+00" cType="1" res="-1.1534616351127625e-02" rms="4.6961474418640137e-01" purity="3.5384854674339294e-01" nType="-99"/>
          <Node pos="r" depth="2" NCoef="0" IVar="-1" Cut="0.0000000000000000e+00" cType="1" res="-4.1184432804584503e-02" rms="3.6419564485549927e-01" purity="1.6650791466236115e-01" nType="-99"/>
        </Node>
      </Node>
    </BinaryTree>
    <BinaryTree type="DecisionTree" boostWeight="1.0000000000000000e+00" itree="12">
      <Node pos="s" depth="0" NCoef="0" IVar="0" Cut="2.1014130115509033e+00" cType="1" res="-3.7847712519578636e-04" rms="4.8072725534439087e-01" purity="4.9907404184341431e-01" nType="0">
        <Node pos="l" depth="1" NCoef="0" IVar="-1" Cut="0.0000000000000000e+00" cType="1" res="4.1902251541614532e-03" rms="4.8021146655082703e-01" purity="5.2659654617309570e-01" nType="-99"/>
        <Node pos="r" depth="1" NCoef="0" IVar="0" Cut="2.5862238407135010e+00" cType="1" res="-1.5529145300388336e-01" rms="4.5445850491523743e-01" purity="3.2269340753555298e-01" nType="0">
          <Node pos="l" depth="2" NCoef="0" IVar="-1" Cut="0.0000000000000000e+00" cType="1" res="-1.6523996368050575e-02" rms="4.7208723425865173e-01" purity="3.8553205132484436e-01" nType="-99"/>
          <Node pos="r" depth="2" NCoef="0" IVar="-1" Cut="0.0000000000000000e+00" cType="1" res="-5.5414907634258270e-02" rms="3.5049197077751160e-01" purity="1.4938090741634369e-01" nType="-99"/>
        </Node>
      </Node>
    </BinaryTree>
    <BinaryTree type="DecisionTree" boostWeight="1.0000000000000000e+00" itree="13">
      <Node pos="s" depth="0" NCoef="0" IVar="5" Cut="2.9098793864250183e-01" cType="0" res="-3.9823653060011566e-04" rms="4.7987052798271179e-01" purity="4.9907404184341431e-01" nType="0">
        <Node pos="l" depth="1" NCoef="0" IVar="-1" Cut="0.0000000000000000e+00" cType="1" res="1.9071204587817192e-02" rms="4.5131334662437439e-01" purity="6.7141449451446533e-01" nType="-99"/>
        <Node pos="r" depth="1" NCoef="0" IVar="3" Cut="4.0251690673828125e+02" cType="0" res="-3.0092831701040268e-02" rms="4.8184767365455627e-01" purity="4.5740225911140442e-01" nType="0">
          <Node pos="l" depth="2" NCoef="0" IVar="-1" Cut="0.0000000000000000e+00" cType="1" res="9.6698990091681480e-03" rms="4.8419833183288574e-01" purity="6.1316919326782227e-01" nType="-99"/>
          <Node pos="r" depth="2" NCoef="0" IVar="-1" Cut="0.0000000000000000e+00" cType="1" res="-1.2161743827164173e-02" rms="4.7607287764549255e-01" purity="3.8625678420066833e-01" nType="-99"/>
        </Node>
      </Node>
    </BinaryTree>
    <BinaryTree type="DecisionTree" boostWeight="1.0000000000000000e+00" itree="14">
      <Node pos="s" depth="0" NCoef="0" IVar="0" Cut="2.1014130115509033e+00" cType="1" res="-1.3813022815156728e-04" rms="4.7887760400772095e-01" purity="4.9907404184341431e-01" nType="0">
        <Node pos="l" depth="1" NCoef="0" IVar="-1" Cut="0.0000000000000000e+00" cType="1" res="3.8986746221780777e-03" rms="4.7914254665374756e-01" purity="5.2659654617309570e-01" nType="-99"/>
        <Node pos="r" depth="1" NCoef="0" IVar="0" Cut="2.5862238407135010e+00" cType="1" res="-1.4250670373439789e-01" rms="4.5195737481117249e-01" purity="3.2269340753555298e-01" nType="0">
          <Node pos="l" depth="2" NCoef="0" IVar="-1" Cut="0.0000000000000000e+00" cType="1" res="-1.5176603570580482e-02" rms="4.7121211886405945e-01" purity="3.8553205132484436e-01" nType="-99"/>
          <Node pos="r" depth="2" NCoef="0" IVar="-1" Cut="0.0000000000000000e+00" cType="1" res="-5.1484737545251846e-02" rms="3.4979939460754395e-01" purity="1.4938090741634369e-01" nType="-99"/>
        </Node>
      </Node>
    </BinaryTree>
    <BinaryTree type="DecisionTree" boostWeight="1.0000000000000000e+00" itree="15">
      <Node pos="s" depth="0" NCoef="0" IVar="5" Cut="3.5565191507339478e-01" cType="0" res="-1.7765276425052434e-04" rms="4.7815126180648804e-01" purity="4.9907404184341431e-01" nType="0">
        <Node pos="l" depth="1" NCoef="0" IVar="-1" Cut="0.0000000000000000e+00" cType="1" res="2.1863557398319244e-02" rms="4.3950378894805908e-01" purity="7.0381236076354980e-01" nType="-99"/>
        <Node pos="r" depth="1" NCoef="0" IVar="3" Cut="2.4885363769531250e+02" cType="0" res="-2.2779745981097221e-02" rms="4.8029378056526184e-01" purity="4.6600902080535889e-01" nType="0">
          <Node pos="l" depth="2" NCoef="0" IVar="-1" Cut="0.0000000000000000e+00" cType="1" res="-6.3409924041479826e-04" rms="4.8526790738105774e-01" purity="4.9846214056015015e-01" nType="-99"/>
          <Node pos="r" depth="2" NCoef="0" IVar="-1" Cut="0.0000000000000000e+00" cType="1" res="-2.9444329440593719e-02" rms="4.1393274068832397e-01" purity="2.2368650138378143e-01" nType="-99"/>
        </Node>
      </Node>
    </BinaryTree>
    <BinaryTree type="DecisionTree" boostWeight="1.0000000000000000e+00" itree="16">
      <Node pos="s" depth="0" NCoef="0" IVar="3" Cut="3.5129580688476562e+02" cType="0" res="-7.1498484430776443e-06" rms="4.7727203369140625e-01" purity="4.9907404184341431e-01" nType="0">
        <Node pos="l" depth="1" NCoef="0" IVar="-1" Cut="0.0000000000000000e+00" cType="1" res="1.0443699546158314e-02" rms="4.7668638825416565e-01" purity="6.2440139055252075e-01" nType="-99"/>
        <Node pos="r" depth="1" NCoef="0" IVar="2" Cut="1.6534143066406250e+02" cType="1" res="-4.9908552318811417e-02" rms="4.7215300798416138e-01" purity="3.8983651995658875e-01" nType="0">
          <Node pos="l" depth="2" NCoef="0" IVar="-1" Cut="0.0000000000000000e+00" cType="1" res="-3.9457990787923336e-03" rms="4.8025146126747131e-01" purity="4.2096647620201111e-01" nType="-99"/>
          <Node pos="r" depth="2" NCoef="0" IVar="-1" Cut="0.0000000000000000e+00" cType="1" res="-2.8793985024094582e-02" rms="4.1681388020515442e-01" purity="2.5707912445068359e-01" nType="-99"/>
        </Node>
      </Node>
    </BinaryTree>
    <BinaryTree type="DecisionTree" boostWeight="1.0000000000000000e+00" itree="17">
      <Node pos="s" depth="0" NCoef="0" IVar="5" Cut="2.9098793864250183e-01" cType="0" res="-1.7406254482921213e-04" rms="4.7652256488800049e-01" purity="4.9907404184341431e-01" nType="0">
        <Node pos="l" depth="1" NCoef="0" IVar="-1" Cut="0.0000000000000000e+00" cType="1" res="1.6762480139732361e-02" rms="4.4787022471427917e-01" purity="6.7141449451446533e-01" nType="-99"/>
        <Node pos="r" depth="1" NCoef="0" IVar="0" Cut="1.3169248104095459e+00" cType="1" res="-2.5960374623537064e-02" rms="4.7964900732040405e-01" purity="4.5740225911140442e-01" nType="0">
          <Node pos="l" depth="2" NCoef="0" IVar="-1" Cut="0.0000000000000000e+00" cType="1" res="5.2152541466057301e-03" rms="4.7707879543304443e-01" purity="5.2531141042709351e-01" nType="-99"/>
          <Node pos="r" depth="2" NCoef="0" IVar="-1" Cut="0.0000000000000000e+00" cType="1" res="-1.3266040012240410e-02" rms="4.7702509164810181e-01" purity="4.0187969803810120e-01" nType="-99"/>
        </Node>
      </Node>
    </BinaryTree>
    <BinaryTree type="DecisionTree" boostWeight="1.0000000000000000e+00" itree="18">
      <Node pos="s" depth="0" NCoef="0" IVar="3" Cut="3.0007473754882812e+02" cType="0" res="1.7212005332112312e-04" rms="4.7573947906494141e-01" purity="4.9907404184341431e-01" nType="0">
        <Node pos="l" depth="1" NCoef="0" IVar="-1" Cut="0.0000000000000000e+00" cType="1" res="6.1899377033114433e-03" rms="4.7998541593551636e-01" purity="5.7904988527297974e-01" nType="-99"/>
        <Node pos="r" depth="1" NCoef="0" IVar="1" Cut="8.7429855346679688e+01" cType="0" res="-7.2729162871837616e-02" rms="4.5817196369171143e-01" purity="3.3002072572708130e-01" nType="0">
          <Node pos="l" depth="2" NCoef="0" IVar="-1" Cut="0.0000000000000000e+00" cType="1" res="-9.0629504993557930e-03" rms="4.6672934293746948e-01" purity="3.5384854674339294e-01" nType="-99"/>
          <Node pos="r" depth="2" NCoef="0" IVar="-1" Cut="0.0000000000000000e+00" cType="1" res="-3.7655059248209000e-02" rms="3.6199814081192017e-01" purity="1.6650791466236115e-01" nType="-99"/>
        </Node>
      </Node>
    </BinaryTree>
    <BinaryTree type="DecisionTree" boostWeight="1.0000000000000000e+00" itree="19">
      <Node pos="s" depth="0" NCoef="0" IVar="0" Cut="2.1014130115509033e+00" cType="1" res="3.4050171962007880e-05" rms="4.7517180442810059e-01" purity="4.9907404184341431e-01" nType="0">
        <Node pos="l" depth="1" NCoef="0" IVar="-1" Cut="0.0000000000000000e+00" cType="1" res="3.5138367675244808e-03" rms="4.7614941000938416e-01" purity="5.2659654617309570e-01" nType="-99"/>
        <Node pos="r" depth="1" NCoef="0" IVar="0" Cut="2.5862238407135010e+00" cType="1" res="-1.2615586817264557e-01" rms="4.4879779219627380e-01" purity="3.2269340753555298e-01" nType="0">
          <Node pos="l" depth="2" NCoef="0" IVar="-1" Cut="0.0000000000000000e+00" cType="1" res="-1.3245947659015656e-02" rms="4.6914666891098022e-01" purity="3.8553205132484436e-01" nType="-99"/>
          <Node pos="r" depth="2" NCoef="0" IVar="-1" Cut="0.0000000000000000e+00" cType="1" res="-4.7618743032217026e-02" rms="3.4937229752540588e-01" purity="1.4938090741634369e-01" nType="-99"/>
        </Node>
      </Node>
    </BinaryTree>
    <BinaryTree type="DecisionTree" boostWeight="1.0000000000000000e+00" itree="20">
      <Node pos="s" depth="0" NCoef="0" IVar="5" Cut="3.5565191507339478e-01" cType="0" res="-1.8884433302446268e-05" rms="4.7458338737487793e-01" purity="4.9907404184341431e-01" nType="0">
        <Node pos="l" depth="1" NCoef="0" IVar="-1" Cut="0.0000000000000000e+00" cType="1" res="1.9364250823855400e-02" rms="4.3597069382667542e-01" purity="7.0381236076354980e-01" nType="-99"/>
        <Node pos="r" depth="1" NCoef="0" IVar="3" Cut="2.4885363769531250e+02" cType="0" res="-1.9717952236533165e-02" rms="4.7761556506156921e-01" purity="4.6600902080535889e-01" nType="0">
          <Node pos="l" depth="2" NCoef="0" IVar="-1" Cut="0.0000000000000000e+00" cType="1" res="-6.0928444145247340e-04" rms="4.8328807950019836e-01" purity="4.9846214056015015e-01" nType="-99"/>
          <Node pos="r" depth="2" NCoef="0" IVar="-1" Cut="0.0000000000000000e+00" cType="1" res="-2.5771766901016235e-02" rms="4.1289103031158447e-01" purity="2.2368650138378143e-01" nType="-99"/>
        </Node>
      </Node>
    </BinaryTree>
    <BinaryTree type="DecisionTree" boostWeight="1.0000000000000000e+00" itree="21">
      <Node pos="s" depth="0" NCoef="0" IVar="0" Cut="1.3744353055953979e+00" cType="1" res="1.2038644490530714e-04" rms="4.7393131256103516e-01" purity="4.9907404184341431e-01" nType="0">
        <Node pos="l" depth="1" NCoef="0" IVar="-1" Cut="0.0000000000000000e+00" cType="1" res="8.4942625835537910e-03" rms="4.6916750073432922e-01" purity="5.6121879816055298e-01" nType="-99"/>
        <Node pos="r" depth="1" NCoef="0" IVar="5" Cut="2.9085168242454529e-01" cType="0" res="-4.4494017958641052e-02" rms="4.7400704026222229e-01" purity="4.4105732440948486e-01" nType="0">
          <Node pos="l" depth="2" NCoef="0" IVar="-1" Cut="0.0000000000000000e+00" cType="1" res="9.5258858054876328e-03" rms="4.5717233419418335e-01" purity="6.3297736644744873e-01" nType="-99"/>
          <Node pos="r" depth="2" NCoef="0" IVar="-1" Cut="0.0000000000000000e+00" cType="1" res="-1.3795066624879837e-02" rms="4.7439360618591309e-01" purity="3.8912710547447205e-01" nType="-99"/>
        </Node>
      </Node>
    </BinaryTree>
    <BinaryTree type="DecisionTree" boostWeight="1.0000000000000000e+00" itree="22">
      <Node pos="s" depth="0" NCoef="0" IVar="3" Cut="3.5129580688476562e+02" cType="0" res="3.3026654273271561e-04" rms="4.7328963875770569e-01" purity="4.9907404184341431e-01" nType="0">
        <Node pos="l" depth="1" NCoef="0" IVar="-1" Cut="0.0000000000000000e+00" cType="1" res="8.9276935905218124e-03" rms="4.7333270311355591e-01" purity="6.2440139055252075e-01" nType="-99"/>
        <Node pos="r" depth="1" NCoef="0" IVar="2" Cut="1.8457424926757812e+02" cType="1" res="-4.1632778942584991e-02" rms="4.6924027800559998e-01" purity="3.8983651995658875e-01" nType="0">
          <Node pos="l" depth="2" NCoef="0" IVar="-1" Cut="0.0000000000000000e+00" cType="1" res="-4.1842977516353130e-03" rms="4.7545123100280762e-01" purity="4.1175800561904907e-01" nType="-99"/>
          <Node pos="r" depth="2" NCoef="0" IVar="-1" Cut="0.0000000000000000e+00" cType="1" res="-3.3702421933412552e-02" rms="3.8659703731536865e-01" purity="2.1123544871807098e-01" nType="-99"/>
        </Node>
      </Node>
    </BinaryTree>
    <BinaryTree type="DecisionTree" boostWeight="1.0000000000000000e+00" itree="23">
      <Node pos="s" depth="0" NCoef="0" IVar="0" Cut="2.3922042846679688e+00" cType="1" res="1.6712566139176488e-04" rms="4.7273072600364685e-01" purity="4.9907404184341431e-01" nType="0">
        <Node pos="l" depth="1" NCoef="0" IVar="-1" Cut="0.0000000000000000e+00" cType="1" res="1.9828183576464653e-03" rms="4.7437500953674316e-01" purity="5.1543569564819336e-01" nType="-99"/>
        <Node pos="r" depth="1" NCoef="0" IVar="0" Cut="2.6181492805480957e+00" cType="1" res="-1.7667613923549652e-01" rms="4.0623179078102112e-01" purity="2.3381207883358002e-01" nType="0">
          <Node pos="l" depth="2" NCoef="0" IVar="-1" Cut="0.0000000000000000e+00" cType="1" res="-1.7383359372615814e-02" rms="4.5519804954528809e-01" purity="3.4788757562637329e-01" nType="-99"/>
          <Node pos="r" depth="2" NCoef="0" IVar="-1" Cut="0.0000000000000000e+00" cType="1" res="-4.3814089149236679e-02" rms="3.4694349765777588e-01" purity="1.4297728240489960e-01" nType="-99"/>
        </Node>
      </Node>
    </BinaryTree>
    <BinaryTree type="DecisionTree" boostWeight="1.0000000000000000e+00" itree="24">
      <Node pos="s" depth="0" NCoef="0" IVar="5" Cut="3.2331991195678711e-01" cType="0" res="1.1099243420176208e-04" rms="4.7234809398651123e-01" purity="4.9907404184341431e-01" nType="0">
        <Node pos="l" depth="1" NCoef="0" IVar="-1" Cut="0.0000000000000000e+00" cType="1" res="1.6089327633380890e-02" rms="4.3810805678367615e-01" purity="6.9139420986175537e-01" nType="-99"/>
        <Node pos="r" depth="1" NCoef="0" IVar="3" Cut="5.5618017578125000e+02" cType="0" res="-1.9001374021172523e-02" rms="4.7616693377494812e-01" purity="4.6259376406669617e-01" nType="0">
          <Node pos="l" depth="2" NCoef="0" IVar="-1" Cut="0.0000000000000000e+00" cType="1" res="2.0554760470986366e-02" rms="4.5539540052413940e-01" purity="6.9296687841415405e-01" nType="-99"/>
          <Node pos="r" depth="2" NCoef="0" IVar="-1" Cut="0.0000000000000000e+00" cType="1" res="-6.0917851515114307e-03" rms="4.7613903880119324e-01" purity="4.3827947974205017e-01" nType="-99"/>
        </Node>
      </Node>
    </BinaryTree>
    <BinaryTree type="DecisionTree" boostWeight="1.0000000000000000e+00" itree="25">
      <Node pos="s" depth="0" NCoef="0" IVar="3" Cut="3.0007473754882812e+02" cType="0" res="3.2180399284698069e-04" rms="4.7178432345390320e-01" purity="4.9907404184341431e-01" nType="0">
        <Node pos="l" depth="1" NCoef="0" IVar="-1" Cut="0.0000000000000000e+00" cType="1" res="5.2467472851276398e-03" rms="4.7630733251571655e-01" purity="5.7904988527297974e-01" nType="-99"/>
        <Node pos="r" depth="1" NCoef="0" IVar="1" Cut="8.7429855346679688e+01" cType="0" res="-6.0520049184560776e-02" rms="4.5613929629325867e-01" purity="3.3002072572708130e-01" nType="0">
          <Node pos="l" depth="2" NCoef="0" IVar="-1" Cut="0.0000000000000000e+00" cType="1" res="-7.2863851673901081e-03" rms="4.6513858437538147e-01" purity="3.5384854674339294e-01" nType="-99"/>
          <Node pos="r" depth="2" NCoef="0" IVar="-1" Cut="0.0000000000000000e+00" cType="1" res="-3.4828603267669678e-02" rms="3.6025938391685486e-01" purity="1.6650791466236115e-01" nType="-99"/>
        </Node>
      </Node>
    </BinaryTree>
    <BinaryTree type="DecisionTree" boostWeight="1.0000000000000000e+00" itree="26">
      <Node pos="s" depth="0" NCoef="0" IVar="0" Cut="2.1014130115509033e+00" cType="1" res="1.8753157928586006e-04" rms="4.7136262059211731e-01" purity="4.9907404184341431e-01" nType="0">
        <Node pos="l" depth="1" NCoef="0" IVar="-1" Cut="0.0000000000000000e+00" cType="1" res="2.9895070474594831e-03" rms="4.7336426377296448e-01" purity="5.2659654617309570e-01" nType="-99"/>
        <Node pos="r" depth="1" NCoef="0" IVar="0" Cut="2.5862238407135010e+00" cType="1" res="-1.0502282530069351e-01" rms="4.4414803385734558e-01" purity="3.2269340753555298e-01" nType="0">
          <Node pos="l" depth="2" NCoef="0" IVar="-1" Cut="0.0000000000000000e+00" cType="1" res="-1.1185232549905777e-02" rms="4.6669521927833557e-01" purity="3.8553205132484436e-01" nType="-99"/>
          <Node pos="r" depth="2" NCoef="0" IVar="-1" Cut="0.0000000000000000e+00" cType="1" res="-4.1487645357847214e-02" rms="3.4828752279281616e-01" purity="1.4938090741634369e-01" nType="-99"/>
        </Node>
      </Node>
    </BinaryTree>
    <BinaryTree type="DecisionTree" boostWeight="1.0000000000000000e+00" itree="27">
      <Node pos="s" depth="0" NCoef="0" IVar="5" Cut="3.5565191507339478e-01" cType="0" res="1.2475813855417073e-04" rms="4.7094872593879700e-01" purity="4.9907404184341431e-01" nType="0">
        <Node pos="l" depth="1" NCoef="0" IVar="-1" Cut="0.0000000000000000e+00" cType="1" res="1.6600731760263443e-02" rms="4.3197932839393616e-01" purity="7.0381236076354980e-01" nType="-99"/>
        <Node pos="r" depth="1" NCoef="0" IVar="0" Cut="1.8601666688919067e+00" cType="1" res="-1.6392305493354797e-02" rms="4.7488230466842651e-01" purity="4.6600902080535889e-01" nType="0">
          <Node pos="l" depth="2" NCoef="0" IVar="-1" Cut="0.0000000000000000e+00" cType="1" res="6.7032780498266220e-04" rms="4.7856003046035767e-01" purity="5.0365149974822998e-01" nType="-99"/>
          <Node pos="r" depth="2" NCoef="0" IVar="-1" Cut="0.0000000000000000e+00" cType="1" res="-1.6692982986569405e-02" rms="4.5455694198608398e-01" purity="3.3275330066680908e-01" nType="-99"/>
        </Node>
      </Node>
    </BinaryTree>
    <BinaryTree type="DecisionTree" boostWeight="1.0000000000000000e+00" itree="28">
      <Node pos="s" depth="0" NCoef="0" IVar="3" Cut="5.5618017578125000e+02" cType="0" res="3.0079431599006057e-04" rms="4.7047516703605652e-01" purity="4.9907404184341431e-01" nType="0">
        <Node pos="l" depth="1" NCoef="0" IVar="-1" Cut="0.0000000000000000e+00" cType="1" res="2.2562082856893539e-02" rms="4.3873485922813416e-01" purity="7.2135174274444580e-01" nType="-99"/>
        <Node pos="r" depth="1" NCoef="0" IVar="2" Cut="2.4728318786621094e+02" cType="1" res="-1.2120048515498638e-02" rms="4.7186213731765747e-01" purity="4.7624751925468445e-01" nType="0">
          <Node pos="l" depth="2" NCoef="0" IVar="-1" Cut="0.0000000000000000e+00" cType="1" res="1.1643547622952610e-05" rms="4.7115385532379150e-01" purity="4.8675519227981567e-01" nType="-99"/>
          <Node pos="r" depth="2" NCoef="0" IVar="-1" Cut="0.0000000000000000e+00" cType="1" res="-3.0078589916229248e-02" rms="4.5400118827819824e-01" purity="3.4545543789863586e-01" nType="-99"/>
        </Node>
      </Node>
    </BinaryTree>
    <BinaryTree type="DecisionTree" boostWeight="1.0000000000000000e+00" itree="29">
      <Node pos="s" depth="0" NCoef="0" IVar="3" Cut="3.0007473754882812e+02" cType="0" res="2.7053299709223211e-04" rms="4.6990847587585449e-01" purity="4.9907404184341431e-01" nType="0">
        <Node pos="l" depth="1" NCoef="0" IVar="-1" Cut="0.0000000000000000e+00" cType="1" res="4.8339557833969593e-03" rms="4.7432646155357361e-01" purity="5.7904988527297974e-01" nType="-99"/>
        <Node pos="r" depth="1" NCoef="0" IVar="1" Cut="8.7429855346679688e+01" cType="0" res="-5.5560581386089325e-02" rms="4.5541656017303467e-01" purity="3.3002072572708130e-01" nType="0">
          <Node pos="l" depth="2" NCoef="0" IVar="-1" Cut="0.0000000000000000e+00" cType="1" res="-6.6715758293867111e-03" rms="4.6478870511054993e-01" purity="3.5384854674339294e-01" nType="-99"/>
          <Node pos="r" depth="2" NCoef="0" IVar="-1" Cut="0.0000000000000000e+00" cType="1" res="-3.2979030162096024e-02" rms="3.5987216234207153e-01" purity="1.6650791466236115e-01" nType="-99"/>
        </Node>
      </Node>
    </BinaryTree>
    <BinaryTree type="DecisionTree" boostWeight="1.0000000000000000e+00" itree="30">
      <Node pos="s" depth="0" NCoef="0" IVar="5" Cut="2.9098793864250183e-01" cType="0" res="1.4837781782262027e-04" rms="4.6954950690269470e-01" purity="4.9907404184341431e-01" nType="0">
        <Node pos="l" depth="1" NCoef="0" IVar="-1" Cut="0.0000000000000000e+00" cType="1" res="1.2730376794934273e-02" rms="4.3962708115577698e-01" purity="6.7141449451446533e-01" nType="-99"/>
        <Node pos="r" depth="1" NCoef="0" IVar="3" Cut="5.5618017578125000e+02" cType="0" res="-1.8750531598925591e-02" rms="4.7457405924797058e-01" purity="4.5740225911140442e-01" nType="0">
          <Node pos="l" depth="2" NCoef="0" IVar="-1" Cut="0.0000000000000000e+00" cType="1" res="1.7899554222822189e-02" rms="4.5107379555702209e-01" purity="6.9873487949371338e-01" nType="-99"/>
          <Node pos="r" depth="2" NCoef="0" IVar="-1" Cut="0.0000000000000000e+00" cType="1" res="-5.7687088847160339e-03" rms="4.7533279657363892e-01" purity="4.3217608332633972e-01" nType="-99"/>
        </Node>
      </Node>
    </BinaryTree>
    <BinaryTree type="DecisionTree" boostWeight="1.0000000000000000e+00" itree="31">
      <Node pos="s" depth="0" NCoef="0" IVar="0" Cut="1.3744353055953979e+00" cType="1" res="3.4452450927346945e-04" rms="4.6913152933120728e-01" purity="4.9907404184341431e-01" nType="0">
        <Node pos="l" depth="1" NCoef="0" IVar="-1" Cut="0.0000000000000000e+00" cType="1" res="7.1762446314096451e-03" rms="4.6495524048805237e-01" purity="5.6121879816055298e-01" nType="-99"/>
        <Node pos="r" depth="1" NCoef="0" IVar="0" Cut="2.6207540035247803e+00" cType="1" res="-3.6569621413946152e-02" rms="4.7000426054000854e-01" purity="4.4105732440948486e-01" nType="0">
          <Node pos="l" depth="2" NCoef="0" IVar="-1" Cut="0.0000000000000000e+00" cType="1" res="-4.6485411003232002e-03" rms="4.7486126422882080e-01" purity="4.6094247698783875e-01" nType="-99"/>
          <Node pos="r" depth="2" NCoef="0" IVar="-1" Cut="0.0000000000000000e+00" cType="1" res="-3.8140155375003815e-02" rms="3.4927088022232056e-01" purity="1.4297728240489960e-01" nType="-99"/>
        </Node>
      </Node>
    </BinaryTree>
    <BinaryTree type="DecisionTree" boostWeight="1.0000000000000000e+00" itree="32">
      <Node pos="s" depth="0" NCoef="0" IVar="5" Cut="3.5565191507339478e-01" cType="0" res="2.8358644340187311e-04" rms="4.6871420741081238e-01" purity="4.9907404184341431e-01" nType="0">
        <Node pos="l" depth="1" NCoef="0" IVar="-1" Cut="0.0000000000000000e+00" cType="1" res="1.4729973860085011e-02" rms="4.2980083823204041e-01" purity="7.0381236076354980e-01" nType="-99"/>
        <Node pos="r" depth="1" NCoef="0" IVar="3" Cut="2.4885363769531250e+02" cType="0" res="-1.4127353206276894e-02" rms="4.7312375903129578e-01" purity="4.6600902080535889e-01" nType="0">
          <Node pos="l" depth="2" NCoef="0" IVar="-1" Cut="0.0000000000000000e+00" cType="1" res="-2.1052068041171879e-04" rms="4.7925662994384766e-01" purity="4.9846214056015015e-01" nType="-99"/>
          <Node pos="r" depth="2" NCoef="0" IVar="-1" Cut="0.0000000000000000e+00" cType="1" res="-2.1107885986566544e-02" rms="4.1179147362709045e-01" purity="2.2368650138378143e-01" nType="-99"/>
        </Node>
      </Node>
    </BinaryTree>
    <BinaryTree type="DecisionTree" boostWeight="1.0000000000000000e+00" itree="33">
      <Node pos="s" depth="0" NCoef="0" IVar="0" Cut="1.3744353055953979e+00" cType="1" res="3.5762396873906255e-04" rms="4.6834066510200500e-01" purity="4.9907404184341431e-01" nType="0">
        <Node pos="l" depth="1" NCoef="0" IVar="-1" Cut="0.0000000000000000e+00" cType="1" res="6.6059674136340618e-03" rms="4.6452531218528748e-01" purity="5.6121879816055298e-01" nType="-99"/>
        <Node pos="r" depth="1" NCoef="0" IVar="0" Cut="2.6207540035247803e+00" cType="1" res="-3.3489938825368881e-02" rms="4.6935376524925232e-01" purity="4.4105732440948486e-01" nType="0">
          <Node pos="l" depth="2" NCoef="0" IVar="-1" Cut="0.0000000000000000e+00" cType="1" res="-4.2383382096886635e-03" rms="4.7446751594543457e-01" purity="4.6094247698783875e-01" nType="-99"/>
          <Node pos="r" depth="2" NCoef="0" IVar="-1" Cut="0.0000000000000000e+00" cType="1" res="-3.6081023514270782e-02" rms="3.4906303882598877e-01" purity="1.4297728240489960e-01" nType="-99"/>
        </Node>
      </Node>
    </BinaryTree>
    <BinaryTree type="DecisionTree" boostWeight="1.0000000000000000e+00" itree="34">
      <Node pos="s" depth="0" NCoef="0" IVar="1" Cut="9.4773780822753906e+01" cType="0" res="2.9626875766552985e-04" rms="4.6798512339591980e-01" purity="4.9907404184341431e-01" nType="0">
        <Node pos="l" depth="1" NCoef="0" IVar="-1" Cut="0.0000000000000000e+00" cType="1" res="2.8856990393251181e-03" rms="4.6815493702888489e-01" purity="5.1735037565231323e-01" nType="-99"/>
        <Node pos="r" depth="1" NCoef="0" IVar="4" Cut="9.8617333173751831e-01" cType="1" res="-7.8351989388465881e-02" rms="4.5912984013557434e-01" purity="4.0600097179412842e-01" nType="0">
          <Node pos="l" depth="2" NCoef="0" IVar="-1" Cut="0.0000000000000000e+00" cType="1" res="-8.7755648419260979e-03" rms="4.6181169152259827e-01" purity="4.3607997894287109e-01" nType="-99"/>
          <Node pos="r" depth="2" NCoef="0" IVar="-1" Cut="0.0000000000000000e+00" cType="1" res="-5.8390446007251740e-02" rms="3.8451063632965088e-01" purity="1.9308185577392578e-01" nType="-99"/>
        </Node>
      </Node>
    </BinaryTree>
    <BinaryTree type="DecisionTree" boostWeight="1.0000000000000000e+00" itree="35">
      <Node pos="s" depth="0" NCoef="0" IVar="5" Cut="2.9098793864250183e-01" cType="0" res="2.9087526490911841e-04" rms="4.6757903695106506e-01" purity="4.9907404184341431e-01" nType="0">
        <Node pos="l" depth="1" NCoef="0" IVar="-1" Cut="0.0000000000000000e+00" cType="1" res="1.1306835338473320e-02" rms="4.3738436698913574e-01" purity="6.7141449451446533e-01" nType="-99"/>
        <Node pos="r" depth="1" NCoef="0" IVar="3" Cut="5.5618017578125000e+02" cType="0" res="-1.6265152022242546e-02" rms="4.7310638427734375e-01" purity="4.5740225911140442e-01" nType="0">
          <Node pos="l" depth="2" NCoef="0" IVar="-1" Cut="0.0000000000000000e+00" cType="1" res="1.6250856220722198e-02" rms="4.4924455881118774e-01" purity="6.9873487949371338e-01" nType="-99"/>
          <Node pos="r" depth="2" NCoef="0" IVar="-1" Cut="0.0000000000000000e+00" cType="1" res="-5.0865882076323032e-03" rms="4.7422787547111511e-01" purity="4.3217608332633972e-01" nType="-99"/>
        </Node>
      </Node>
    </BinaryTree>
    <BinaryTree type="DecisionTree" boostWeight="1.0000000000000000e+00" itree="36">
      <Node pos="s" depth="0" NCoef="0" IVar="3" Cut="3.0007473754882812e+02" cType="0" res="4.4957670615985990e-04" rms="4.6725609898567200e-01" purity="4.9907404184341431e-01" nType="0">
        <Node pos="l" depth="1" NCoef="0" IVar="-1" Cut="0.0000000000000000e+00" cType="1" res="4.2280247434973717e-03" rms="4.7163948416709900e-01" purity="5.7904988527297974e-01" nType="-99"/>
        <Node pos="r" depth="1" NCoef="0" IVar="1" Cut="8.7429855346679688e+01" cType="0" res="-4.7517757862806320e-02" rms="4.5413589477539062e-01" purity="3.3002072572708130e-01" nType="0">
          <Node pos="l" depth="2" NCoef="0" IVar="-1" Cut="0.0000000000000000e+00" cType="1" res="-5.6432276032865047e-03" rms="4.6404126286506653e-01" purity="3.5384854674339294e-01" nType="-99"/>
          <Node pos="r" depth="2" NCoef="0" IVar="-1" Cut="0.0000000000000000e+00" cType="1" res="-3.0217589810490608e-02" rms="3.5883331298828125e-01" purity="1.6650791466236115e-01" nType="-99"/>
        </Node>
      </Node>
    </BinaryTree>
    <BinaryTree type="DecisionTree" boostWeight="1.0000000000000000e+00" itree="37">
      <Node pos="s" depth="0" NCoef="0" IVar="0" Cut="1.3744353055953979e+00" cType="1" res="3.2379673211835325e-04" rms="4.6698459982872009e-01" purity="4.9907404184341431e-01" nType="0">
        <Node pos="l" depth="1" NCoef="0" IVar="-1" Cut="0.0000000000000000e+00" cType="1" res="6.2918583862483501e-03" rms="4.6286028623580933e-01" purity="5.6121879816055298e-01" nType="-99"/>
        <Node pos="r" depth="1" NCoef="0" IVar="5" Cut="2.9085168242454529e-01" cType="0" res="-3.1744029372930527e-02" rms="4.6853491663932800e-01" purity="4.4105732440948486e-01" nType="0">
          <Node pos="l" depth="2" NCoef="0" IVar="-1" Cut="0.0000000000000000e+00" cType="1" res="6.5052462741732597e-03" rms="4.4810420274734497e-01" purity="6.3297736644744873e-01" nType="-99"/>
          <Node pos="r" depth="2" NCoef="0" IVar="-1" Cut="0.0000000000000000e+00" cType="1" res="-9.9528878927230835e-03" rms="4.7199702262878418e-01" purity="3.8912710547447205e-01" nType="-99"/>
        </Node>
      </Node>
    </BinaryTree>
    <BinaryTree type="DecisionTree" boostWeight="1.0000000000000000e+00" itree="38">
      <Node pos="s" depth="0" NCoef="0" IVar="1" Cut="9.4773780822753906e+01" cType="0" res="4.4906965922564268e-04" rms="4.6666762232780457e-01" purity="4.9907404184341431e-01" nType="0">
        <Node pos="l" depth="1" NCoef="0" IVar="-1" Cut="0.0000000000000000e+00" cType="1" res="2.6334617286920547e-03" rms="4.6726879477500916e-01" purity="5.1735037565231323e-01" nType="-99"/>
        <Node pos="r" depth="1" NCoef="0" IVar="4" Cut="9.8617333173751831e-01" cType="1" res="-7.0036478340625763e-02" rms="4.5713853836059570e-01" purity="4.0600097179412842e-01" nType="0">
          <Node pos="l" depth="2" NCoef="0" IVar="-1" Cut="0.0000000000000000e+00" cType="1" res="-7.8819179907441139e-03" rms="4.6084243059158325e-01" purity="4.3607997894287109e-01" nType="-99"/>
          <Node pos="r" depth="2" NCoef="0" IVar="-1" Cut="0.0000000000000000e+00" cType="1" res="-5.3436167538166046e-02" rms="3.8479992747306824e-01" purity="1.9308185577392578e-01" nType="-99"/>
        </Node>
      </Node>
    </BinaryTree>
    <BinaryTree type="DecisionTree" boostWeight="1.0000000000000000e+00" itree="39">
      <Node pos="s" depth="0" NCoef="0" IVar="0" Cut="2.1014130115509033e+00" cType="1" res="4.2871126788668334e-04" rms="4.6633875370025635e-01" purity="4.9907404184341431e-01" nType="0">
        <Node pos="l" depth="1" NCoef="0" IVar="-1" Cut="0.0000000000000000e+00" cType="1" res="2.3521638941019773e-03" rms="4.6921646595001221e-01" purity="5.2659654617309570e-01" nType="-99"/>
        <Node pos="r" depth="1" NCoef="0" IVar="0" Cut="2.5862238407135010e+00" cType="1" res="-7.9191610217094421e-02" rms="4.3919193744659424e-01" purity="3.2269340753555298e-01" nType="0">
          <Node pos="l" depth="2" NCoef="0" IVar="-1" Cut="0.0000000000000000e+00" cType="1" res="-8.2949595525860786e-03" rms="4.6256774663925171e-01" purity="3.8553205132484436e-01" nType="-99"/>
          <Node pos="r" depth="2" NCoef="0" IVar="-1" Cut="0.0000000000000000e+00" cType="1" res="-3.4502379596233368e-02" rms="3.5005167126655579e-01" purity="1.4938090741634369e-01" nType="-99"/>
        </Node>
      </Node>
    </BinaryTree>
    <BinaryTree type="DecisionTree" boostWeight="1.0000000000000000e+00" itree="40">
      <Node pos="s" depth="0" NCoef="0" IVar="3" Cut="3.5129580688476562e+02" cType="0" res="3.5017883055843413e-04" rms="4.6608975529670715e-01" purity="4.9907404184341431e-01" nType="0">
        <Node pos="l" depth="1" NCoef="0" IVar="-1" Cut="0.0000000000000000e+00" cType="1" res="6.2755662947893143e-03" rms="4.6603688597679138e-01" purity="6.2440139055252075e-01" nType="-99"/>
        <Node pos="r" depth="1" NCoef="0" IVar="2" Cut="1.6534143066406250e+02" cType="1" res="-2.8314171358942986e-02" rms="4.6423950791358948e-01" purity="3.8983651995658875e-01" nType="0">
          <Node pos="l" depth="2" NCoef="0" IVar="-1" Cut="0.0000000000000000e+00" cType="1" res="-1.6914374427869916e-03" rms="4.7429609298706055e-01" purity="4.2096647620201111e-01" nType="-99"/>
          <Node pos="r" depth="2" NCoef="0" IVar="-1" Cut="0.0000000000000000e+00" cType="1" res="-2.0558662712574005e-02" rms="4.0906858444213867e-01" purity="2.5707912445068359e-01" nType="-99"/>
        </Node>
      </Node>
    </BinaryTree>
    <BinaryTree type="DecisionTree" boostWeight="1.0000000000000000e+00" itree="41">
      <Node pos="s" depth="0" NCoef="0" IVar="5" Cut="3.5565191507339478e-01" cType="0" res="2.1515719708986580e-04" rms="4.6580433845520020e-01" purity="4.9907404184341431e-01" nType="0">
        <Node pos="l" depth="1" NCoef="0" IVar="-1" Cut="0.0000000000000000e+00" cType="1" res="1.2712473981082439e-02" rms="4.2609918117523193e-01" purity="7.0381236076354980e-01" nType="-99"/>
        <Node pos="r" depth="1" NCoef="0" IVar="3" Cut="2.4885363769531250e+02" cType="0" res="-1.1961695738136768e-02" rms="4.7077220678329468e-01" purity="4.6600902080535889e-01" nType="0">
          <Node pos="l" depth="2" NCoef="0" IVar="-1" Cut="0.0000000000000000e+00" cType="1" res="-2.0943836716469377e-04" rms="4.7719785571098328e-01" purity="4.9846214056015015e-01" nType="-99"/>
          <Node pos="r" depth="2" NCoef="0" IVar="-1" Cut="0.0000000000000000e+00" cType="1" res="-1.8238881602883339e-02" rms="4.1075578331947327e-01" purity="2.2368650138378143e-01" nType="-99"/>
        </Node>
      </Node>
    </BinaryTree>
    <BinaryTree type="DecisionTree" boostWeight="1.0000000000000000e+00" itree="42">
      <Node pos="s" depth="0" NCoef="0" IVar="0" Cut="1.3744353055953979e+00" cType="1" res="2.8119297348894179e-04" rms="4.6554347872734070e-01" purity="4.9907404184341431e-01" nType="0">
        <Node pos="l" depth="1" NCoef="0" IVar="-1" Cut="0.0000000000000000e+00" cType="1" res="5.6522632949054241e-03" rms="4.6155792474746704e-01" purity="5.6121879816055298e-01" nType="-99"/>
        <Node pos="r" depth="1" NCoef="0" IVar="5" Cut="6.4633712172508240e-02" cType="0" res="-2.8371641412377357e-02" rms="4.6741837263107300e-01" purity="4.4105732440948486e-01" nType="0">
          <Node pos="l" depth="2" NCoef="0" IVar="-1" Cut="0.0000000000000000e+00" cType="1" res="-1.1424539843574166e-03" rms="4.6568459272384644e-01" purity="4.7322833538055420e-01" nType="-99"/>
          <Node pos="r" depth="2" NCoef="0" IVar="-1" Cut="0.0000000000000000e+00" cType="1" res="-1.8455142155289650e-02" rms="4.6692451834678650e-01" purity="3.5432711243629456e-01" nType="-99"/>
        </Node>
      </Node>
    </BinaryTree>
    <BinaryTree type="DecisionTree" boostWeight="1.0000000000000000e+00" itree="43">
      <Node pos="s" depth="0" NCoef="0" IVar="1" Cut="9.4773780822753906e+01" cType="0" res="4.0366264875046909e-04" rms="4.6524190902709961e-01" purity="4.9907404184341431e-01" nType="0">
        <Node pos="l" depth="1" NCoef="0" IVar="-1" Cut="0.0000000000000000e+00" cType="1" res="2.4452258367091417e-03" rms="4.6605160832405090e-01" purity="5.1735037565231323e-01" nType="-99"/>
        <Node pos="r" depth="1" NCoef="0" IVar="4" Cut="9.0326678752899170e-01" cType="1" res="-6.4690746366977692e-02" rms="4.5556625723838806e-01" purity="4.0600097179412842e-01" nType="0">
          <Node pos="l" depth="2" NCoef="0" IVar="-1" Cut="0.0000000000000000e+00" cType="1" res="4.1620437987148762e-03" rms="4.4775512814521790e-01" purity="4.9710553884506226e-01" nType="-99"/>
          <Node pos="r" depth="2" NCoef="0" IVar="-1" Cut="0.0000000000000000e+00" cType="1" res="-2.0246773958206177e-02" rms="4.5307305455207825e-01" purity="3.6221534013748169e-01" nType="-99"/>
        </Node>
      </Node>
    </BinaryTree>
    <BinaryTree type="DecisionTree" boostWeight="1.0000000000000000e+00" itree="44">
      <Node pos="s" depth="0" NCoef="0" IVar="3" Cut="3.0007473754882812e+02" cType="0" res="3.6993145477026701e-04" rms="4.6498328447341919e-01" purity="4.9907404184341431e-01" nType="0">
        <Node pos="l" depth="1" NCoef="0" IVar="-1" Cut="0.0000000000000000e+00" cType="1" res="3.6114898975938559e-03" rms="4.6932491660118103e-01" purity="5.7904988527297974e-01" nType="-99"/>
        <Node pos="r" depth="1" NCoef="0" IVar="2" Cut="1.8457424926757812e+02" cType="1" res="-4.0300074964761734e-02" rms="4.5298829674720764e-01" purity="3.3002072572708130e-01" nType="0">
          <Node pos="l" depth="2" NCoef="0" IVar="-1" Cut="0.0000000000000000e+00" cType="1" res="-5.4637258872389793e-03" rms="4.6340247988700867e-01" purity="3.5053831338882446e-01" nType="-99"/>
          <Node pos="r" depth="2" NCoef="0" IVar="-1" Cut="0.0000000000000000e+00" cType="1" res="-4.1951309889554977e-02" rms="2.3839639127254486e-01" purity="5.6895580142736435e-02" nType="-99"/>
        </Node>
      </Node>
    </BinaryTree>
    <BinaryTree type="DecisionTree" boostWeight="1.0000000000000000e+00" itree="45">
      <Node pos="s" depth="0" NCoef="0" IVar="5" Cut="3.8798388838768005e-01" cType="0" res="2.6498205261304975e-04" rms="4.6477147936820984e-01" purity="4.9907404184341431e-01" nType="0">
        <Node pos="l" depth="1" NCoef="0" IVar="-1" Cut="0.0000000000000000e+00" cType="1" res="1.2667927891016006e-02" rms="4.2289122939109802e-01" purity="7.0933246612548828e-01" nType="-99"/>
        <Node pos="r" depth="1" NCoef="0" IVar="0" Cut="1.8601666688919067e+00" cType="1" res="-9.9943820387125015e-03" rms="4.6925994753837585e-01" purity="4.7040188312530518e-01" nType="0">
          <Node pos="l" depth="2" NCoef="0" IVar="-1" Cut="0.0000000000000000e+00" cType="1" res="9.4500312115997076e-04" rms="4.7275701165199280e-01" purity="5.0907713174819946e-01" nType="-99"/>
          <Node pos="r" depth="2" NCoef="0" IVar="-1" Cut="0.0000000000000000e+00" cType="1" res="-1.2478531338274479e-02" rms="4.5277372002601624e-01" purity="3.3441385626792908e-01" nType="-99"/>
        </Node>
      </Node>
    </BinaryTree>
    <BinaryTree type="DecisionTree" boostWeight="1.0000000000000000e+00" itree="46">
      <Node pos="s" depth="0" NCoef="0" IVar="5" Cut="1.2932796776294708e-01" cType="0" res="3.7057857844047248e-04" rms="4.6453213691711426e-01" purity="4.9907404184341431e-01" nType="0">
        <Node pos="l" depth="1" NCoef="0" IVar="-1" Cut="0.0000000000000000e+00" cType="1" res="4.5770467258989811e-03" rms="4.5402503013610840e-01" purity="5.5188977718353271e-01" nType="-99"/>
        <Node pos="r" depth="1" NCoef="0" IVar="1" Cut="9.4773780822753906e+01" cType="0" res="-2.7231132611632347e-02" rms="4.7378739714622498e-01" purity="4.4342386722564697e-01" nType="0">
          <Node pos="l" depth="2" NCoef="0" IVar="-1" Cut="0.0000000000000000e+00" cType="1" res="-2.2143274545669556e-03" rms="4.7752952575683594e-01" purity="4.6460995078086853e-01" nType="-99"/>
          <Node pos="r" depth="2" NCoef="0" IVar="-1" Cut="0.0000000000000000e+00" cType="1" res="-2.2280639037489891e-02" rms="4.4282785058021545e-01" purity="3.2933858036994934e-01" nType="-99"/>
        </Node>
      </Node>
    </BinaryTree>
    <BinaryTree type="DecisionTree" boostWeight="1.0000000000000000e+00" itree="47">
      <Node pos="s" depth="0" NCoef="0" IVar="0" Cut="2.3922042846679688e+00" cType="1" res="4.8757097101770341e-04" rms="4.6428340673446655e-01" purity="4.9907404184341431e-01" nType="0">
        <Node pos="l" depth="1" NCoef="0" IVar="-1" Cut="0.0000000000000000e+00" cType="1" res="1.3277315301820636e-03" rms="4.6701753139495850e-01" purity="5.1543569564819336e-01" nType="-99"/>
        <Node pos="r" depth="1" NCoef="0" IVar="0" Cut="2.6181492805480957e+00" cType="1" res="-1.0817198455333710e-01" rms="4.0217185020446777e-01" purity="2.3381207883358002e-01" nType="0">
          <Node pos="l" depth="2" NCoef="0" IVar="-1" Cut="0.0000000000000000e+00" cType="1" res="-9.6564153209328651e-03" rms="4.5171004533767700e-01" purity="3.4788757562637329e-01" nType="-99"/>
          <Node pos="r" depth="2" NCoef="0" IVar="-1" Cut="0.0000000000000000e+00" cType="1" res="-3.1777746975421906e-02" rms="3.5016900300979614e-01" purity="1.4297728240489960e-01" nType="-99"/>
        </Node>
      </Node>
    </BinaryTree>
    <BinaryTree type="DecisionTree" boostWeight="1.0000000000000000e+00" itree="48">
      <Node pos="s" depth="0" NCoef="0" IVar="0" Cut="1.3744353055953979e+00" cType="1" res="4.0892467950470746e-04" rms="4.6412467956542969e-01" purity="4.9907404184341431e-01" nType="0">
        <Node pos="l" depth="1" NCoef="0" IVar="-1" Cut="0.0000000000000000e+00" cType="1" res="5.0722686573863029e-03" rms="4.6016415953636169e-01" purity="5.6121879816055298e-01" nType="-99"/>
        <Node pos="r" depth="1" NCoef="0" IVar="5" Cut="9.6950568258762360e-02" cType="0" res="-2.5031525641679764e-02" rms="4.6635687351226807e-01" purity="4.4105732440948486e-01" nType="0">
          <Node pos="l" depth="2" NCoef="0" IVar="-1" Cut="0.0000000000000000e+00" cType="1" res="-1.2418706319294870e-04" rms="4.6309038996696472e-01" purity="4.8626282811164856e-01" nType="-99"/>
          <Node pos="r" depth="2" NCoef="0" IVar="-1" Cut="0.0000000000000000e+00" cType="1" res="-1.3745270669460297e-02" rms="4.6894791722297668e-01" purity="3.6627218127250671e-01" nType="-99"/>
        </Node>
      </Node>
    </BinaryTree>
    <BinaryTree type="DecisionTree" boostWeight="1.0000000000000000e+00" itree="49">
      <Node pos="s" depth="0" NCoef="0" IVar="3" Cut="5.5618017578125000e+02" cType="0" res="5.2031519589945674e-04" rms="4.6389424800872803e-01" purity="4.9907404184341431e-01" nType="0">
        <Node pos="l" depth="1" NCoef="0" IVar="-1" Cut="0.0000000000000000e+00" cType="1" res="1.6072725877165794e-02" rms="4.3386858701705933e-01" purity="7.2135174274444580e-01" nType="-99"/>
        <Node pos="r" depth="1" NCoef="0" IVar="2" Cut="5.7783046722412109e+01" cType="0" res="-7.8763701021671295e-03" rms="4.6605688333511353e-01" purity="4.7624751925468445e-01" nType="0">
          <Node pos="l" depth="2" NCoef="0" IVar="-1" Cut="0.0000000000000000e+00" cType="1" res="6.1579644352605101e-06" rms="4.6605712175369263e-01" purity="4.8411992192268372e-01" nType="-99"/>
          <Node pos="r" depth="2" NCoef="0" IVar="-1" Cut="0.0000000000000000e+00" cType="1" res="-4.3056663125753403e-02" rms="4.0645277500152588e-01" purity="2.5319153070449829e-01" nType="-99"/>
        </Node>
      </Node>
    </BinaryTree>
    <BinaryTree type="DecisionTree" boostWeight="1.0000000000000000e+00" itree="50">
      <Node pos="s" depth="0" NCoef="0" IVar="1" Cut="9.4773780822753906e+01" cType="0" res="4.6149760601110756e-04" rms="4.6348059177398682e-01" purity="4.9907404184341431e-01" nType="0">
        <Node pos="l" depth="1" NCoef="0" IVar="-1" Cut="0.0000000000000000e+00" cType="1" res="2.1845621522516012e-03" rms="4.6466138958930969e-01" purity="5.1735037565231323e-01" nType="-99"/>
        <Node pos="r" depth="1" NCoef="0" IVar="4" Cut="9.8617333173751831e-01" cType="1" res="-5.6781023740768433e-02" rms="4.5311474800109863e-01" purity="4.0600097179412842e-01" nType="0">
          <Node pos="l" depth="2" NCoef="0" IVar="-1" Cut="0.0000000000000000e+00" cType="1" res="-6.2293815426528454e-03" rms="4.5790711045265198e-01" purity="4.3607997894287109e-01" nType="-99"/>
          <Node pos="r" depth="2" NCoef="0" IVar="-1" Cut="0.0000000000000000e+00" cType="1" res="-4.7216568142175674e-02" rms="3.8287571072578430e-01" purity="1.9308185577392578e-01" nType="-99"/>
        </Node>
      </Node>
    </BinaryTree>
    <BinaryTree type="DecisionTree" boostWeight="1.0000000000000000e+00" itree="51">
      <Node pos="s" depth="0" NCoef="0" IVar="3" Cut="3.0007473754882812e+02" cType="0" res="4.4013184378854930e-04" rms="4.6324679255485535e-01" purity="4.9907404184341431e-01" nType="0">
        <Node pos="l" depth="1" NCoef="0" IVar="-1" Cut="0.0000000000000000e+00" cType="1" res="3.2866995315998793e-03" rms="4.6745541691780090e-01" purity="5.7904988527297974e-01" nType="-99"/>
        <Node pos="r" depth="1" NCoef="0" IVar="2" Cut="1.8457424926757812e+02" cType="1" res="-3.6128893494606018e-02" rms="4.5204859972000122e-01" purity="3.3002072572708130e-01" nType="0">
          <Node pos="l" depth="2" NCoef="0" IVar="-1" Cut="0.0000000000000000e+00" cType="1" res="-4.9331453628838062e-03" rms="4.6272289752960205e-01" purity="3.5053831338882446e-01" nType="-99"/>
          <Node pos="r" depth="2" NCoef="0" IVar="-1" Cut="0.0000000000000000e+00" cType="1" res="-3.9899818599224091e-02" rms="2.3916178941726685e-01" purity="5.6895580142736435e-02" nType="-99"/>
        </Node>
      </Node>
    </BinaryTree>
    <BinaryTree type="DecisionTree" boostWeight="1.0000000000000000e+00" itree="52">
      <Node pos="s" depth="0" NCoef="0" IVar="0" Cut="1.3744353055953979e+00" cType="1" res="3.3523308229632676e-04" rms="4.6307411789894104e-01" purity="4.9907404184341431e-01" nType="0">
        <Node pos="l" depth="1" NCoef="0" IVar="-1" Cut="0.0000000000000000e+00" cType="1" res="4.8279864713549614e-03" rms="4.5854419469833374e-01" purity="5.6121879816055298e-01" nType="-99"/>
        <Node pos="r" depth="1" NCoef="0" IVar="2" Cut="2.4934919738769531e+02" cType="1" res="-2.3817706853151321e-02" rms="4.6596881747245789e-01" purity="4.4105732440948486e-01" nType="0">
          <Node pos="l" depth="2" NCoef="0" IVar="-1" Cut="0.0000000000000000e+00" cType="1" res="-2.1347077563405037e-03" rms="4.6576339006423950e-01" purity="4.4744491577148438e-01" nType="-99"/>
          <Node pos="r" depth="2" NCoef="0" IVar="-1" Cut="0.0000000000000000e+00" cType="1" res="-1.9443543627858162e-02" rms="4.5978215336799622e-01" purity="4.0159627795219421e-01" nType="-99"/>
        </Node>
      </Node>
    </BinaryTree>
    <BinaryTree type="DecisionTree" boostWeight="1.0000000000000000e+00" itree="53">
      <Node pos="s" depth="0" NCoef="0" IVar="5" Cut="3.5565191507339478e-01" cType="0" res="3.3397981314919889e-04" rms="4.6287363767623901e-01" purity="4.9907404184341431e-01" nType="0">
        <Node pos="l" depth="1" NCoef="0" IVar="-1" Cut="0.0000000000000000e+00" cType="1" res="1.0747254826128483e-02" rms="4.2236694693565369e-01" purity="7.0381236076354980e-01" nType="-99"/>
        <Node pos="r" depth="1" NCoef="0" IVar="3" Cut="2.4885363769531250e+02" cType="0" res="-9.7002582624554634e-03" rms="4.6831497550010681e-01" purity="4.6600902080535889e-01" nType="0">
          <Node pos="l" depth="2" NCoef="0" IVar="-1" Cut="0.0000000000000000e+00" cType="1" res="-1.3787714124191552e-04" rms="4.7487324476242065e-01" purity="4.9846214056015015e-01" nType="-99"/>
          <Node pos="r" depth="2" NCoef="0" IVar="-1" Cut="0.0000000000000000e+00" cType="1" res="-1.5558241866528988e-02" rms="4.0993890166282654e-01" purity="2.2368650138378143e-01" nType="-99"/>
        </Node>
      </Node>
    </BinaryTree>
    <BinaryTree type="DecisionTree" boostWeight="1.0000000000000000e+00" itree="54">
      <Node pos="s" depth="0" NCoef="0" IVar="5" Cut="6.4663983881473541e-02" cType="0" res="3.7537232856266201e-04" rms="4.6269837021827698e-01" purity="4.9907404184341431e-01" nType="0">
        <Node pos="l" depth="1" NCoef="0" IVar="-1" Cut="0.0000000000000000e+00" cType="1" res="2.6387320831418037e-03" rms="4.5867559313774109e-01" purity="5.2445435523986816e-01" nType="-99"/>
        <Node pos="r" depth="1" NCoef="0" IVar="3" Cut="5.9581542968750000e+02" cType="0" res="-3.9669904857873917e-02" rms="4.7148641943931580e-01" purity="4.2795789241790771e-01" nType="0">
          <Node pos="l" depth="2" NCoef="0" IVar="-1" Cut="0.0000000000000000e+00" cType="1" res="2.1308522671461105e-02" rms="4.3432557582855225e-01" purity="7.3120301961898804e-01" nType="-99"/>
          <Node pos="r" depth="2" NCoef="0" IVar="-1" Cut="0.0000000000000000e+00" cType="1" res="-1.0748038999736309e-02" rms="4.7264185547828674e-01" purity="4.0264502167701721e-01" nType="-99"/>
        </Node>
      </Node>
    </BinaryTree>
    <BinaryTree type="DecisionTree" boostWeight="1.0000000000000000e+00" itree="55">
      <Node pos="s" depth="0" NCoef="0" IVar="0" Cut="2.3922042846679688e+00" cType="1" res="5.0066475523635745e-04" rms="4.6250456571578979e-01" purity="4.9907404184341431e-01" nType="0">
        <Node pos="l" depth="1" NCoef="0" IVar="-1" Cut="0.0000000000000000e+00" cType="1" res="1.1946231825277209e-03" rms="4.6533429622650146e-01" purity="5.1543569564819336e-01" nType="-99"/>
        <Node pos="r" depth="1" NCoef="0" IVar="0" Cut="2.5630187988281250e+00" cType="1" res="-9.5516003668308258e-02" rms="4.0194067358970642e-01" purity="2.3381207883358002e-01" nType="0">
          <Node pos="l" depth="2" NCoef="0" IVar="-1" Cut="0.0000000000000000e+00" cType="1" res="-4.4189528562128544e-03" rms="4.5937928557395935e-01" purity="3.6917024850845337e-01" nType="-99"/>
          <Node pos="r" depth="2" NCoef="0" IVar="-1" Cut="0.0000000000000000e+00" cType="1" res="-2.7882928028702736e-02" rms="3.6513423919677734e-01" purity="1.6748264431953430e-01" nType="-99"/>
        </Node>
      </Node>
    </BinaryTree>
    <BinaryTree type="DecisionTree" boostWeight="1.0000000000000000e+00" itree="56">
      <Node pos="s" depth="0" NCoef="0" IVar="1" Cut="9.4773780822753906e+01" cType="0" res="4.3038415606133640e-04" rms="4.6237424015998840e-01" purity="4.9907404184341431e-01" nType="0">
        <Node pos="l" depth="1" NCoef="0" IVar="-1" Cut="0.0000000000000000e+00" cType="1" res="2.0243141334503889e-03" rms="4.6375328302383423e-01" purity="5.1735037565231323e-01" nType="-99"/>
        <Node pos="r" depth="1" NCoef="0" IVar="4" Cut="9.0326678752899170e-01" cType="1" res="-5.2294310182332993e-02" rms="4.5161947607994080e-01" purity="4.0600097179412842e-01" nType="0">
          <Node pos="l" depth="2" NCoef="0" IVar="-1" Cut="0.0000000000000000e+00" cType="1" res="4.5749288983643055e-03" rms="4.4434556365013123e-01" purity="4.9710553884506226e-01" nType="-99"/>
          <Node pos="r" depth="2" NCoef="0" IVar="-1" Cut="0.0000000000000000e+00" cType="1" res="-1.7333690077066422e-02" rms="4.5019125938415527e-01" purity="3.6221534013748169e-01" nType="-99"/>
        </Node>
      </Node>
    </BinaryTree>
    <BinaryTree type="DecisionTree" boostWeight="1.0000000000000000e+00" itree="57">
      <Node pos="s" depth="0" NCoef="0" IVar="3" Cut="3.5129580688476562e+02" cType="0" res="3.9715936873108149e-04" rms="4.6218910813331604e-01" purity="4.9907404184341431e-01" nType="0">
        <Node pos="l" depth="1" NCoef="0" IVar="-1" Cut="0.0000000000000000e+00" cType="1" res="4.8452680930495262e-03" rms="4.6189174056053162e-01" purity="6.2440139055252075e-01" nType="-99"/>
        <Node pos="r" depth="1" NCoef="0" IVar="1" Cut="1.4683551025390625e+02" cType="1" res="-2.1255588158965111e-02" rms="4.6135836839675903e-01" purity="3.8983651995658875e-01" nType="0">
          <Node pos="l" depth="2" NCoef="0" IVar="-1" Cut="0.0000000000000000e+00" cType="1" res="-2.0005146507173777e-03" rms="4.6492233872413635e-01" purity="4.0257737040519714e-01" nType="-99"/>
          <Node pos="r" depth="2" NCoef="0" IVar="-1" Cut="0.0000000000000000e+00" cType="1" res="-2.5782572105526924e-02" rms="4.0216064453125000e-01" purity="2.4808830022811890e-01" nType="-99"/>
        </Node>
      </Node>
    </BinaryTree>
    <BinaryTree type="DecisionTree" boostWeight="1.0000000000000000e+00" itree="58">
      <Node pos="s" depth="0" NCoef="0" IVar="5" Cut="2.9098793864250183e-01" cType="0" res="2.8826983179897070e-04" rms="4.6199357509613037e-01" purity="4.9907404184341431e-01" nType="0">
        <Node pos="l" depth="1" NCoef="0" IVar="-1" Cut="0.0000000000000000e+00" cType="1" res="8.0117173492908478e-03" rms="4.2983043193817139e-01" purity="6.7141449451446533e-01" nType="-99"/>
        <Node pos="r" depth="1" NCoef="0" IVar="3" Cut="5.5618017578125000e+02" cType="0" res="-1.0959646664559841e-02" rms="4.6874731779098511e-01" purity="4.5740225911140442e-01" nType="0">
          <Node pos="l" depth="2" NCoef="0" IVar="-1" Cut="0.0000000000000000e+00" cType="1" res="1.1740284971892834e-02" rms="4.4512969255447388e-01" purity="6.9873487949371338e-01" nType="-99"/>
          <Node pos="r" depth="2" NCoef="0" IVar="-1" Cut="0.0000000000000000e+00" cType="1" res="-3.5446688998490572e-03" rms="4.7051724791526794e-01" purity="4.3217608332633972e-01" nType="-99"/>
        </Node>
      </Node>
    </BinaryTree>
    <BinaryTree type="DecisionTree" boostWeight="1.0000000000000000e+00" itree="59">
      <Node pos="s" depth="0" NCoef="0" IVar="2" Cut="2.3053999328613281e+02" cType="1" res="3.8883727393113077e-04" rms="4.6184664964675903e-01" purity="4.9907404184341431e-01" nType="0">
        <Node pos="l" depth="1" NCoef="0" IVar="-1" Cut="0.0000000000000000e+00" cType="1" res="1.8417139071971178e-03" rms="4.6175161004066467e-01" purity="4.9982380867004395e-01" nType="-99"/>
        <Node pos="r" depth="1" NCoef="0" IVar="3" Cut="4.8040887451171875e+02" cType="0" res="-5.5285416543483734e-02" rms="4.5846769213676453e-01" purity="4.9466148018836975e-01" nType="0">
          <Node pos="l" depth="2" NCoef="0" IVar="-1" Cut="0.0000000000000000e+00" cType="1" res="1.6260759439319372e-03" rms="4.6267500519752502e-01" purity="6.2615108489990234e-01" nType="-99"/>
          <Node pos="r" depth="2" NCoef="0" IVar="-1" Cut="0.0000000000000000e+00" cType="1" res="-2.6030223816633224e-02" rms="4.3929737806320190e-01" purity="3.2276585698127747e-01" nType="-99"/>
        </Node>
      </Node>
    </BinaryTree>
    <BinaryTree type="DecisionTree" boostWeight="1.0000000000000000e+00" itree="60">
      <Node pos="s" depth="0" NCoef="0" IVar="0" Cut="1.3744353055953979e+00" cType="1" res="3.5199199919588864e-04" rms="4.6161141991615295e-01" purity="4.9907404184341431e-01" nType="0">
        <Node pos="l" depth="1" NCoef="0" IVar="-1" Cut="0.0000000000000000e+00" cType="1" res="4.3814931996166706e-03" rms="4.5708489418029785e-01" purity="5.6121879816055298e-01" nType="-99"/>
        <Node pos="r" depth="1" NCoef="0" IVar="2" Cut="2.4934919738769531e+02" cType="1" res="-2.1367413923144341e-02" rms="4.6474760770797729e-01" purity="4.4105732440948486e-01" nType="0">
          <Node pos="l" depth="2" NCoef="0" IVar="-1" Cut="0.0000000000000000e+00" cType="1" res="-1.9562591332942247e-03" rms="4.6484112739562988e-01" purity="4.4744491577148438e-01" nType="-99"/>
          <Node pos="r" depth="2" NCoef="0" IVar="-1" Cut="0.0000000000000000e+00" cType="1" res="-1.7471920698881149e-02" rms="4.5828929543495178e-01" purity="4.0159627795219421e-01" nType="-99"/>
        </Node>
      </Node>
    </BinaryTree>
    <BinaryTree type="DecisionTree" boostWeight="1.0000000000000000e+00" itree="61">
      <Node pos="s" depth="0" NCoef="0" IVar="3" Cut="3.0007473754882812e+02" cType="0" res="3.4571209107525647e-04" rms="4.6145159006118774e-01" purity="4.9907404184341431e-01" nType="0">
        <Node pos="l" depth="1" NCoef="0" IVar="-1" Cut="0.0000000000000000e+00" cType="1" res="2.8936169110238552e-03" rms="4.6530082821846008e-01" purity="5.7904988527297974e-01" nType="-99"/>
        <Node pos="r" depth="1" NCoef="0" IVar="5" Cut="3.2331991940736771e-02" cType="1" res="-3.1652014702558517e-02" rms="4.5154044032096863e-01" purity="3.3002072572708130e-01" nType="0">
          <Node pos="l" depth="2" NCoef="0" IVar="-1" Cut="0.0000000000000000e+00" cType="1" res="1.3899552635848522e-02" rms="4.6855723857879639e-01" purity="3.7926363945007324e-01" nType="-99"/>
          <Node pos="r" depth="2" NCoef="0" IVar="-1" Cut="0.0000000000000000e+00" cType="1" res="-8.3980960771441460e-03" rms="4.4762322306632996e-01" purity="3.2342591881752014e-01" nType="-99"/>
        </Node>
      </Node>
    </BinaryTree>
    <BinaryTree type="DecisionTree" boostWeight="1.0000000000000000e+00" itree="62">
      <Node pos="s" depth="0" NCoef="0" IVar="5" Cut="6.4663983881473541e-02" cType="0" res="2.4448210024274886e-04" rms="4.6130621433258057e-01" purity="4.9907404184341431e-01" nType="0">
        <Node pos="l" depth="1" NCoef="0" IVar="-1" Cut="0.0000000000000000e+00" cType="1" res="2.4108698125928640e-03" rms="4.5736563205718994e-01" purity="5.2445435523986816e-01" nType="-99"/>
        <Node pos="r" depth="1" NCoef="0" IVar="3" Cut="5.9581542968750000e+02" cType="0" res="-3.6353576928377151e-02" rms="4.7024413943290710e-01" purity="4.2795789241790771e-01" nType="0">
          <Node pos="l" depth="2" NCoef="0" IVar="-1" Cut="0.0000000000000000e+00" cType="1" res="1.7784837633371353e-02" rms="4.3371713161468506e-01" purity="7.3120301961898804e-01" nType="-99"/>
          <Node pos="r" depth="2" NCoef="0" IVar="-1" Cut="0.0000000000000000e+00" cType="1" res="-9.7218453884124756e-03" rms="4.7187188267707825e-01" purity="4.0264502167701721e-01" nType="-99"/>
        </Node>
      </Node>
    </BinaryTree>
    <BinaryTree type="DecisionTree" boostWeight="1.0000000000000000e+00" itree="63">
      <Node pos="s" depth="0" NCoef="0" IVar="1" Cut="9.4773780822753906e+01" cType="0" res="3.6755632027052343e-04" rms="4.6115517616271973e-01" purity="4.9907404184341431e-01" nType="0">
        <Node pos="l" depth="1" NCoef="0" IVar="-1" Cut="0.0000000000000000e+00" cType="1" res="1.8861197168007493e-03" rms="4.6265459060668945e-01" purity="5.1735037565231323e-01" nType="-99"/>
        <Node pos="r" depth="1" NCoef="0" IVar="4" Cut="9.8617333173751831e-01" cType="1" res="-4.8614252358675003e-02" rms="4.5026624202728271e-01" purity="4.0600097179412842e-01" nType="0">
          <Node pos="l" depth="2" NCoef="0" IVar="-1" Cut="0.0000000000000000e+00" cType="1" res="-5.3138611838221550e-03" rms="4.5572862029075623e-01" purity="4.3607997894287109e-01" nType="-99"/>
          <Node pos="r" depth="2" NCoef="0" IVar="-1" Cut="0.0000000000000000e+00" cType="1" res="-4.2673908174037933e-02" rms="3.8238632678985596e-01" purity="1.9308185577392578e-01" nType="-99"/>
        </Node>
      </Node>
    </BinaryTree>
    <BinaryTree type="DecisionTree" boostWeight="1.0000000000000000e+00" itree="64">
      <Node pos="s" depth="0" NCoef="0" IVar="5" Cut="3.8798388838768005e-01" cType="0" res="3.5327035584487021e-04" rms="4.6097755432128906e-01" purity="4.9907404184341431e-01" nType="0">
        <Node pos="l" depth="1" NCoef="0" IVar="-1" Cut="0.0000000000000000e+00" cType="1" res="1.0051449760794640e-02" rms="4.1873446106910706e-01" purity="7.0933246612548828e-01" nType="-99"/>
        <Node pos="r" depth="1" NCoef="0" IVar="2" Cut="2.3053999328613281e+02" cType="0" res="-7.5046964921057224e-03" rms="4.6588984131813049e-01" purity="4.7040188312530518e-01" nType="0">
          <Node pos="l" depth="2" NCoef="0" IVar="-1" Cut="0.0000000000000000e+00" cType="1" res="-1.1688228696584702e-02" rms="4.6356981992721558e-01" purity="4.7393009066581726e-01" nType="-99"/>
          <Node pos="r" depth="2" NCoef="0" IVar="-1" Cut="0.0000000000000000e+00" cType="1" res="3.0321814119815826e-04" rms="4.6568849682807922e-01" purity="4.6979102492332458e-01" nType="-99"/>
        </Node>
      </Node>
    </BinaryTree>
    <BinaryTree type="DecisionTree" boostWeight="1.0000000000000000e+00" itree="65">
      <Node pos="s" depth="0" NCoef="0" IVar="3" Cut="4.0251690673828125e+02" cType="0" res="4.2424569255672395e-04" rms="4.6083167195320129e-01" purity="4.9907404184341431e-01" nType="0">
        <Node pos="l" depth="1" NCoef="0" IVar="-1" Cut="0.0000000000000000e+00" cType="1" res="6.2038488686084747e-03" rms="4.5711764693260193e-01" purity="6.4480328559875488e-01" nType="-99"/>
        <Node pos="r" depth="1" NCoef="0" IVar="2" Cut="2.1901358032226562e+02" cType="1" res="-1.3756623491644859e-02" rms="4.6180391311645508e-01" purity="4.3313717842102051e-01" nType="0">
          <Node pos="l" depth="2" NCoef="0" IVar="-1" Cut="0.0000000000000000e+00" cType="1" res="-8.3985237870365381e-04" rms="4.6513703465461731e-01" purity="4.4722837209701538e-01" nType="-99"/>
          <Node pos="r" depth="2" NCoef="0" IVar="-1" Cut="0.0000000000000000e+00" cType="1" res="-3.0338579788804054e-02" rms="3.8236591219902039e-01" purity="2.2096985578536987e-01" nType="-99"/>
        </Node>
      </Node>
    </BinaryTree>
    <BinaryTree type="DecisionTree" boostWeight="1.0000000000000000e+00" itree="66">
      <Node pos="s" depth="0" NCoef="0" IVar="0" Cut="1.3744353055953979e+00" cType="1" res="3.2678883871994913e-04" rms="4.6060109138488770e-01" purity="4.9907404184341431e-01" nType="0">
        <Node pos="l" depth="1" NCoef="0" IVar="-1" Cut="0.0000000000000000e+00" cType="1" res="4.0402179583907127e-03" rms="4.5596614480018616e-01" purity="5.6121879816055298e-01" nType="-99"/>
        <Node pos="r" depth="1" NCoef="0" IVar="0" Cut="2.6207540035247803e+00" cType="1" res="-1.9597169011831284e-02" rms="4.6400132775306702e-01" purity="4.4105732440948486e-01" nType="0">
          <Node pos="l" depth="2" NCoef="0" IVar="-1" Cut="0.0000000000000000e+00" cType="1" res="-2.4278084747493267e-03" rms="4.6984273195266724e-01" purity="4.6094247698783875e-01" nType="-99"/>
          <Node pos="r" depth="2" NCoef="0" IVar="-1" Cut="0.0000000000000000e+00" cType="1" res="-2.6403926312923431e-02" rms="3.4988549351692200e-01" purity="1.4297728240489960e-01" nType="-99"/>
        </Node>
      </Node>
    </BinaryTree>
    <BinaryTree type="DecisionTree" boostWeight="1.0000000000000000e+00" itree="67">
      <Node pos="s" depth="0" NCoef="0" IVar="3" Cut="3.0007473754882812e+02" cType="0" res="2.7184156351722777e-04" rms="4.6046075224876404e-01" purity="4.9907404184341431e-01" nType="0">
        <Node pos="l" depth="1" NCoef="0" IVar="-1" Cut="0.0000000000000000e+00" cType="1" res="2.6593790389597416e-03" rms="4.6411553025245667e-01" purity="5.7904988527297974e-01" nType="-99"/>
        <Node pos="r" depth="1" NCoef="0" IVar="5" Cut="3.2331991940736771e-02" cType="1" res="-2.9081327840685844e-02" rms="4.5123395323753357e-01" purity="3.3002072572708130e-01" nType="0">
          <Node pos="l" depth="2" NCoef="0" IVar="-1" Cut="0.0000000000000000e+00" cType="1" res="1.3654412701725960e-02" rms="4.6808758378028870e-01" purity="3.7926363945007324e-01" nType="-99"/>
          <Node pos="r" depth="2" NCoef="0" IVar="-1" Cut="0.0000000000000000e+00" cType="1" res="-7.8694233670830727e-03" rms="4.4745886325836182e-01" purity="3.2342591881752014e-01" nType="-99"/>
        </Node>
      </Node>
    </BinaryTree>
    <BinaryTree type="DecisionTree" boostWeight="1.0000000000000000e+00" itree="68">
      <Node pos="s" depth="0" NCoef="0" IVar="5" Cut="3.8798388838768005e-01" cType="0" res="1.8152521806769073e-04" rms="4.6033284068107605e-01" purity="4.9907404184341431e-01" nType="0">
        <Node pos="l" depth="1" NCoef="0" IVar="-1" Cut="0.0000000000000000e+00" cType="1" res="9.6095129847526550e-03" rms="4.1774556040763855e-01" purity="7.0933246612548828e-01" nType="-99"/>
        <Node pos="r" depth="1" NCoef="0" IVar="3" Cut="2.4885363769531250e+02" cType="0" res="-7.2881942614912987e-03" rms="4.6533942222595215e-01" purity="4.7040188312530518e-01" nType="0">
          <Node pos="l" depth="2" NCoef="0" IVar="-1" Cut="0.0000000000000000e+00" cType="1" res="4.1714916733326390e-05" rms="4.7158354520797729e-01" purity="5.0268197059631348e-01" nType="-99"/>
          <Node pos="r" depth="2" NCoef="0" IVar="-1" Cut="0.0000000000000000e+00" cType="1" res="-1.3234250247478485e-02" rms="4.1103059053421021e-01" purity="2.2771002352237701e-01" nType="-99"/>
        </Node>
      </Node>
    </BinaryTree>
    <BinaryTree type="DecisionTree" boostWeight="1.0000000000000000e+00" itree="69">
      <Node pos="s" depth="0" NCoef="0" IVar="1" Cut="9.4773780822753906e+01" cType="0" res="2.2184428235050291e-04" rms="4.6021312475204468e-01" purity="4.9907404184341431e-01" nType="0">
        <Node pos="l" depth="1" NCoef="0" IVar="-1" Cut="0.0000000000000000e+00" cType="1" res="1.7205894691869617e-03" rms="4.6189060807228088e-01" purity="5.1735037565231323e-01" nType="-99"/>
        <Node pos="r" depth="1" NCoef="0" IVar="2" Cut="2.5018440246582031e+02" cType="1" res="-4.4772312045097351e-02" rms="4.4888398051261902e-01" purity="4.0600097179412842e-01" nType="0">
          <Node pos="l" depth="2" NCoef="0" IVar="-1" Cut="0.0000000000000000e+00" cType="1" res="-5.2810339257121086e-03" rms="4.4881206750869751e-01" purity="4.1412118077278137e-01" nType="-99"/>
          <Node pos="r" depth="2" NCoef="0" IVar="-1" Cut="0.0000000000000000e+00" cType="1" res="-3.7067506462335587e-02" rms="4.2140898108482361e-01" purity="3.3358189463615417e-01" nType="-99"/>
        </Node>
      </Node>
    </BinaryTree>
    <BinaryTree type="DecisionTree" boostWeight="1.0000000000000000e+00" itree="70">
      <Node pos="s" depth="0" NCoef="0" IVar="5" Cut="6.4663983881473541e-02" cType="0" res="1.8519560398999602e-04" rms="4.6006926894187927e-01" purity="4.9907404184341431e-01" nType="0">
        <Node pos="l" depth="1" NCoef="0" IVar="-1" Cut="0.0000000000000000e+00" cType="1" res="2.2075106389820576e-03" rms="4.5621782541275024e-01" purity="5.2445435523986816e-01" nType="-99"/>
        <Node pos="r" depth="1" NCoef="0" IVar="3" Cut="5.9581542968750000e+02" cType="0" res="-3.3179387450218201e-02" rms="4.6908596158027649e-01" purity="4.2795789241790771e-01" nType="0">
          <Node pos="l" depth="2" NCoef="0" IVar="-1" Cut="0.0000000000000000e+00" cType="1" res="1.6029234975576401e-02" rms="4.3227592110633850e-01" purity="7.3120301961898804e-01" nType="-99"/>
          <Node pos="r" depth="2" NCoef="0" IVar="-1" Cut="0.0000000000000000e+00" cType="1" res="-8.8806729763746262e-03" rms="4.7098717093467712e-01" purity="4.0264502167701721e-01" nType="-99"/>
        </Node>
      </Node>
    </BinaryTree>
    <BinaryTree type="DecisionTree" boostWeight="1.0000000000000000e+00" itree="71">
      <Node pos="s" depth="0" NCoef="0" IVar="2" Cut="8.0668693542480469e+01" cType="0" res="3.0049227643758059e-04" rms="4.5994588732719421e-01" purity="4.9907404184341431e-01" nType="0">
        <Node pos="l" depth="1" NCoef="0" IVar="-1" Cut="0.0000000000000000e+00" cType="1" res="1.6346708871424198e-03" rms="4.5800292491912842e-01" purity="5.1021802425384521e-01" nType="-99"/>
        <Node pos="r" depth="1" NCoef="0" IVar="2" Cut="5.6855045318603516e+01" cType="0" res="-4.5735593885183334e-02" rms="4.6797168254852295e-01" purity="4.3692433834075928e-01" nType="0">
          <Node pos="l" depth="2" NCoef="0" IVar="-1" Cut="0.0000000000000000e+00" cType="1" res="-1.4083487913012505e-03" rms="4.7256094217300415e-01" purity="4.7940239310264587e-01" nType="-99"/>
          <Node pos="r" depth="2" NCoef="0" IVar="-1" Cut="0.0000000000000000e+00" cType="1" res="-3.9228320121765137e-02" rms="4.0979942679405212e-01" purity="2.5519973039627075e-01" nType="-99"/>
        </Node>
      </Node>
    </BinaryTree>
    <BinaryTree type="DecisionTree" boostWeight="1.0000000000000000e+00" itree="72">
      <Node pos="s" depth="0" NCoef="0" IVar="0" Cut="1.3744353055953979e+00" cType="1" res="2.6603712467476726e-04" rms="4.5970419049263000e-01" purity="4.9907404184341431e-01" nType="0">
        <Node pos="l" depth="1" NCoef="0" IVar="-1" Cut="0.0000000000000000e+00" cType="1" res="3.9336406625807285e-03" rms="4.5466074347496033e-01" purity="5.6121879816055298e-01" nType="-99"/>
        <Node pos="r" depth="1" NCoef="0" IVar="2" Cut="1.5164784240722656e+02" cType="1" res="-1.9084705039858818e-02" rms="4.6352735161781311e-01" purity="4.4105732440948486e-01" nType="0">
          <Node pos="l" depth="2" NCoef="0" IVar="-1" Cut="0.0000000000000000e+00" cType="1" res="1.4748153043910861e-03" rms="4.6698707342147827e-01" purity="4.5138138532638550e-01" nType="-99"/>
          <Node pos="r" depth="2" NCoef="0" IVar="-1" Cut="0.0000000000000000e+00" cType="1" res="-8.2444753497838974e-03" rms="4.5941573381423950e-01" purity="4.3246322870254517e-01" nType="-99"/>
        </Node>
      </Node>
    </BinaryTree>
    <BinaryTree type="DecisionTree" boostWeight="1.0000000000000000e+00" itree="73">
      <Node pos="s" depth="0" NCoef="0" IVar="0" Cut="2.1014130115509033e+00" cType="1" res="2.9128976166248322e-04" rms="4.5957529544830322e-01" purity="4.9907404184341431e-01" nType="0">
        <Node pos="l" depth="1" NCoef="0" IVar="-1" Cut="0.0000000000000000e+00" cType="1" res="1.4544033911079168e-03" rms="4.6307796239852905e-01" purity="5.2659654617309570e-01" nType="-99"/>
        <Node pos="r" depth="1" NCoef="0" IVar="0" Cut="2.5862238407135010e+00" cType="1" res="-4.7290183603763580e-02" rms="4.3345263600349426e-01" purity="3.2269340753555298e-01" nType="0">
          <Node pos="l" depth="2" NCoef="0" IVar="-1" Cut="0.0000000000000000e+00" cType="1" res="-4.6881590969860554e-03" rms="4.5821890234947205e-01" purity="3.8553205132484436e-01" nType="-99"/>
          <Node pos="r" depth="2" NCoef="0" IVar="-1" Cut="0.0000000000000000e+00" cType="1" res="-2.4926217272877693e-02" rms="3.4868118166923523e-01" purity="1.4938090741634369e-01" nType="-99"/>
        </Node>
      </Node>
    </BinaryTree>
    <BinaryTree type="DecisionTree" boostWeight="1.0000000000000000e+00" itree="74">
      <Node pos="s" depth="0" NCoef="0" IVar="2" Cut="8.0668693542480469e+01" cType="0" res="2.3419743229169399e-04" rms="4.5947453379631042e-01" purity="4.9907404184341431e-01" nType="0">
        <Node pos="l" depth="1" NCoef="0" IVar="-1" Cut="0.0000000000000000e+00" cType="1" res="1.5637259930372238e-03" rms="4.5769399404525757e-01" purity="5.1021802425384521e-01" nType="-99"/>
        <Node pos="r" depth="1" NCoef="0" IVar="2" Cut="5.6855045318603516e+01" cType="0" res="-4.4034965336322784e-02" rms="4.6681168675422668e-01" purity="4.3692433834075928e-01" nType="0">
          <Node pos="l" depth="2" NCoef="0" IVar="-1" Cut="0.0000000000000000e+00" cType="1" res="-1.6845291247591376e-03" rms="4.7250634431838989e-01" purity="4.7940239310264587e-01" nType="-99"/>
          <Node pos="r" depth="2" NCoef="0" IVar="-1" Cut="0.0000000000000000e+00" cType="1" res="-3.6490663886070251e-02" rms="4.0953451395034790e-01" purity="2.5519973039627075e-01" nType="-99"/>
        </Node>
      </Node>
    </BinaryTree>
    <BinaryTree type="DecisionTree" boostWeight="1.0000000000000000e+00" itree="75">
      <Node pos="s" depth="0" NCoef="0" IVar="5" Cut="2.9098793864250183e-01" cType="0" res="2.0470256276894361e-04" rms="4.5926627516746521e-01" purity="4.9907404184341431e-01" nType="0">
        <Node pos="l" depth="1" NCoef="0" IVar="-1" Cut="0.0000000000000000e+00" cType="1" res="6.6663757897913456e-03" rms="4.2645213007926941e-01" purity="6.7141449451446533e-01" nType="-99"/>
        <Node pos="r" depth="1" NCoef="0" IVar="2" Cut="8.0668693542480469e+01" cType="0" res="-8.9675458148121834e-03" rms="4.6639159321784973e-01" purity="4.5740225911140442e-01" nType="0">
          <Node pos="l" depth="2" NCoef="0" IVar="-1" Cut="0.0000000000000000e+00" cType="1" res="-1.3651583867613226e-04" rms="4.6603420376777649e-01" purity="4.7102829813957214e-01" nType="-99"/>
          <Node pos="r" depth="2" NCoef="0" IVar="-1" Cut="0.0000000000000000e+00" cType="1" res="-1.0495961643755436e-02" rms="4.6565753221511841e-01" purity="3.8046249747276306e-01" nType="-99"/>
        </Node>
      </Node>
    </BinaryTree>
    <BinaryTree type="DecisionTree" boostWeight="1.0000000000000000e+00" itree="76">
      <Node pos="s" depth="0" NCoef="0" IVar="0" Cut="1.3744353055953979e+00" cType="1" res="2.6509602321311831e-04" rms="4.5916512608528137e-01" purity="4.9907404184341431e-01" nType="0">
        <Node pos="l" depth="1" NCoef="0" IVar="-1" Cut="0.0000000000000000e+00" cType="1" res="3.6934050731360912e-03" rms="4.5404157042503357e-01" purity="5.6121879816055298e-01" nType="-99"/>
        <Node pos="r" depth="1" NCoef="0" IVar="5" Cut="4.5243597030639648e-01" cType="0" res="-1.7843302339315414e-02" rms="4.6316462755203247e-01" purity="4.4105732440948486e-01" nType="0">
          <Node pos="l" depth="2" NCoef="0" IVar="-1" Cut="0.0000000000000000e+00" cType="1" res="9.0334238484501839e-03" rms="4.2877620458602905e-01" purity="6.9248378276824951e-01" nType="-99"/>
          <Node pos="r" depth="2" NCoef="0" IVar="-1" Cut="0.0000000000000000e+00" cType="1" res="-4.9793906509876251e-03" rms="4.6604529023170471e-01" purity="4.1419294476509094e-01" nType="-99"/>
        </Node>
      </Node>
    </BinaryTree>
    <BinaryTree type="DecisionTree" boostWeight="1.0000000000000000e+00" itree="77">
      <Node pos="s" depth="0" NCoef="0" IVar="1" Cut="9.4773780822753906e+01" cType="0" res="3.0596402939409018e-04" rms="4.5906212925910950e-01" purity="4.9907404184341431e-01" nType="0">
        <Node pos="l" depth="1" NCoef="0" IVar="-1" Cut="0.0000000000000000e+00" cType="1" res="1.6479755286127329e-03" rms="4.6074679493904114e-01" purity="5.1735037565231323e-01" nType="-99"/>
        <Node pos="r" depth="1" NCoef="0" IVar="4" Cut="9.0326678752899170e-01" cType="1" res="-4.2125549167394638e-02" rms="4.4798740744590759e-01" purity="4.0600097179412842e-01" nType="0">
          <Node pos="l" depth="2" NCoef="0" IVar="-1" Cut="0.0000000000000000e+00" cType="1" res="4.9480036832392216e-03" rms="4.4006991386413574e-01" purity="4.9710553884506226e-01" nType="-99"/>
          <Node pos="r" depth="2" NCoef="0" IVar="-1" Cut="0.0000000000000000e+00" cType="1" res="-1.4922909438610077e-02" rms="4.4782900810241699e-01" purity="3.6221534013748169e-01" nType="-99"/>
        </Node>
      </Node>
    </BinaryTree>
    <BinaryTree type="DecisionTree" boostWeight="1.0000000000000000e+00" itree="78">
      <Node pos="s" depth="0" NCoef="0" IVar="3" Cut="4.5373800659179688e+02" cType="0" res="2.8562938678078353e-04" rms="4.5892733335494995e-01" purity="4.9907404184341431e-01" nType="0">
        <Node pos="l" depth="1" NCoef="0" IVar="-1" Cut="0.0000000000000000e+00" cType="1" res="7.2407633997499943e-03" rms="4.4712185859680176e-01" purity="6.6733407974243164e-01" nType="-99"/>
        <Node pos="r" depth="1" NCoef="0" IVar="2" Cut="5.2370716094970703e+01" cType="0" res="-8.6561795324087143e-03" rms="4.6135655045509338e-01" purity="4.5755234360694885e-01" nType="0">
          <Node pos="l" depth="2" NCoef="0" IVar="-1" Cut="0.0000000000000000e+00" cType="1" res="-8.1598723772913218e-04" rms="4.6192571520805359e-01" purity="4.6296465396881104e-01" nType="-99"/>
          <Node pos="r" depth="2" NCoef="0" IVar="-1" Cut="0.0000000000000000e+00" cType="1" res="-3.6546505987644196e-02" rms="3.9950361847877502e-01" purity="2.3712179064750671e-01" nType="-99"/>
        </Node>
      </Node>
    </BinaryTree>
    <BinaryTree type="DecisionTree" boostWeight="1.0000000000000000e+00" itree="79">
      <Node pos="s" depth="0" NCoef="0" IVar="2" Cut="2.3053999328613281e+02" cType="1" res="2.5291790370829403e-04" rms="4.5875802636146545e-01" purity="4.9907404184341431e-01" nType="0">
        <Node pos="l" depth="1" NCoef="0" IVar="-1" Cut="0.0000000000000000e+00" cType="1" res="1.4933244092389941e-03" rms="4.5919230580329895e-01" purity="4.9982380867004395e-01" nType="-99"/>
        <Node pos="r" depth="1" NCoef="0" IVar="3" Cut="4.8040887451171875e+02" cType="0" res="-4.4616829603910446e-02" rms="4.5360502600669861e-01" purity="4.9466148018836975e-01" nType="0">
          <Node pos="l" depth="2" NCoef="0" IVar="-1" Cut="0.0000000000000000e+00" cType="1" res="8.1835762830451131e-04" rms="4.6027946472167969e-01" purity="6.2615108489990234e-01" nType="-99"/>
          <Node pos="r" depth="2" NCoef="0" IVar="-1" Cut="0.0000000000000000e+00" cType="1" res="-2.0903142169117928e-02" rms="4.3662315607070923e-01" purity="3.2276585698127747e-01" nType="-99"/>
        </Node>
      </Node>
    </BinaryTree>
    <BinaryTree type="DecisionTree" boostWeight="1.0000000000000000e+00" itree="80">
      <Node pos="s" depth="0" NCoef="0" IVar="5" Cut="1.2932796776294708e-01" cType="0" res="2.2804668697062880e-04" rms="4.5861166715621948e-01" purity="4.9907404184341431e-01" nType="0">
        <Node pos="l" depth="1" NCoef="0" IVar="-1" Cut="0.0000000000000000e+00" cType="1" res="3.1122250948101282e-03" rms="4.4834372401237488e-01" purity="5.5188977718353271e-01" nType="-99"/>
        <Node pos="r" depth="1" NCoef="0" IVar="1" Cut="9.4773780822753906e+01" cType="0" res="-1.7981790006160736e-02" rms="4.6849831938743591e-01" purity="4.4342386722564697e-01" nType="0">
          <Node pos="l" depth="2" NCoef="0" IVar="-1" Cut="0.0000000000000000e+00" cType="1" res="-1.2600242625921965e-03" rms="4.7328674793243408e-01" purity="4.6460995078086853e-01" nType="-99"/>
          <Node pos="r" depth="2" NCoef="0" IVar="-1" Cut="0.0000000000000000e+00" cType="1" res="-1.6477394849061966e-02" rms="4.3625181913375854e-01" purity="3.2933858036994934e-01" nType="-99"/>
        </Node>
      </Node>
    </BinaryTree>
    <BinaryTree type="DecisionTree" boostWeight="1.0000000000000000e+00" itree="81">
      <Node pos="s" depth="0" NCoef="0" IVar="0" Cut="1.3744353055953979e+00" cType="1" res="3.0200026230886579e-04" rms="4.5849162340164185e-01" purity="4.9907404184341431e-01" nType="0">
        <Node pos="l" depth="1" NCoef="0" IVar="-1" Cut="0.0000000000000000e+00" cType="1" res="3.5342669580131769e-03" rms="4.5302769541740417e-01" purity="5.6121879816055298e-01" nType="-99"/>
        <Node pos="r" depth="1" NCoef="0" IVar="0" Cut="2.6207540035247803e+00" cType="1" res="-1.6919886693358421e-02" rms="4.6287137269973755e-01" purity="4.4105732440948486e-01" nType="0">
          <Node pos="l" depth="2" NCoef="0" IVar="-1" Cut="0.0000000000000000e+00" cType="1" res="-2.1392938215285540e-03" rms="4.6893027424812317e-01" purity="4.6094247698783875e-01" nType="-99"/>
          <Node pos="r" depth="2" NCoef="0" IVar="-1" Cut="0.0000000000000000e+00" cType="1" res="-2.3337310180068016e-02" rms="3.4888154268264771e-01" purity="1.4297728240489960e-01" nType="-99"/>
        </Node>
      </Node>
    </BinaryTree>
    <BinaryTree type="DecisionTree" boostWeight="1.0000000000000000e+00" itree="82">
      <Node pos="s" depth="0" NCoef="0" IVar="3" Cut="3.0007473754882812e+02" cType="0" res="2.5204592384397984e-04" rms="4.5838779211044312e-01" purity="4.9907404184341431e-01" nType="0">
        <Node pos="l" depth="1" NCoef="0" IVar="-1" Cut="0.0000000000000000e+00" cType="1" res="2.3682883474975824e-03" rms="4.6168744564056396e-01" purity="5.7904988527297974e-01" nType="-99"/>
        <Node pos="r" depth="1" NCoef="0" IVar="5" Cut="3.2331991940736771e-02" cType="1" res="-2.5613699108362198e-02" rms="4.5024046301841736e-01" purity="3.3002072572708130e-01" nType="0">
          <Node pos="l" depth="2" NCoef="0" IVar="-1" Cut="0.0000000000000000e+00" cType="1" res="1.4145311899483204e-02" rms="4.6583822369575500e-01" purity="3.7926363945007324e-01" nType="-99"/>
          <Node pos="r" depth="2" NCoef="0" IVar="-1" Cut="0.0000000000000000e+00" cType="1" res="-7.2590718045830727e-03" rms="4.4669312238693237e-01" purity="3.2342591881752014e-01" nType="-99"/>
        </Node>
      </Node>
    </BinaryTree>
    <BinaryTree type="DecisionTree" boostWeight="1.0000000000000000e+00" itree="83">
      <Node pos="s" depth="0" NCoef="0" IVar="5" Cut="6.4663983881473541e-02" cType="0" res="1.6831693938001990e-04" rms="4.5827543735504150e-01" purity="4.9907404184341431e-01" nType="0">
        <Node pos="l" depth="1" NCoef="0" IVar="-1" Cut="0.0000000000000000e+00" cType="1" res="1.9259590189903975e-03" rms="4.5461064577102661e-01" purity="5.2445435523986816e-01" nType="-99"/>
        <Node pos="r" depth="1" NCoef="0" IVar="1" Cut="9.4773780822753906e+01" cType="0" res="-2.8662588447332382e-02" rms="4.6718603372573853e-01" purity="4.2795789241790771e-01" nType="0">
          <Node pos="l" depth="2" NCoef="0" IVar="-1" Cut="0.0000000000000000e+00" cType="1" res="-3.5510642919689417e-03" rms="4.7372606396675110e-01" purity="4.4926568865776062e-01" nType="-99"/>
          <Node pos="r" depth="2" NCoef="0" IVar="-1" Cut="0.0000000000000000e+00" cType="1" res="-1.8456179648637772e-02" rms="4.2828610539436340e-01" purity="3.2258909940719604e-01" nType="-99"/>
        </Node>
      </Node>
    </BinaryTree>
    <BinaryTree type="DecisionTree" boostWeight="1.0000000000000000e+00" itree="84">
      <Node pos="s" depth="0" NCoef="0" IVar="2" Cut="2.3053999328613281e+02" cType="1" res="2.4638383183628321e-04" rms="4.5818358659744263e-01" purity="4.9907404184341431e-01" nType="0">
        <Node pos="l" depth="1" NCoef="0" IVar="-1" Cut="0.0000000000000000e+00" cType="1" res="1.3675361406058073e-03" rms="4.5880147814750671e-01" purity="4.9982380867004395e-01" nType="-99"/>
        <Node pos="r" depth="1" NCoef="0" IVar="3" Cut="4.8040887451171875e+02" cType="0" res="-4.0636174380779266e-02" rms="4.5237436890602112e-01" purity="4.9466148018836975e-01" nType="0">
          <Node pos="l" depth="2" NCoef="0" IVar="-1" Cut="0.0000000000000000e+00" cType="1" res="5.9527903795242310e-04" rms="4.5963612198829651e-01" purity="6.2615108489990234e-01" nType="-99"/>
          <Node pos="r" depth="2" NCoef="0" IVar="-1" Cut="0.0000000000000000e+00" cType="1" res="-1.8995691090822220e-02" rms="4.3618616461753845e-01" purity="3.2276585698127747e-01" nType="-99"/>
        </Node>
      </Node>
    </BinaryTree>
    <BinaryTree type="DecisionTree" boostWeight="1.0000000000000000e+00" itree="85">
      <Node pos="s" depth="0" NCoef="0" IVar="3" Cut="3.5129580688476562e+02" cType="0" res="2.2240595717448741e-04" rms="4.5806419849395752e-01" purity="4.9907404184341431e-01" nType="0">
        <Node pos="l" depth="1" NCoef="0" IVar="-1" Cut="0.0000000000000000e+00" cType="1" res="3.5642606671899557e-03" rms="4.5684778690338135e-01" purity="6.2440139055252075e-01" nType="-99"/>
        <Node pos="r" depth="1" NCoef="0" IVar="1" Cut="1.4683551025390625e+02" cType="1" res="-1.5395839698612690e-02" rms="4.5855101943016052e-01" purity="3.8983651995658875e-01" nType="0">
          <Node pos="l" depth="2" NCoef="0" IVar="-1" Cut="0.0000000000000000e+00" cType="1" res="-1.2612438295036554e-03" rms="4.6249458193778992e-01" purity="4.0257737040519714e-01" nType="-99"/>
          <Node pos="r" depth="2" NCoef="0" IVar="-1" Cut="0.0000000000000000e+00" cType="1" res="-2.1898677572607994e-02" rms="3.9976066350936890e-01" purity="2.4808830022811890e-01" nType="-99"/>
        </Node>
      </Node>
    </BinaryTree>
    <BinaryTree type="DecisionTree" boostWeight="1.0000000000000000e+00" itree="86">
      <Node pos="s" depth="0" NCoef="0" IVar="3" Cut="2.4885363769531250e+02" cType="0" res="1.4663525507785380e-04" rms="4.5794337987899780e-01" purity="4.9907404184341431e-01" nType="0">
        <Node pos="l" depth="1" NCoef="0" IVar="-1" Cut="0.0000000000000000e+00" cType="1" res="1.1687115766108036e-03" rms="4.6231764554977417e-01" purity="5.2964431047439575e-01" nType="-99"/>
